0.03887,0.028686,0.010131,-0.0044661,-0.026679,-0.041452,-0.01996,-0.018765,-0.0076014,-0.01443,-0.024127,-0.014145,0.0042943,-0.0097904,-0.026034,-0.0092146,-0.013112,0.0049211,0.023818,0.015783,-0.0083927,-0.0099625,0.0041309,0.027865,0.011159,-0.0071906,-0.035157,-0.036792,0.0052679,0.019797,0.016857,-0.012241,-0.002975,-0.0044261,-0.018118,0.015613,-0.0032491,-0.00097901,-9.4377e-05,0.0080651,0.01197,0.029702,0.020191,0.0041421,0.0082472,-0.0023391,0.0084083,-0.0044459,-0.0035173,-0.074419,-0.05019,-0.023814,0.017578,0.0002342,-0.024456,-0.023004,-0.062679,-0.036975,0.011136,0.052863,0.038052,-0.027718,-0.016051,-0.038331,0.018989,0.0046884,-0.026827,0.06098,0.013613,-0.022743,-0.020995,-0.012384,0.0299,0.016588,-0.0027,0.009518,-0.02714,-0.037729,0.0014637,0.0277,0.01914,0.0082088,0.016415,-0.035113,-0.032386,-0.011159,0.032318,0.022761,0.029799,-0.043056,-0.041001,-0.043712,-0.016811,0.0014587,0.023021,-0.013509,-0.045418,-0.070598,0.017241,-0.0040115,0.015523,0.013121,-0.00059838,-0.0006984,-0.014882,0.01614,-0.0081762,0.024249,0.014151,-0.010425,-0.0074544,-0.0097774,0.022115,0.016902,0.035482,0.0049917,-0.014287,0.00040125,0.0012191,0.0328,0.027916,0.024302,0.0015448,-0.0068605,0.003325,-0.00097472,0.020707,0.015295,0.010344,0.0026872,-0.0071773,-0.0017686,-0.013904,0.0088498,0.026329,0.024273,0.0031833,-0.017629,-0.0060068,-0.0072023,0.01445,0.021238,0.0075887,-0.00037767,-0.0084389,-0.016036,-0.0033128,0.0056222,0.0034162,-0.003031,-0.01045,-0.0069674,-0.0084843,-0.016841,0.0061905,0.0077371,-0.02361,-0.016511,-0.010684,0.0017385,-0.005577,-0.0078805,-0.01904,-0.035207,-0.019219,-0.004308,0.0079572,-0.006832,-0.0066924,-0.020648,-0.032064,-0.019678,-0.0098428,-0.0065012,-0.0083383,0.0051232,-0.0052513,-0.016085,-0.018687,-0.019587,-0.024907,-0.018808,-0.0001715,-0.013295,-0.021766,-0.014894,-0.016741,-0.0088016,-0.023301,-0.0061333,-0.015632,-0.0015662,0.0019025,0.012106,0.0040954,-0.014393,0.012765,-0.00067999,-0.0039401,0.015383,0.0054559,0.018533,0.02178,-0.006715,-0.015374,-0.0072544,0.010771,0.0084662,0.00072669,0.010766,0.0024326,-0.0041762,-0.0068585,-0.011855,-0.0029815,0.0028053,0.013912,0.0031022,0.01628,-0.016461,-0.013449,0.00048906,0.020214,0.012915,-0.013128,0.016697,-0.020099,-0.022393,-0.0042115,0.010667,0.010987,-0.021005,-0.010397,-0.0043387,6.6022e-05,0.0094501,0.013367,0.007234,-0.021602,-0.0084109,-0.0097505,-0.017002,-0.0033475,0.0043129,0.0037341,-0.008435,-0.0013203,0.040548,0.034394,0.00030016,0.0056651,0.0095028,-0.051325,0.013618,0.03826,0.026674,0.026534,0.013243,0.0005621,-0.044629,0.008771,0.031747,-0.010553,0.010009,0.030524,0.016327,0.0038393,0.020864,0.00944,0.033976,0.014404,0.041809,0.026891,0.019076,0.032874,0.011102,-0.0020172,0.016358,0.030352,0.0093996,0.025607,0.012199,0.034633,0.00063067,-0.013666,0.0072371,-0.021991,0.0093247,0.0063599,-0.0054478,-0.017468,0.0013287,0.029682,0.011371,0.0054933,-0.0054556,-0.0020224,0.011603,0.0031286,0.0022282,0.0099573,-0.021523,-0.0022582,0.001114,0.01569,0.022547,0.0017333,0.0072922,0.011145,0.0149,0.031166,0.024005,0.028964,0.0020008,0.00613,0.027445,0.019678,0.04286,0.0012074,0.028609,0.015024,0.016542,0.006792,0.0047702,0.036144,0.0053218,0.018142,0.0083251,0.0098914,0.0084754,0.0078938,0.015724,0.011719,0.020985,0.0077842,-0.0017991,0.0037337,0.026503,0.024379,0.022483,0.02465,-0.0007427,-0.0051013,-0.025185,-0.0012698,0.027479,-0.0054071,0.0088075,-0.006254,0.0033317,-0.023299,-0.0059535,0.015079,0.0062967,-0.0015971,-0.018347,-0.00032223,-0.010554,-0.0078409,-0.0071191,0.0014033,0.0074287,-0.022492,-0.0048204,-4.294e-05,0.006816,-0.0045624,0.0026825,-0.01119,-0.0095383,0.0026421,0.0018396,0.013101,0.0046378,-0.0055128,-0.010945,0.0085237,0.0017223,0.0054616,0.011437,0.003632,0.0015841,-0.015974,-0.0025587,-0.0062701,0.0090946,0.00028543,0.010378,-0.0063642,-0.013561,-0.012234,-0.03222,0.0060155,0.011426,0.0037651,-0.011396,-0.013816,0.0045987,0.030645,-0.0069977,-0.004313,-0.005472,0.0018604,0.0039478,-0.0076582,0.017256,-0.0073385,-0.019898,-0.013371,-0.020755,-0.0058476,-0.0097811,0.03448,-0.0075959,-0.015478,0.0038834,-0.03512,-0.053786,-0.0041282,0.010093,0.0044626,-0.0090577,0.017639,-0.02502,-0.071379,-0.024214,0.010735,-0.0052239,-0.021308,-0.00083889,-0.026711,-0.049925,-0.031313,0.017489,0.0039979,-0.028749,0.0019924,-0.0082863,-0.037671,-0.014149,0.031817,-0.0068327,-0.019694,-0.012181,0.0096136,0.011777,0.026329,0.05231,-0.018261,-0.017039,-0.0027333,0.010969,0.016555,0.019842,0.033963,-0.017459,-0.017669,-0.013203,-0.0046243,0.0084867,0.02691,0.025892,-0.0084878,0.0013685,-0.016712,-0.014981,0.0013331,0.033932,0.046402,-0.010865,-0.0034557,-0.0064719,-0.0037483,0.013626,0.03778,0.035479,-0.013399,-0.0061192,0.009498,0.0060087,0.012956,0.03744,0.023741,-0.019456,-0.010305,-0.0011682,0.0015551,0.014027,0.030067,0.032389,0.02616,-0.001424,0.0074969,0.0050469,-0.01441,-0.021076,0.001146,0.028404,0.014217,-0.009706,-0.011197,0.021265,-0.0088543,0.012478,0.0071774,0.0088515,-0.01202,-0.030017,-0.0071454,0.020853,0.027405,0.013145,0.012368,0.0039374,-0.0036956,-0.0090323,0.010908,0.031097,0.028036,0.019047,0.0065698,0.013505,0.015989,0.022825,0.037238,0.013965,0.010455,0.0057696,0.01548,0.017852,-0.00076364,0.022056,0.011804,0.009981,0.0066765,0.007275,0.027021,0.0038279,0.013538,-0.009097,-0.001243,0.0097183,0.03638,0.037645,0.038242,0.011977,-0.031923,-0.0066221,-0.0088462,-0.0038637,0.018339,0.043302,0.030567,-0.015383,0.01201,0.014204,0.010983,0.0051068,0.01959,0.019218,0.014977,0.031424,0.043199,0.017373,0.024027,0.017976,0.017204,0.0020514,0.023128,0.038876,0.0017665,0.002979,0.019645,0.02377,-0.0027422,0.025545,0.035106,0.01326,-0.0003112,0.0066553,0.0044621,-0.0085813,0.018285,0.039173,0.026639,0.016558,-0.0051445,-0.014434,0.017942,0.024312,0.016025,0.0094767,0.015129,0.0077588,-0.0075231,0.021149,0.027603,0.01018,-0.00096606,0.013254,0.0098785,-3.8226e-05,0.023342,0.017437,0.016113,-0.0022551,-0.012882,0.0066826,-0.0063595,0.031928,0.004447,0.0031755,-0.0051217,-0.012711,0.00079022,-0.0073474,0.019452,0.0020922,-0.019687,-0.016866,-0.0066879,0.0042623,0.014056,0.027988,0.012521,-0.010843,-0.0058586,-0.0023316,-0.0013969,-0.005358,0.022471,-0.00070222,-0.0028958,-0.01428,-0.0032963,0.0047079,-0.010527,-0.016524,-0.0023011,-0.029144,-0.037195,0.0060026,0.0077932,0.027964,0.00066044,0.032891,0.0084301,-0.013433,-0.010132,0.015549,0.01701,0.020581,0.051074,-0.0086507,-0.025071,-0.022138,0.00082626,0.0038242,0.0073864,0.031901,-0.014775,-0.053944,-0.024024,0.00070307,0.023188,0.018868,-0.01136,-0.034796,0.0092709,-0.0034983,0.010473,0.023759,0.035707,0.03148,-0.0055584,0.018743,0.00064722,-0.0084331,0.014894,0.0045254,-0.00055888,-0.013149,-0.015236,-0.022092,-0.035709,-0.026236,-0.011047,-0.01086,-0.0022635,0.018115,0.011435,0.024607,0.030216,-0.0085994,-0.01029,0.00022604,0.0032461,0.0090333,0.020241,0.021611,-0.0018456,0.0054576,0.0015197,-0.0056421,-0.0060633,0.01365,0.022396,0.011969,0.015614,-0.0026973,-0.0073334,-0.011498,-0.0079522,0.0062048,0.01732,0.012549,0.0074684,-0.020913,-0.015518,0.0097811,0.0077108,0.015804,0.01602,0.006646,0.0081324,-0.006422,0.0088144,-0.0036602,0.022489,0.019829,0.01235,0.011248,-0.012223,0.0013528,-0.00049452,0.026846,0.011462,0.024922,0.0031898,-0.0048014,0.0040851,-0.00018771,0.020102,0.0030236,0.0052319,0.0012358,-0.01789,-0.013254,-0.010109,0.026022,0.014588,0.02443,0.010661,0.0036717,0.000415,-0.0022615,0.018013,0.02064,0.01853,0.015534,0.0067526,0.0025516,-0.0080719,0.027413,-0.0025467,-0.010295,0.0091604,-0.0024755,0.01211,-0.00030187,0.0021974,-0.0016827,-0.011687,0.0035103,-0.0088606,0.01793,0.0098286,-0.00064804,-0.01611,-0.013278,0.0061983,-0.0042333,0.023258,0.0082441,-0.03987,-0.031092,-0.061382,-0.067142,-0.037208,-0.030606,-0.01662,-0.03865,-0.025385,-0.05225,-0.088093,-0.0044057,-0.024788,0.0025724,0.0050467,-0.0091213,-0.041653,-0.075725,0.0051624,0.039106,0.030633,-0.02322,-0.0091038,-0.022182,-0.0018481,-0.012562,-0.0042869,0.020465,0.027392,0.029278,0.0099259,-0.0086442,0.051053,0.030719,0.04442,0.018517,0.052756,0.029549,0.0079229,0.023501,0.032704,0.028982,0.011247,0.021442,0.048657,0.06425,0.017435,0.012204,0.052638,0.026489,0.030343,0.019755,0.033524,0.011252,0.0063683,0.052776,0.021852,0.019952,0.022739,0.0064116,0.010456,0.01401,0.024942,0.008804,-0.0068469,0.021907,0.020273,0.019091,0.012152,0.0080126,0.026176,-0.025495,0.030584,0.026543,0.0099431,0.022703,-0.0027767,0.033412,-0.0093424,0.0087312,0.00099731,0.011614,0.020104,-0.0023547,0.030072,0.016953,-0.00063294,-0.016803,-0.0011788,0.0061422,0.015039,0.016565,0.0088957,0.008144,-0.00085854,-0.01402,0.0043753,0.0040192,0.0072117,-0.0068029,0.0080041,-0.0048535,0.011326,0.014509,0.020143,0.0041661,-0.0016495,0.010678,0.0024398,0.0067637,0.01937,0.024673,0.012127,-0.0071891,-0.0045296,0.012568,0.0048431,0.015236,0.016531,0.012245,-0.0025279,-0.0080422,0.013644,-0.0065852,0.0018081,0.0067198,0.0041366,-0.012938,-0.033476,-0.0031644,-0.012431,0.0060748,-0.010695,0.0070724,-0.018686,-0.023724,0.0012066,-0.024957,0.016881,0.0066178,0.0068312,-0.0080883,-0.01706,0.0066854,-0.017392,0.017009,0.010866,0.015213,0.0020732,-0.011689,0.0093549,0.012695,0.0074885,0.0071559,0.0083763,-0.010548,-0.02016,0.0084491,0.01261,0.0090037,-0.0031306,0.017997,0.014463,-0.0017458,0.0024437,0.0060851,0.0018669,-0.0039013,0.034637,0.033439,0.020059,-0.012018,0.013676,0.027451,0.035266,0.014837,0.01367,0.028157,0.0048284,0.010018,0.022401,0.033418,-0.0047835,-0.002679,0.025402,0.031274,0.012143,-0.0053127,-0.0025133,0.0064737,-0.017243,-0.0043978,-0.00067024,-0.00052774,0.0094914,0.022042,0.019775,0.012973,0.0012902,-0.0053752,-0.0037105,-0.021201,-0.014044,0.023907,0.011172,0.0064968,-0.005193,-0.0089349,-0.0096152,-0.010055,0.018136,-0.0028601,-0.0031466,-0.0033419,-0.0060907,-0.0026231,-0.0092357,0.010498,-0.001358,0.0045403,0.0063009,-0.0086935,-0.01123,-0.014311,0.023423,0.0090237,0.00026258,-0.009035,-0.034562,-0.020196,-0.0074425,0.026911,0.0037548,0.0012447,0.0018267,-0.026985,-0.0094921,-0.0028544,0.011806,-0.0027608,-0.011876,-0.0041665,-0.0087792,0.0010074,0.0016148,0.012137,0.0039289,0.011373,0.011921,0.017184,0.0064543,-0.00021671,0.0011508,-0.015549,-0.0047822,0.0071213,-0.0066343,-0.0043547,0.0018233,0.0038865,-0.0018703,0.0066373,0.0035631,-0.0040212,0.0016915,-0.0016777,0.011971,0.017069,0.024969,0.018222,0.0094476,0.010471,0.0040575,0.00052379,0.0019427,0.011769,0.013718,0.0050434,0.0011372,0.0020781,0.0034617,0.010641,0.022121,0.019692,0.0027698,1.8953e-05,0.015581,0.0036866,0.00093924,0.013356,0.0091914,-0.010222,0.0040065,0.017851,-0.0097526,-0.01851,-0.0061222,-0.0037409,-0.0034388,0.0013715,0.023713,-0.015473,-0.016727,-0.0043783,0.016187,0.0068244,0.0002816,0.03482,-0.039783,0.0064435,-0.0035143,0.016534,0.027466,0.030264,0.034737,-0.0097467,0.012734,0.014945,0.022613,0.04366,0.034573,0.031054,-0.0089611,0.0049488,0.011267,-0.0035421,0.016129,0.031578,0.034475,-0.014193,0.002546,0.019452,0.0047151,0.014661,0.023122,0.012009,-0.021102,-0.0016922,0.011993,0.020596,0.027952,0.023421,0.017128,0.00024535,-0.00020071,0.0012744,-0.00057839,0.0016173,0.0014566,-6.7021e-06,-0.00025966,-0.0002174,-0.00090139,-0.0021455,-0.0017982,-0.00052105,-0.0011915,1.7971e-05,-0.00039763,0.00019868,-0.00011563,0.00027534,0.00041973,0.0013235,0.00034969,-3.5313e-06,0.00032327,0.00039254,-0.0017006,-0.00057043,-0.0007523,-0.00056393,-0.0015913,-0.0014783,0.00021682,-8.5308e-05,-0.00040839,-0.0016907,0.00010312,0.0015726,-1.082e-05,0.0019326,0.00063313,0.00059552,0.00031228,-0.00037704,-0.0012426,0.00099417,0.0007113,-0.00077873,0.00079911,9.6197e-05,0.026926,0.0047319,-0.018807,-0.026202,0.011123,-0.012206,-0.036006,0.012233,-0.00065489,-0.0065331,0.020176,0.036435,0.0096908,0.013423,-0.0017474,0.029385,0.0020607,0.05829,0.047362,0.017545,-0.0019783,0.0015218,-0.0044183,-0.012432,0.028731,-0.023979,-0.023286,0.0062778,0.0078888,-0.02436,-0.016624,-0.0099708,-0.03646,-0.039824,0.006217,-0.0050831,0.011674,0.014666,0.02039,0.016916,-0.05398,0.04755,-0.035586,-0.0016657,0.0071018,-0.021429,-4.8112e-05,0.031947,0.02327,-0.076665,-0.067332,-0.084353,-0.093209,-0.074689,-0.07426,-0.058922,-0.017874,-0.025778,-0.013549,-0.011175,-0.036694,-0.038149,-0.021612,-0.0026865,-0.012487,0.0026813,-0.0056071,0.0128,0.00075917,-0.015614,0.0034909,-0.010628,0.0098224,-0.0032745,0.0039566,0.014671,-0.0030284,0.011178,-0.024018,-0.0035253,0.010622,-0.011409,-0.022205,-0.0060183,0.029489,0.0008054,-0.017995,-0.012262,-0.0082024,-0.031683,-0.032411,0.10418,0.090624,0.057865,0.018458,0.050221,0.055484,0.037082,-0.025485,-0.026575,-0.018575,0.026092,0.021873,0.0069082,-0.0028786,-0.010004,0.010688,0.010372,0.016687,0.046914,0.02819,0.0038066,-0.0085155,0.0095999,0.019613,0.018616,0.041842,0.041543,0.019497,0.0085877,0.019329,0.018436,0.029585,0.016989,0.0079227,0.018799,-0.0065994,0.01017,0.017012,0.030231,0.033416,-0.010025,0.0053453,-0.0062961,0.024182,0.00084437,0.010768,0.048995,0.0097052,0.010813,-0.03056,0.018206,0.0089952,-0.00031456,0.0090585,-0.0064674,-0.013533,0.020284,0.02189,0.01026,0.018361,0.0033241,-0.025017,0.0015137,0.019075,0.031231,0.01657,0.031328,0.03121,-0.0024333,-0.0078386,0.0067819,0.015852,0.02337,0.024201,0.019994,0.015858,-0.0012364,0.0083845,0.016007,0.023504,0.0095625,-0.0084827,0.0036158,0.016873,0.003425,0.002565,0.022255,0.018515,0.0093023,-0.0072971,0.0031734,-0.011857,-0.022374,0.020301,0.029312,0.010432,0.0028134,-0.0074206,-0.022788,-0.037467,-0.0035313,0.027223,0.024441,-0.0035654,0.0069257,0.0060591,0.0035845,0.0068557,0.0055924,-0.0052661,-0.017047,0.01179,0.001187,0.019589,0.018177,0.014738,0.0091406,-0.0023259,0.0054169,0.0051491,0.01335,0.0087452,-0.01086,-0.015677,-0.016259,-0.013573,0.011996,0.02827,0.0064642,-0.023441,-0.013743,-0.0072791,0.006638,0.0036992,0.025835,0.0020888,-0.01612,0.00086033,0.0029966,0.0074209,0.0030782,0.016158,0.025819,0.0092268,0.0040716,-0.0011109,-0.0078885,0.0058127,0.014042,0.011503,0.0021409,0.00056828,0.0052081,0.010573,-0.0002497,-0.0072515,-0.0059969,-2.7826e-05,0.033035,0.040788,0.035287,-0.01748,-0.013493,-0.010998,-0.0032329,0.0079607,0.019482,0.024283,-0.018177,-0.0095805,0.0018069,0.0004759,0.011461,0.030268,0.044061,-0.026615,-0.01318,-0.00041668,-0.010244,0.014789,0.033468,0.03298,-0.037616,-0.0224,-0.013379,-0.011958,0.021875,0.012282,0.0081186,-0.032748,-0.010684,-0.027158,-0.01191,0.027579,0.014852,0.01391,-0.025593,0.0019829,0.0085173,0.012644,0.007934,0.015746,0.017292,-0.0063129,-0.010132,-0.022467,-0.0027908,0.0072008,-0.0011211,0.0011575,0.012371,-0.0181,-0.010576,-0.0075387,-0.015208,-0.0048657,0.0086179,-0.0072422,-0.019968,-0.015253,-0.012789,-0.024522,0.0059026,0.023519,0.0023686,-0.014983,-0.017068,-0.016454,-0.020842,-0.030746,0.0034578,-0.0087846,-0.011222,-0.023175,-0.0045044,0.017647,0.014701,-0.0054946,0.00082387,-0.0056605,-0.012074,-0.025533,0.0034796,-0.0054437,-0.013663,0.0088563,0.0068955,0.0077688,-0.0072604,0.00055852,-0.022033,-0.02966,-0.010871,-0.005535,0.0074998,-0.02015,-0.054393,-0.057312,-0.071089,-0.024482,-0.0062846,0.01572,0.0064056,-0.034395,-0.020755,-0.039353,-0.014943,0.012487,0.017426,0.012596,-0.025744,-0.027344,-0.04038,-0.016899,0.025862,0.048923,0.023102,-0.0089996,-0.013276,-0.020797,-0.011789,0.011248,0.030455,0.037347,-0.012185,-0.01592,-0.015454,-0.017779,0.0092211,-0.0031391,0.0094151,0.0046096,-0.0051701,-0.031567,-0.0018053,0.0026605,-0.020598,-0.0082921,-0.0034941,-0.010928,-0.031031,0.014596,0.0092527,0.0031234,0.0019523,0.002823,-0.0059922,-0.021666,-0.00030892,0.028438,0.028057,0.0078708,0.0034709,0.010602,-0.010727,-0.0081505,0.016411,0.029331,0.0073635,-0.0069983,0.014671,-0.0020782,-0.013675,0.014093,0.016576,-0.0054535,-0.022742,-0.018169,-0.031372,-0.031782,-0.010973,-0.012617,-0.012851,-0.0012804,0.014255,-0.0076253,-0.025522,-0.014294,-0.0019721,-0.002759,0.0017253,0.019587,0.011961,0.010292,0.0035003,0.015796,-0.0011516,0.0016678,0.0040607,-0.01235,0.025547,0.010607,0.0044494,0.0095503,-0.0021109,-0.0047269,-0.011024,0.022715,0.0045971,-0.0097285,0.0039663,-0.0025199,-0.0061158,-0.0037725,0.032779,0.019338,0.00023192,0.0031771,-0.0039152,-0.0008005,-0.0034231,0.034277,0.021802,0.0061289,-0.0086901,-0.0028002,0.010258,0.017413,0.021671,0.013063,-0.003328,-0.0067264,0.0057383,0.012897,0.010813,0.012278,0.0063713,0.0079067,0.011294,-0.0001072,-0.008061,-0.009481,0.0065253,0.0038582,-0.0052425,-0.0022485,-0.019583,-0.0095787,-0.0021831,0.018385,0.024926,0.040759,0.051802,0.048769,0.02636,0.037468,0.0026106,0.011119,0.018329,0.036619,0.037928,0.01109,0.0085959,0.0060013,0.0036355,-0.0086597,0.010987,0.020948,0.010102,0.01234,-0.01582,-0.010126,-0.018544,-0.017836,-0.0089542,-0.012135,0.00027924,-0.0037413,-0.0064175,-0.0067477,-0.0062995,-0.0014552,-0.0019435,0.01253,-0.010825,0.0061085,0.014621,0.0019022,0.0046858,0.013819,0.011201,-0.020587,0.0033663,0.002347,0.0088917,0.017931,0.01968,0.018583,-0.01849,-0.035405,-0.021553,-0.0094828,0.0048002,-0.010798,-0.0090767,-0.0319,-0.02839,-0.02193,-0.032971,-0.020016,-0.0046935,0.0039875,-0.017964,-0.018363,-0.034633,-0.0089599,0.010092,0.018764,0.022306,-0.013614,-0.020737,0.0041974,-0.03644,-0.041447,-0.010628,-0.01974,0.027894,0.047659,0.0051217,-0.05495,-0.0032196,0.00070165,-0.011824,-0.010988,0.0099817,0.015734,0.0050422,0.013027,0.017633,0.03906,9.642e-05,-0.020376,0.0056593,-0.008786,-0.024987,0.0041233,0.029442,-0.0079435,0.0075531,0.010865,0.026682,0.016521,-0.0024583,0.0070196,0.0078122,0.0086673,0.010398,0.024804,0.0024424,-0.010898,0.003534,-0.029137,0.00307,0.022038,0.024456,-0.017557,-0.0018918,0.0019796,-0.0088316,0.011035,0.0066689,-0.0019226,-0.0050436,0.025376,-0.0012732,0.018039,0.006558,0.0025297,-0.0033978,0.0088155,0.015536,-0.0016743,0.012116,0.0019191,0.0086175,0.00026988,0.005589,0.0076181,-0.0032741,0.014428,0.00091574,-0.017999,-0.019293,-0.033884,-0.02155,0.0098022,0.001351,0.061318,0.036992,0.05536,-0.0125,0.035114,0.0089249,0.0065634,0.01431,0.017293,0.037241,-0.025913,-0.023121,-0.015951,0.013565,0.010417,0.034629,-0.042656,-0.05774,-0.014732,-0.0042163,0.0029355,0.032632,0.035436,0.0036999,-0.013325,-0.02746,-0.038583,-0.001544,0.0024648,-0.020721,-0.061392,-0.052728,-0.025935,-0.0252,-0.041145,-0.025732,-0.066581,-0.16759,-0.12825,-0.004583,-0.023419,-0.047313,-0.045951,-0.10724,-0.13283,-0.076145,-0.052127,-0.076252,0.054406,-0.01254,0.018378,0.021378,0.013277,-0.03736,0.021991,0.035781,-0.023717,0.00081635,-0.049784,0.057054,-0.0067562,0.030361,0.0096153,0.012238,-0.072824,-0.15944,-0.0019633,0.063462,-0.0049235,0.010335,-0.088581,-0.065745,0.16151,-0.13174,-0.030034,-0.025,0.012195,0.012478,-0.076871,-0.1455,0.0019373,0.050016,8.8415e-05,0.040907,-0.010047,-0.00043953,-0.051367,0.066087,-0.011771,0.015238,0.02301,0.00356,-0.028401,0.0091966,0.018897,0.0066856,0.018609,-0.013122,-0.011794,-0.01779,-0.0057651,-0.004544,-0.015981,-0.0018312,-0.0012011,0.0013018,0.00012115,-0.00034073,-0.010034,-0.0034251,-0.0068359,-0.0055055,-0.0016995,-0.015288,-0.019671,-0.016461,0.00032983,0.00060791,-0.010058,0.0091367,-0.012267,-0.030656,-0.023441,-0.019036,-0.011179,0.0025057,0.016365,-0.0057175,-0.015051,-0.03025,-0.022922,-0.011298,0.003276,0.0090697,0.012803,0.010379,-0.011461,-0.010236,-0.011375,0.028246,0.01689,0.02248,0.010007,0.0029173,0.021712,0.014299,0.0074756,0.018357,0.017545,0.0048634,0.0095575,0.0041168,-0.0030483,-0.00011617,0.0058099,0.013214,0.0082656,0.0041695,-0.0086939,-0.0014956,-0.0093085,0.0034562,0.010989,-0.0013926,-0.0087534,-0.014112,-0.0062217,-0.0178,-0.0035173,0.0077015,-0.00096728,0.00437,0.0029988,-0.0054168,-0.00018989,0.006325,0.0099286,-0.001189,-0.011129,-0.0038767,0.0045001,0.0074894,0.0039587,0.00016917,-0.00050753,-0.0058123,-0.0090999,-0.0048116,-0.016485,-0.0074574,-0.018646,-0.0082227,0.0018026,-0.011274,-0.012736,0.0013675,-0.0076454,-0.0063456,0.011251,-0.020391,-0.0044133,-0.030896,0.0056142,-0.0032346,-0.0016999,0.0040487,-0.026713,0.00054855,-0.017772,0.011587,0.009257,0.012083,-0.001455,-0.03469,-0.008129,-0.010787,0.033278,0.016959,0.010835,0.00078614,-0.025304,0.0060489,0.004406,0.0075942,0.023788,0.0056859,0.004277,0.011503,0.01636,0.010069,-0.003785,0.02723,0.010194,0.024709,0.024237,0.009742,-0.00087981,0.001004,0.02001,0.0084625,0.0095949,-0.011086,-0.0035138,0.0037769,-0.023013,-0.028293,-0.0017563,0.00666,0.0049468,-0.014514,-0.012919,-0.0027667,-0.0055511,0.022849,0.0022504,0.00039889,0.0022802,-0.0095126,0.00076255,-0.0020724,0.010261,-0.0022721,0.0073976,0.0082546,-0.019003,-0.0097849,-0.0089272,0.0011363,-0.028957,-0.029058,-0.012726,-0.025146,-0.0069195,-0.0071012,0.0025275,-0.028477,-0.0091459,0.019712,-0.013345,0.013282,0.029623,0.040117,0.024731,0.026328,0.0079581,-0.036336,0.0080423,0.024396,0.018937,0.025844,0.017945,0.0068867,-0.01816,-0.0045059,0.023665,-0.018148,0.017662,0.034395,0.062537,-0.022534,-0.016537,0.034595,-0.0059445,-0.063884,-0.033875,0.082702,0.053687,-0.012064,0.0099382,-0.0022638,-0.064246,-0.12426,0.00047516,0.034347,-0.014911,0.014758,0.014791,0.053468,-0.10467,-0.04408,0.0057085,0.046366,-0.01986,-0.0033113,0.069456,-0.01569,-0.012292,-0.0012401,0.051383,0.021924,-0.0091029,0.04817,0.015553,-0.00062745,-0.0012831,0.038021,0.019996,0.010553,0.036116,0.0090425,-0.0082366,-0.012796,0.021522,0.0092452,0.011353,-0.026501,-0.081483,-0.018961,-0.0027087,0.017419,0.0070815,0.052051,0.0070359,0.0025229,0.0020878,0.01747,0.020329,0.0085704,0.042468,-0.030328,-0.0011823,0.0062028,0.01357,0.011009,0.014736,-0.033353,-0.036524,-0.052072,0.010337,0.026025,-0.0070829,0.027241,0.00032578,-0.059735,-0.022023,0.013199,0.031908,0.015643,0.039796,0.028168,-0.016497,-0.0049771,0.011954,0.017903,0.018989,0.040229,0.048085,0.023288,-0.049907,-0.034023,-0.010227,0.014952,0.047561,0.042393,0.044202,0.03882,0.0076548,-0.011716,0.019359,0.035754,0.0040959,0.0014156,0.0038257,-0.01046,-0.011233,0.022955,0.018087,0.017515,0.024955,0.012926,-0.0074184,-0.011542,0.030434,0.0011429,0.03206,0.026556,0.030332,0.013857,0.0070441,0.031197,0.0061896,0.029411,0.027044,0.034043,0.0092986,0.002967,0.029833,0.016269,0.0075526,0.016826,0.0072544,-0.019974,-0.017069,0.034055,0.01931,-0.011766,0.0082922,-0.011001,-0.01997,-0.010498,0.020801,0.020174,0.026091,0.043159,0.026903,0.021072,0.024182,0.01624,0.02034,0.016325,0.014523,0.01347,0.015356,0.013434,0.0095864,0.025,0.030364,0.014418,0.0083695,0.0034471,0.010574,0.0035728,0.035475,0.036238,0.011274,0.02937,0.012988,0.019938,-0.0042929,0.029158,0.051635,0.03644,0.033073,0.0075777,0.020006,-0.0094435,0.0057666,0.038295,0.035477,0.019356,0.0052011,0.018247,0.005259,-0.0096689,0.0053526,0.00371,-0.005776,0.010406,0.038238,0.00040618,-0.00014387,-0.00026844,-0.00051671,-0.0011155,-0.0016647,0.00029601,-0.0002567,-0.00066748,0.00052509,0.001179,-0.0013203,-3.7499e-05,0.00014406,-0.0014591,0.00013091,0.00067395,-0.0012123,0.00014265,-0.00065439,-0.00064504,-4.0976e-05,0.00027861,-0.00070556,0.00030692,-9.4978e-05,0.00033427,-0.0011154,-0.00082326,-0.00017732,0.00078301,0.0003147,-0.0014935,9.8611e-05,0.00025302,-0.0001026,-0.0016364,0.00054878,-0.0008911,0.00060049,0.00075976,-0.0010654,0.0016705,0.00093118,0.00063073,0.00021271,-0.00205,0.0014408,7.4265e-05,0.020646,-0.00011998,-0.0172,-0.023538,-0.036494,-0.015236,-0.013004,0.044854,0.010335,-0.010024,-0.024054,-0.034788,-0.017265,-0.0027032,0.05601,0.037814,0.057728,0.014318,-0.062947,0.02742,0.05213,0.051401,0.041133,0.016657,0.030069,0.05258,0.00015307,0.023046,0.017188,0.022797,-0.015742,-0.0081301,-0.015016,0.010583,-0.014957,0.0039476,-0.0045621,-0.026448,-0.020138,0.010735,0.0027602,-0.045217,0.018953,0.0083454,-0.018882,0.0066706,0.013064,-0.00060624,-0.012579,-0.049519,-0.00035104,0.0021609,0.015721,0.0010443,0.015262,0.037743,-0.045752,0.0031805,-0.0052736,0.010758,0.01101,0.016153,0.048323,-0.027051,0.0052954,-0.038315,0.014564,0.021149,-0.005417,0.041877,-0.070787,-0.043288,-0.028865,0.0070526,-0.014101,-0.038717,0.0199,-0.15881,-0.091213,-0.0019892,0.02739,-0.033511,0.0076567,0.05072,-0.086098,-0.069611,-0.025907,0.014851,0.0084505,0.0072837,0.043831,-0.04438,-0.0081066,-0.00087435,0.032189,0.039688,0.061573,0.093216,-0.040095,-0.0001963,0.0015807,0.015488,0.015238,0.0052452,0.0098617,-0.008411,0.0031881,0.03354,0.036364,0.016516,0.019401,0.02381,-0.0069603,0.005937,0.028176,0.016317,0.0072868,0.036709,0.003392,-0.0048686,0.022919,0.0051987,0.025214,0.015352,0.01815,0.0014,-0.00023383,0.015495,0.0013644,0.0068828,0.024052,0.041699,0.009283,-0.00067493,0.015363,0.033145,0.033981,0.028503,0.031376,0.020963,0.019285,0.0068693,0.0032849,0.02126,0.024357,0.01393,0.0047553,0.0018931,-0.0008328,0.010442,0.0022705,0.015603,0.0051553,0.0014807,-0.0061759,0.00021559,-0.016993,-0.016126,0.0069025,-0.0061919,-0.014867,0.010615,0.014294,0.013667,0.00010888,0.01343,0.020621,-0.0038003,0.008873,0.017643,0.021193,0.0036979,0.0055889,-0.00405,-0.0026964,-0.0027446,0.017698,0.014032,0.0017106,0.0039678,-0.012202,-0.019025,-0.024417,-0.0012051,0.016933,0.021239,-0.019851,-0.022401,-0.028579,-0.039977,-0.024334,-0.031144,-0.017152,-0.019354,-0.0010088,-0.014438,-0.046819,0.0058892,-0.0019601,-0.01108,-0.0060898,0.0044934,-0.032718,-0.037732,0.0098905,-0.00018268,-0.0044985,0.013505,0.03476,0.011081,0.020624,0.014915,0.020982,0.016513,-0.027621,0.044224,0.032763,0.013637,0.013674,-0.041339,-0.0045501,-0.17255,-0.034616,0.026944,-0.029045,-0.007347,-0.015223,0.0015834,-0.027639,0.017331,-0.0045701,-0.037602,-0.016724,-0.079911,-0.045315,-0.05526,-0.016148,-0.058793,-0.036391,-0.021143,-0.045034,-0.032611,-0.048467,-0.031148,-0.026415,-0.021252,-0.015308,-0.012165,-0.00081493,0.011257,0.0087859,0.0086854,-0.010803,-0.0021509,0.00249,0.0027023,0.0051791,0.010066,0.0068245,-0.0061394,0.0017077,0.0089322,0.012911,0.009619,0.0052817,0.0063799,-0.0055436,0.00081285,0.0082739,0.015742,0.013316,0.009201,0.0016479,-0.01573,-0.001353,0.0053229,-6.5515e-05,0.004946,0.0071792,0.00316,-0.024547,-0.010786,0.0024328,0.0065633,0.0087,0.0044668,0.0069141,-0.037198,-0.0123,0.0033456,0.0010648,0.0060296,0.01195,0.0105,-0.049828,-0.033471,-0.011817,0.01244,0.026286,0.0018034,0.015039,-0.022525,0.0037481,0.018357,0.0034214,-0.00015397,-0.025768,-0.025291,0.030165,0.0081113,-0.0067807,-0.0049633,-0.030045,-0.031462,-0.022977,0.029773,-0.017923,0.0054329,-0.003831,0.016101,0.044152,0.027235,-0.0073014,-0.0085855,-0.054078,-0.00084655,0.032002,0.0031123,-0.036816,-0.012379,-0.019482,0.023361,0.016543,0.0023228,-0.01931,-0.019775,-0.021216,0.017316,0.0020658,0.00086243,-0.0016103,-0.0045312,0.031923,0.020394,0.022914,0.023245,0.033537,0.012268,-0.0038256,-0.0081993,0.014918,0.011264,0.004853,0.01919,0.0098162,0.0040363,0.0045882,0.026556,0.013572,0.01823,0.0095759,-0.001263,-0.011204,0.0011861,0.017506,0.020331,0.034499,0.011219,0.014383,0.0092256,0.035878,-0.0011735,0.0087574,0.024336,0.025442,0.0075002,0.010665,0.02677,-0.017668,-0.0067086,0.013598,0.017405,0.020247,0.025752,0.021811,-0.028555,-0.012674,0.023359,0.029434,0.026439,0.029092,0.034936,0.013639,0.022579,0.0043972,0.00013815,0.0016082,-0.0077908,0.00058398,-0.003656,0.014389,0.008319,0.00038329,-0.015383,-0.016787,-0.014977,-0.0068823,0.012855,0.016365,0.0028071,-0.013647,-0.0084056,-0.0021687,-0.00019455,0.0025543,0.0071043,-0.0063599,-0.0022733,0.0049369,0.0074703,-0.0038273,0.0070646,-0.0037492,-0.017362,0.0040535,0.011681,0.0048286,-0.044223,-0.016168,-0.017974,-0.024715,-0.0053897,0.0057016,-0.0043903,-0.025718,-0.01779,-0.018455,-0.011116,-0.0016681,0.0079678,0.0051053,0.015973,-0.017129,-0.0013493,-0.0029438,-0.018486,-0.03639,-0.062535,0.021842,-0.002284,-0.014902,-0.020199,-0.016606,-0.017005,-0.05335,0.042804,0.033767,-0.0078108,-0.0046399,-0.0077399,-0.025254,-0.047151,0.044153,0.0175,0.033051,-0.022478,-0.007214,-0.02343,-0.029506,0.067671,-0.0065324,0.017281,-0.010076,-0.051722,-0.06473,-0.036001,0.023125,0.014633,0.013526,-0.027495,-0.052854,-0.068154,-0.018768,0.087397,0.074582,0.019274,-0.0067119,-0.013629,-0.025856,-0.073941,0.039212,0.003494,0.0012417,-0.0043436,-0.01466,-0.020509,-0.0073924,0.021811,0.01978,-0.0043487,-0.0016001,-0.0052959,-0.014309,-0.019367,0.023655,0.030489,-0.0014606,-0.0034596,-0.01718,-0.0099628,-0.02247,0.017148,0.018881,0.0016664,-0.0062362,-0.035009,-0.015668,-0.010889,0.017542,0.0095817,-0.0064562,-0.0066612,-0.03131,-0.0080051,0.0038116,0.025329,0.013071,-0.0072766,-0.014126,-0.019509,-0.0070652,-0.010439,0.040008,0.020332,-0.0021038,0.0021531,-0.011797,-0.014196,-0.014668,0.0014629,0.00065968,-0.001147,0.00062989,-0.001296,8.3372e-05,-0.001381,0.00080357,0.00028545,-3.8974e-05,-0.0026925,-0.00061331,0.0002154,0.00092143,0.00099573,0.00022043,-0.00072758,0.00034726,-4.0933e-05,0.00091306,0.00011492,0.00051563,-3.3083e-05,-0.00024202,-0.0003175,0.00055498,0.00022944,-0.0013619,9.8377e-05,-0.00029319,0.0028735,0.0019243,7.1582e-05,0.0005692,0.0027597,0.00076797,-0.0009862,-0.00042138,0.00094903,0.00088515,0.00024819,0.00048412,0.00069114,-0.0017456,0.0013863,-0.00021219,0.00028666,-0.00073246,0.00033588,0.042401,-0.018089,-0.012591,0.037731,0.028798,0.0086836,-0.021202,0.032026,0.0019622,-0.0080383,0.0192,0.0019132,-0.008007,-0.0066114,0.042297,-0.014662,0.0067619,0.0022059,-0.021215,0.0037878,-0.0080411,0.01944,-0.031834,0.01975,-0.031081,-0.042649,-0.0098241,-0.06852,0.040517,-0.017415,0.0062408,0.0021797,-0.019021,-0.01707,-0.062374,0.023411,-0.0040533,-0.0091014,-0.0017295,-0.010718,-0.010552,-0.03392,0.028666,0.012667,-0.036402,-0.01911,-0.00090527,-0.0085712,-0.045814,0.0014842,-0.014323,-0.00602,0.018464,0.0019468,-0.0061519,0.013916,-0.013123,-0.00090277,0.0054493,0.018819,0.012952,-0.01366,-0.0087301,0.02845,0.030871,0.0097193,-0.0027026,-0.0086476,-0.011722,0.0062621,0.029431,0.033733,0.019164,-0.031961,-0.0064656,0.010343,0.023355,-0.010227,0.0088461,0.024807,-0.012853,-0.001053,0.021961,0.025831,-0.014935,-0.00034176,0.031891,0.01652,0.015387,0.0021399,-0.013169,-0.0079155,-0.0066209,0.017135,-0.0015017,0.00048996,0.0081214,0.017922,0.021056,0.0085245,0.013472,0.032804,0.014185,0.01603,0.018621,0.013628,0.0021843,0.012755,0.040565,0.034123,0.038631,0.037877,0.014384,0.012505,0.027679,0.033346,0.023588,0.024333,0.0097012,0.01448,0.030657,0.036543,0.027977,0.018515,0.018275,0.013601,0.0023703,0.01646,0.027642,0.028093,0.012173,0.011575,0.026162,0.0080272,0.0093131,0.014363,0.028175,0.017807,0.0082328,0.016864,-0.0010915,0.0060824,0.022812,0.028247,0.029737,0.028371,0.021254,0.021249,0.057522,0.063072,0.048138,0.011003,0.023677,0.090015,-6.2533e-05,0.035214,0.028205,0.0053331,-0.010865,0.0051745,0.0042067,0.0050717,0.013502,0.015819,0.021517,0.02772,0.015099,0.00061997,-0.013274,-0.018583,-0.0052841,-0.0047187,0.010689,0.031236,0.0068491,0.021849,-0.0050953,0.017215,0.037914,0.035787,0.020838,0.030642,-0.012648,-0.020263,-0.032094,-0.0017856,0.025144,0.0076511,-0.0059352,-0.071143,-0.039394,-0.083861,-0.080957,-0.045673,-0.034349,-0.044545
-0.010706,-0.011864,0.028328,0.040353,0.030563,0.027525,0.031647,0.024977,0.014535,-0.0086456,-0.025089,-0.011941,-0.00052864,-0.017673,-0.002196,-0.024039,-0.042077,-0.01476,-0.025283,-0.013878,-0.024082,0.02197,0.025296,-0.014345,-0.0074629,0.004437,0.061016,0.098206,0.031471,0.034653,-0.0083301,0.025898,0.049498,0.051279,0.0011089,0.015131,0.0019811,0.0022791,-0.007669,-0.035289,-0.003705,-0.011613,0.016135,0.010189,-0.014655,0.0014187,-0.006141,0.029364,0.010157,0.0055437,0.013365,-0.0015878,-0.0063149,0.001149,0.016378,-0.0031753,0.038138,0.042094,-0.017299,-0.028898,-0.0052857,0.032282,0.0088595,0.0032337,0.0047227,-0.012809,0.021915,-0.033963,-0.020333,-0.018796,0.0070584,-0.0027877,0.0098643,0.062036,0.018715,-0.021421,0.013688,0.015608,-0.028332,-0.012426,0.044443,0.034846,-0.018142,0.020981,-0.007289,0.013933,-0.03649,-0.02647,-0.028805,-0.012169,0.018045,-0.020955,0.012811,0.020267,0.022881,0.014104,0.0028902,0.0019952,-0.0067118,-0.016716,0.003154,0.0010857,-0.0028822,-0.0027207,-0.01801,-0.013995,-0.014924,-0.0085289,-0.0080515,0.0034177,-0.0037052,-0.012628,-0.0086187,-0.0033781,0.0015406,-0.0037741,0.014857,-0.001096,0.0039387,-0.017085,-0.0091601,0.014765,0.011627,0.023174,-0.014702,0.0037024,-0.008707,-0.017913,0.0045786,-0.0083673,0.0025691,-0.0084914,0.0036397,-0.016519,-0.019365,0.0080768,-0.009418,-0.012388,-0.0074049,0.002918,-0.011236,-0.014519,0.0030646,0.0011111,-0.0015168,-0.0035696,0.0013087,-0.011235,-0.0098093,0.0097871,-0.0052438,0.00025322,0.0070353,0.010609,0.0080054,0.005158,0.0051573,-0.0044,-0.0050009,-0.015384,0.0033043,-0.0029404,-0.0026901,0.0019829,-0.004573,-0.0083331,-0.033418,0.016778,-0.023323,0.0046737,-0.0093085,-0.022733,0.017107,-0.022082,0.01079,-0.021215,-0.001241,-0.016855,-0.037542,0.019343,-0.010343,0.024635,-0.0090229,-0.0040865,-0.0077941,-0.013134,0.0039422,-0.009585,0.033922,-0.0054372,0.0077959,0.002277,0.0036141,0.014019,-0.0082469,0.0074245,-0.004468,-0.0062603,-0.010704,0.0077991,0.034022,-0.010535,0.0032469,-0.0013797,-0.014568,-0.014044,-0.014357,0.010241,-0.0097182,0.0049929,0.00098278,-0.0076765,0.018268,0.0050454,-0.0073246,7.5672e-06,0.013072,-0.0034445,-0.016109,0.020799,0.027404,0.00010691,0.0095464,0.011681,-0.0063832,-0.02502,0.001503,0.0050183,-0.0099339,0.0088023,0.0028306,-0.019158,0.00041098,0.016117,-0.0042943,-0.0050093,-0.0061463,-0.012338,-0.0086742,0.0036489,-0.0036221,-0.020952,-0.013214,-0.013347,-0.0077155,0.01515,0.016308,0.04061,0.024012,0.019295,-0.065256,-0.036446,-0.00065902,-0.034003,-0.0076417,0.013003,0.057506,0.06386,-0.036119,0.021093,-0.016571,-0.026662,-0.020987,-0.015839,-0.0016563,0.038697,0.0019873,0.0149,0.022827,0.024764,0.022327,-0.032867,0.013046,0.010437,0.0066786,-0.0046515,0.0216,0.006392,-0.015461,-0.019678,0.015736,-0.0091747,-0.011231,0.0021599,0.010834,-0.016938,-0.0011641,0.010372,-0.00058791,-0.025769,-0.054946,0.0024133,-0.017989,-0.0041032,0.0075378,-0.0003235,0.0027855,0.0072632,0.0061069,0.011437,-0.0057335,-0.011761,-0.0059043,0.010872,0.012371,-0.0069649,0.008534,0.00083095,0.008609,0.0068579,0.011971,0.021726,-0.0010269,0.012054,0.0044195,0.013236,0.0050541,0.016625,0.043899,0.014346,0.0091021,0.0040724,0.0027463,-0.0058927,0.00030161,0.022449,0.0094404,0.007625,0.0085738,0.0047153,0.013528,0.0026763,-0.0023188,0.012201,0.021554,0.0033134,-0.0056157,0.0055223,0.010209,0.003028,0.0054386,0.0052006,-0.0048647,-0.024066,0.0047252,0.016274,-0.019701,0.0091635,-0.0039067,-7.4094e-06,-0.01956,0.009695,-0.012802,-0.040487,0.01964,-0.0131,-0.0087328,-0.0040252,0.028245,-0.039524,-0.035187,0.01897,-0.017657,-0.0064602,-0.020238,-0.011735,-0.052957,0.024749,-0.0064796,-0.045899,0.01075,-0.0003734,-0.039955,-0.02671,0.037564,-0.0092522,-0.033284,0.0098609,0.0053216,-0.022889,0.00070674,0.0023108,-0.021064,-0.014577,0.0025236,-0.022287,0.0086756,0.013884,-0.0013062,-0.0070608,0.0098048,-0.015362,0.018559,0.012688,-0.017233,-0.0021099,-0.0041312,-0.014964,-0.0089125,-0.017349,0.0035579,-0.0087704,0.0033154,-0.0099648,-0.014972,-0.02024,-0.0045452,0.0090795,-0.010984,0.0020835,-0.0015268,0.011251,0.029789,-0.0035483,-0.0075151,-0.021768,0.0010069,-0.018527,-0.018867,0.0098395,-0.0069104,-0.02622,-0.028286,0.014508,-0.022887,-0.026168,0.015114,-0.01355,-0.022059,-0.010785,0.011346,-0.011216,-0.035403,0.017049,-0.0092591,-0.006973,-0.016441,-0.010341,-0.0063856,-0.019059,0.0020679,-0.00992,-0.0099744,-0.0027055,-0.01492,-0.018458,-0.013891,-0.01385,-0.013654,-0.024444,-0.015687,-0.0068312,-0.013804,-0.017001,-0.024285,-0.0055718,-0.013861,-0.011588,0.0027107,-0.01376,-0.018248,-0.019239,-0.021317,-0.010469,0.013989,0.021213,-0.0096011,-0.01981,-0.016527,-0.0084462,-0.0092228,0.0028883,0.0057348,-0.007405,-0.0098344,0.0024362,-0.0033554,-0.0070014,-0.0077837,-0.0084451,-0.0069821,-0.015682,-0.00086002,-0.0015651,0.0094945,0.011947,-0.0065492,-0.0070828,-0.011801,-0.016899,0.0051397,-0.013073,0.0051579,-0.0055941,-0.027771,0.017975,-0.032817,0.011175,0.00096069,-0.0003268,0.0059658,-0.011548,-0.011069,-0.030731,0.010623,-0.012182,-0.018399,0.0018847,0.015825,-0.0021407,-0.019455,0.00020204,-0.0055921,-0.047415,-0.0053743,0.0072183,0.0093496,-0.0092646,0.0067459,0.019778,-0.011168,-0.010205,-0.0066334,0.028072,-0.0023507,-0.013796,-0.0046979,-0.0031293,-0.0096591,0.0034597,0.024428,-0.018981,0.022282,-0.014268,-0.024656,-0.024125,0.0088754,0.022437,-0.021543,0.020319,0.0027705,0.011657,0.016943,0.017658,0.0099258,-0.010663,0.01176,0.00050392,0.0066943,0.0058542,0.0048982,0.010907,-0.0071749,0.0069063,0.010806,0.020822,0.015279,-0.0046855,0.018435,0.0021547,0.0082819,-0.0017817,0.028204,0.058298,0.018048,0.019899,0.0078183,0.016164,-0.0064582,0.0089372,0.04115,0.014905,0.010465,0.0084646,0.0031133,-0.0069076,0.0072313,0.015266,0.0061423,0.0079674,0.0017816,-0.0048134,0.001695,0.020266,0.011637,0.0077391,0.007748,0.010538,-0.00046259,-0.018164,0.0077221,-0.00075089,0.0060256,-0.0044205,-0.0015363,-0.019165,-0.028104,0.0081569,-0.0052255,-0.013389,-0.014685,-0.0069095,0.00078661,-0.028356,-0.015,-0.0060342,-0.0025725,-0.0046591,0.00030144,0.009069,-0.0091256,-0.0068256,0.010588,0.0096152,-0.0077025,-0.0071587,0.0065743,-0.011473,0.0066543,0.012444,0.0054154,0.0010364,0.0024753,-0.0039751,-0.018865,0.0071982,-0.0016708,-0.0070617,-0.0038279,-0.0021268,0.0013551,0.0027021,0.019395,-0.0057747,-0.00053493,-0.00058274,0.0023149,0.00092982,-0.011982,0.019744,-0.012562,-0.0058121,0.0016273,-0.0066174,0.010715,0.007703,-0.0051727,-0.0043976,0.01886,0.0021057,0.0034708,-0.026948,0.001714,-0.025014,-0.00306,0.0098763,-0.023682,-0.015826,-0.023277,0.018198,-0.013713,-0.0062994,0.014154,-0.023276,-0.009086,-0.021356,-0.025654,-0.039828,0.014352,0.013536,-0.022337,0.0029086,0.022941,0.055306,-0.0052446,0.018256,0.010488,0.016699,0.016319,-0.044982,-0.0093521,-0.027961,0.00595,-0.011691,0.0010513,-0.016501,0.0022958,-0.0056356,-0.014376,-0.014945,-0.0049676,-0.006858,-0.0034585,-0.0047719,-0.009818,-0.010262,-0.0075117,-0.013404,-0.020301,-0.0053152,-0.015048,-0.0078416,-0.0057665,-0.0012357,-0.0072206,-0.012192,-0.005725,-0.0058652,-0.0074602,-0.0089741,0.0093398,0.0058625,0.0073769,-0.0041378,-0.0046815,-0.015106,-0.010204,0.014459,0.00052587,0.019327,0.010636,-0.013546,-0.018229,-0.0040025,0.00073509,-0.010614,0.0079941,-0.0025224,-0.0012488,-0.0015319,0.00046461,-0.010042,-0.0075787,0.0069517,-0.00084568,-8.8142e-05,-0.020093,0.0049691,0.0060908,0.0090427,-0.0096574,-0.0053955,-0.012358,-0.017442,0.014235,0.017859,0.014248,1.6955e-05,-0.01057,0.0093832,-0.011322,0.01262,-0.0018251,0.015868,-0.012753,-0.013947,-0.0040379,-0.016036,-0.030262,-0.017934,0.007502,-0.0054014,0.017078,-0.00099407,0.015695,-0.015863,-0.010418,0.0053375,-0.0075947,0.0078045,-0.017661,-0.020058,-0.012512,0.003379,0.013757,-0.0061817,0.0041089,-0.013248,-0.019813,-0.0023815,0.005255,0.0054544,0.0050056,0.017536,-0.0021263,0.013104,0.0078131,0.035583,0.022218,-0.0010836,0.0018646,0.013481,0.022409,-0.011917,-0.049662,-0.021044,0.018395,-0.014588,0.0054321,0.019035,0.041676,-0.013556,0.01313,0.017611,0.011081,0.0016168,-0.0071491,0.027649,0.003995,0.0093392,-0.0054018,0.0072615,-0.01423,-0.021191,-0.014038,0.0063345,0.0068015,-0.021654,-0.0015487,0.0025716,-0.0023847,0.03343,0.049154,0.022014,-0.024073,0.018362,-0.0015246,-0.019606,0.0044145,0.054199,0.0015261,-0.014175,-0.0067212,0.0050779,0.0020039,0.027758,0.0032165,-0.029387,0.025141,-0.024612,-0.014467,-0.010226,0.023182,-0.005136,-0.013087,0.023155,-0.03472,-0.024372,0.0021381,0.020564,-0.00019048,-0.042737,0.013276,-0.02699,-0.025084,0.017818,0.0039757,-0.020802,-0.038855,-0.0090871,-0.0025561,-0.0040623,0.025964,0.012681,0.0042969,-0.0046852,0.012752,-0.013799,-0.017734,-0.015785,0.0016037,0.02942,-0.011831,-0.015326,-0.016049,-0.0017136,-0.0089564,-0.0035726,0.013603,-0.019903,0.002989,0.010968,-0.014322,-0.021191,-0.0063636,-0.0073127,-0.013389,-0.02053,-0.016043,-0.0033425,-0.01263,-0.014533,-0.018912,-0.0051621,-0.0037589,-0.012168,-0.004233,-0.0072119,-0.032142,-0.03276,-0.0096676,-0.021551,-0.024082,-0.0081702,-0.01049,-0.02536,-0.0079228,-0.0077291,-0.035366,-0.010372,-0.013735,-0.0034764,-0.015845,-0.00059934,0.0065444,-0.012462,-0.0027858,-0.023072,-0.0058474,-0.012516,-0.0080559,-0.0037308,-0.0095624,-0.010066,-0.011143,-0.0059284,-0.0005726,-0.0019259,0.0036115,0.0032034,0.00092336,-0.0045872,-0.024654,-0.012731,-0.0027659,0.0029685,-0.0074003,-0.023051,-0.0048961,-0.025867,-0.025925,-0.018146,-0.015181,-0.016538,-0.022416,-0.020622,-0.02318,0.0015979,0.0041906,-0.03131,-0.017509,-0.013088,-0.0043251,-0.021979,0.015512,0.054233,0.019086,0.0053263,-0.0079727,-0.018673,-0.045589,-0.021808,0.01685,0.016375,-0.0086338,-0.019839,-0.023446,-0.027499,-0.006628,-0.014098,-0.0052005,-0.0099963,-0.022248,-0.02479,-0.010305,0.015055,-0.007611,-0.012316,-0.0071721,-0.0038303,-0.024293,-0.018289,-0.0086908,-0.013955,-0.003588,-0.015767,-0.015206,-0.0051375,-0.0061945,-0.010222,-0.017096,-0.005775,-0.0071097,-0.0080626,-0.0042678,-0.0029749,-0.011289,-0.0061364,-0.0018139,-0.011354,-0.011787,-0.014403,-0.012425,-0.029845,-0.01632,-0.0068347,-0.016555,-0.0060139,-0.015216,2.1067e-05,-0.016849,-0.014385,0.0030044,-0.022932,-0.0057841,-0.019521,-0.0055125,-0.012421,-0.017824,-0.010713,-0.026731,-0.0096801,-0.008187,-0.0090694,-0.0027477,-0.013669,-0.0071401,-0.012581,-0.0030811,-0.0093607,-0.0079534,0.0078953,-0.0064061,0.0016504,-0.0058371,-0.012574,-0.014541,-0.0095973,-0.0078771,-0.0065245,0.0074555,-0.0086587,-0.014414,-0.0031135,-0.00053293,-0.0047088,0.0053601,0.007165,-0.011962,-0.0071181,-0.010331,-0.011688,0.0092505,0.025712,0.0096393,-0.011988,-0.0010596,-0.012797,-0.016051,-0.0015425,0.0059086,0.008084,-0.0058101,-0.0068134,-0.011194,-0.0099655,0.0091938,-0.0030563,-0.0019815,-0.0062976,-0.0095588,-0.013908,-0.0017469,0.0085837,-0.0062222,-0.0072476,-0.0021091,-0.0079553,-0.0080134,-0.015498,0.013327,-0.0040677,-0.016363,-0.0097339,-0.02015,0.016344,0.0060935,0.038242,0.024464,0.012786,0.0049887,0.0038391,-0.010111,0.01039,-0.0079494,0.0025321,-0.0048082,0.0016932,0.016692,-0.025413,0.00038545,-0.0061882,-0.012618,-0.020251,0.010969,0.01104,0.014912,-0.0088116,-0.046586,-0.038158,-0.018312,0.0087108,0.013975,0.022101,0.026774,-0.00622,-0.0094523,0.021187,0.017784,0.020046,-0.010684,0.0030035,0.025558,0.004196,0.015603,0.010199,0.0046458,-0.00020502,0.00047132,-0.0021983,0.00054602,-0.00038452,-0.00096252,-0.00056955,0.0011253,-0.00050666,0.0012046,-0.001105,0.00026594,-0.00048266,-0.0012523,-0.00059081,0.00080876,-0.001706,-0.00069444,0.00020877,-0.00055389,-0.00054839,0.00016802,-0.00098497,0.0005172,0.0017223,-0.0023902,6.9954e-05,0.00044744,-0.00014106,0.00063477,0.00027894,0.00051315,-0.0010483,-0.001069,-0.0012823,0.00072879,-0.0013394,0.00010577,0.0022243,7.3296e-05,0.0010147,0.0017233,0.0020832,0.00086596,-0.0012429,-0.00043893,0.0015718,-0.00033647,0.00026852,0.040495,-0.022824,0.012984,-0.0013494,-0.026081,0.041791,-0.0079375,0.0051837,-0.032334,0.056092,-0.0034122,-0.010478,0.020676,0.016387,-0.001552,0.023631,0.067877,-0.0052977,-0.025134,0.039104,0.015851,0.021431,0.019048,0.059165,-0.042761,-0.031402,0.10736,0.0016075,-0.032102,-0.021684,-0.0035123,-0.12171,0.074709,0.056269,-0.044521,0.022784,0.030849,0.018157,0.054572,0.14219,0.0049718,-0.02396,0.017189,0.0091972,0.030286,0.015566,0.0048557,-0.033856,0.014039,0.0062388,0.018782,-0.020466,-0.034784,0.0064909,-0.0031281,-0.00054754,-0.015398,0.006825,-0.0008402,-0.0065202,-0.0010463,-0.011124,-0.0046595,0.000195,-0.0032403,-0.0036446,-0.022328,0.013436,0.014179,-0.016624,-0.0046763,-0.012339,-0.012067,-0.014331,0.01267,-0.0025988,-0.018668,-0.013267,0.0095218,-0.0072175,-0.01883,0.0061917,0.0060731,-0.0040981,-0.017379,0.01392,0.005885,0.0032032,-0.0041178,-0.012293,-0.0010983,0.012271,0.015656,0.035398,0.032408,0.040539,-0.018837,-0.002091,0.010189,0.0021789,0.0068442,-0.016987,-0.015826,-0.00064559,0.0091649,0.010932,-0.01344,-0.00011941,-0.0051245,-0.0054247,0.002055,0.011467,0.01688,-0.018163,0.0033602,0.011753,-0.016345,0.0015371,-0.0037589,0.019136,-0.016348,0.0089355,0.019833,-0.019127,-0.031699,-0.022278,-0.0021908,0.0081366,0.029418,0.0091739,-0.018078,-0.0060653,-0.010806,-0.014796,0.0039639,0.0086001,-0.031913,-0.021378,0.0098072,0.0036398,-0.012503,-0.019855,-0.019442,-0.0060754,0.0052219,0.017879,0.020737,0.004461,0.0073171,-0.0027408,-0.0076588,-0.018284,0.012586,0.00049198,0.0011638,0.0018513,0.008736,-0.010498,-0.026191,0.0095887,-0.00029499,-0.017423,-0.0065978,0.0074211,0.006615,-0.021891,-0.011572,-0.010313,-0.01204,-0.019768,-0.031349,-0.0064985,-0.0020062,-0.018497,0.00014688,-0.0058689,0.0022697,-0.034774,0.00019945,0.026565,4.5608e-05,-0.0053929,-0.0074381,0.0089453,-0.022882,-0.004908,0.026394,0.019025,0.00090101,-0.015801,-0.0070475,-0.01746,0.003725,0.029267,-0.0016019,-0.016954,-0.011506,-0.0068343,-0.0045807,-0.0088556,-0.0080048,-0.013952,-0.0054576,-0.0035042,-0.0099234,-0.011798,-0.0073637,-0.016196,-0.017851,-0.013867,-0.0072306,-0.016311,-0.014307,-0.0052847,-0.022062,-0.0172,-0.015942,-0.012616,-0.022218,0.014872,0.015549,-0.013558,0.0007141,-0.0042826,-0.018731,-0.02187,-0.0069608,-0.0052125,-0.0098672,-0.00087241,0.0047753,-0.0046906,-0.0050543,-0.019188,-0.01842,-0.0040481,-0.013854,-0.0030327,-0.0096785,-0.0046308,-0.013441,-0.012632,0.0054922,-0.0080502,-0.0041838,-0.0011055,-0.014037,-0.0189,-0.019752,-0.0074939,-0.004213,-0.0057448,-0.017594,-0.016441,-0.01331,-0.021543,-0.019239,-0.021554,-0.018024,-0.001363,-0.0035553,-0.005398,-0.011391,-0.036148,-0.018175,-0.0035812,-0.010438,-0.02231,-0.027499,-0.035372,-0.035719,-0.0062883,-0.01403,-0.006505,-0.01729,-0.0084444,-0.027189,-0.017621,-0.0080708,-0.027639,-0.0020005,-0.03015,-0.008912,-0.019,-0.016325,-0.0064403,-0.014266,-0.0012213,-0.018189,-0.012925,-0.013817,-0.020421,-0.019315,-0.022683,-0.024589,-0.0024817,-0.0012209,-0.0052173,0.00092561,0.012329,0.015996,0.01369,-0.012106,0.0024023,0.0022938,-0.0040694,0.01319,0.016109,0.023807,0.0084233,0.016424,0.0047753,-0.015111,0.0024491,0.015167,0.0050836,-0.0045508,0.009075,-0.0078353,-0.0099799,-0.00039754,0.0041716,0.025881,0.010836,0.005628,-0.0083726,-0.0089252,0.0003085,0.010551,0.002143,-0.0055088,0.026258,0.0087288,-0.0011292,-0.022533,0.0033963,0.01113,-0.005061,0.019461,0.033533,0.0082,-0.014411,0.0063647,-0.00060043,-0.0017293,0.011955,0.028217,0.013688,0.00047294,-0.0094698,-0.0005928,0.010162,0.020945,0.0028333,0.01551,0.016705,0.012475,-0.012413,0.0018229,-0.02261,-0.0021162,-0.0066189,-0.016773,0.0029298,0.0062478,0.0077918,-0.040026,-0.033921,-0.0050458,-0.010278,-0.012229,0.0093818,0.011767,0.019756,0.024779,0.0151,0.0080085,-0.016859,-0.0098759,-0.00029886,-0.0017427,-0.0064047,0.011974,-0.011452,0.02089,-0.004129,-0.0079796,-0.017247,0.0036576,0.0050155,-0.0042578,0.005136,0.0064829,0.0072902,-0.0037671,-0.018105,-0.0074458,-0.0097379,-0.010978,-0.028918,-0.0050824,-0.007687,-0.0040618,-0.015674,-0.012258,-0.0056221,-0.01505,-0.0016051,-0.0095959,0.01512,-0.0033599,-0.0031536,-0.012538,-0.010929,0.010689,0.0027235,0.012618,0.024428,0.016318,-0.0014089,-0.01562,0.00426,-0.0077857,-0.014114,0.012744,0.018104,0.028633,0.0059074,0.0081238,0.0020385,-0.023381,-0.010739,-0.00088848,-0.0074182,-0.016187,0.00089135,-0.0070273,-0.020759,-0.027309,0.0018421,-0.01421,0.0071144,-0.01536,-0.013244,-0.005547,-0.0048385,-0.0077333,-0.01514,0.00035443,-0.012888,-0.012871,-0.024207,-0.012382,0.00052905,-0.014217,-0.0011958,-0.010622,-0.0034836,-0.0027128,-0.0012301,-0.00023474,-0.013987,-0.0014736,-0.019592,0.0051527,0.028982,0.005236,-0.0080392,-0.0020802,-0.0082082,-0.014883,-0.0014959,0.0076028,0.002589,-0.0075544,-0.0053537,-0.012813,-0.014087,-0.012317,-0.0095122,-0.0031723,-0.0070875,-0.010993,-0.0047601,-0.011,0.0015828,-0.0026647,-0.010166,-0.0074334,-0.0057951,0.0084889,0.00067683,-0.013409,0.0020393,-0.014014,-0.02241,-0.01474,0.012331,0.0020461,-0.001231,0.01909,-0.0095354,-0.004841,-0.021882,0.010267,-0.010333,-0.020866,0.0053675,-0.01642,-0.0086592,-0.01129,-0.0099134,-0.0051978,-0.018718,-0.017668,-0.024793,-0.0095522,0.00065416,0.0084752,0.014198,0.022559,0.029071,0.020661,-0.0017726,0.0011428,-0.010184,-0.014348,-0.011927,0.00025912,-0.0013828,-0.01124,-0.023006,-0.0060195,0.0082942,0.01298,-0.004997,-0.02485,-0.000413,-0.006848,-0.02719,-0.021051,-0.013116,-0.027943,0.010012,-0.012087,0.015213,0.015364,0.063036,0.06528,0.022279,0.023784,-0.0070511,-0.012875,-0.004856,0.091989,0.053025,0.036594,0.030317,0.020317,0.033895,-0.013106,0.0046555,0.014011,0.0045359,0.012761,-0.033929,-0.022343,-0.023688,-0.010216,0.0092136,0.010639,0.034599,0.003055,0.0016359,0.0069507,0.016933,0.028034,-0.015866,0.0029125,-0.0076648,-0.016315,-0.0076945,-0.0011623,0.0016869,-0.015538,-0.012505,-0.010976,-0.0097122,-0.014943,-0.001586,-0.007427,0.007173,0.023114,-0.00724,-0.00042822,-0.011812,-0.0056106,-0.019336,0.022341,0.012676,0.003455,0.006302,-0.018643,-0.012147,-0.0074009,0.040445,0.0133,-0.0084147,-0.0060921,-0.019702,0.0037375,-0.0014164,0.0099822,-0.0092861,-0.03481,-0.0068161,-0.0034728,0.010225,0.015399,0.0077455,0.0094168,-0.033296,-0.0059368,-0.010396,0.021613,0.024874,0.019287,0.0061478,-0.021801,0.002317,0.003802,0.02406,0.0041752,-0.0053402,-0.0070693,0.010542,-0.016741,-0.0043915,-0.026024,0.0010249,0.012065,-0.0082422,-0.034236,-0.0087444,-0.013257,-0.015589,0.013402,0.054348,0.027151,-0.01742,-0.0010306,-0.0080652,-0.048123,0.018275,0.043549,0.017996,-0.031007,-0.0062526,-0.007618,-0.021926,-0.017477,-0.025588,0.0018407,0.0050227,-0.021043,0.010778,-0.0029375,0.017489,-0.00137,0.015916,0.025867,0.0056869,0.017944,-0.0077539,-0.0027608,-0.049017,-0.025795,0.018995,0.0011888,-0.015777,0.014195,-0.013461,-0.017168,0.010553,0.021133,-0.0048409,-0.018893,0.039038,0.01457,0.024447,0.026843,0.024467,-0.022105,0.0047388,0.031478,-0.0069772,0.017796,0.012934,0.040903,-0.00071185,0.0084652,0.03392,0.097098,0.17396,0.097615,0.028559,0.025535,0.019198,0.046792,0.1476,0.17785,0.15173,0.019924,0.039089,0.034095,0.044041,0.042106,0.14573,0.093298,0.031695,0.015925,0.028448,0.065358,0.0039497,-0.021486,-0.0096507,0.021533,-0.00047572,-0.014746,-0.0012312,0.021165,0.039085,0.025778,0.014543,-0.033449,-9.6445e-05,0.0026731,-0.0077354,-0.010211,-0.012626,0.006537,-7.5813e-06,-0.020117,-0.01675,-0.021198,-0.031805,-0.025917,-0.0030004,0.0059448,-0.015187,-0.011211,-0.009,-0.027141,-0.028222,-0.019755,0.002659,-0.010087,-0.019546,-0.0025231,-0.0052766,-0.014252,-0.020526,-0.0055139,-0.0070426,-0.0080634,-0.013693,-0.0051396,0.0027392,-0.008863,-0.016967,-0.005315,-0.0019509,-0.01988,-0.032183,-0.013852,-0.0064019,-0.020175,-0.0056172,-0.0051148,-0.0054585,-0.018499,-0.023377,-0.0027553,0.010649,-0.0020682,0.0026131,2.2961e-07,-0.0025878,-0.001713,-0.0058697,-0.003995,-0.00073066,-0.0036461,-0.0002065,0.0025277,-0.011544,-0.011605,-0.0084143,-0.0063323,-0.0058121,-0.0023274,-0.0063588,-0.0051954,0.005444,-0.0018793,-0.001136,-0.0030546,-0.0010642,-0.0025893,-0.00057112,0.0024745,-0.0056557,0.0045679,-0.0047286,-0.0078898,-0.0097727,-0.0080473,-0.0073978,-0.0087045,-0.0047148,0.0061762,0.006611,0.0091428,0.0014841,-0.007891,-0.014761,-0.033875,-0.025774,-0.023154,-0.0098684,-0.0057166,-0.013938,-0.013823,-0.01115,-0.0042674,-0.0093016,0.028019,-0.019769,-0.027313,0.021641,-0.021836,0.0088441,0.0039001,-0.0020538,-0.030632,-0.030585,0.0066149,-0.0099531,0.014579,0.029617,0.0036486,-0.019365,-0.019346,0.012676,0.0045631,-0.0071302,0.014897,-0.019673,-0.031877,-0.024339,0.019433,0.0045757,0.026924,0.033879,-0.0044654,-0.0046631,-0.0052062,-0.00027724,-0.022112,0.0013846,0.0013231,0.0066609,-0.0064141,-0.0018156,0.0055888,-0.0022444,0.00052545,-0.017148,-0.0018998,-0.03651,-0.036359,0.0017378,-0.013994,-0.025604,-0.014849,-0.022806,-0.020622,0.0023573,-0.0073593,-0.015074,-0.00021172,-0.0056285,-0.004273,-0.0073863,0.0048233,0.010744,-0.0108,0.010754,-0.010831,0.018922,0.031003,0.016011,0.021227,-0.0038189,-0.00044772,0.00075069,0.023869,-0.0056808,-0.00043187,0.019156,-0.017296,-0.033187,-0.0037915,0.0050156,-0.020009,0.012758,0.0053207,-0.018288,-0.017246,0.006282,0.00034806,-0.0070563,0.001248,0.0046905,-0.0027624,0.010169,0.0072537,-0.0066271,-0.0084761,0.0024984,0.0025176,0.027081,0.021561,-0.011098,-0.0013448,0.0087277,0.0015953,0.0091885,0.036137,0.02366,0.033078,0.071284,-0.015058,-0.054637,0.01842,0.014261,0.029757,0.036004,0.1154,0.13219,-0.032227,0.022548,-0.013038,0.017394,-0.074881,-0.089237,0.077704,-0.029373,-0.024808,0.015516,0.096226,0.015667,-0.069098,0.048043,0.025758,-0.0016285,-0.019682,0.089502,0.042293,-0.037612,0.026929,0.0010571,0.014069,-0.064376,0.0058482,0.018955,0.0057145,0.029023,-0.0116,0.042534,0.010558,-0.012447,-0.013403,0.023449,0.0040747,-0.010709,0.0031781,0.013688,-0.015703,0.0081304,-0.0050839,0.0018298,0.033663,-0.018137,0.010387,0.022069,0.0089468,0.00067883,-0.0011544,0.031063,0.016495,-0.021748,0.050601,0.032773,-0.025435,-0.002314,0.027555,0.0045849,-0.032204,0.016393,0.068235,0.019044,-0.039829,0.018033,0.020439,0.004591,-0.019912,0.0069788,0.054432,-0.010234,0.0042473,0.014116,0.025076,0.008646,-0.0093535,0.010007,0.0023232,0.019359,-0.015752,0.012871,0.017319,0.0044386,0.021431,0.021789,0.018722,-0.00032099,0.0067677,0.021006,0.00038854,0.0035194,0.0025168,0.013469,-0.0025785,0.013902,0.020992,0.0041754,0.019648,0.015726,0.015723,0.007461,0.017941,-0.00012816,0.019604,0.062671,0.033057,0.0077379,0.01413,0.006916,-0.018396,0.0065289,0.036652,0.019808,0.01261,0.0041939,-0.0025572,9.1523e-05,0.010916,0.011731,0.013151,0.014072,-0.010384,-0.011213,0.006434,0.017473,0.022303,0.01665,0.013314,0.0097768,0.014005,0.010433,0.009848,0.021513,0.024691,0.010012,0.0068366,0.022374,0.014831,0.007182,0.0031708,0.008992,0.0021567,0.0030386,0.0073421,0.0022649,0.018008,0.031216,0.0095948,0.0019305,-2.1257e-05,0.017593,-0.0089111,0.0394,0.061845,0.017493,0.027118,0.015829,0.0023585,-0.012754,0.025434,0.038532,0.0091503,0.022788,0.007556,0.0017868,0.013061,0.018069,0.011863,0.015857,0.0097243,0.004411,0.0042012,0.019647,0.023646,0.014819,0.018328,0.0055593,0.011852,0.0012796,-0.00044019,0.0013749,-0.00034384,0.00043206,-0.00085864,0.00040416,0.0004624,-0.00026003,-0.00037664,0.00018803,-0.001216,0.00032968,-3.8757e-06,-0.002014,-0.0011647,-0.0011168,0.00014343,0.00083098,0.0012313,0.00016065,-0.00099789,0.00077886,-0.00059606,-0.00096895,0.00020289,0.00029449,-0.00025737,0.0011563,-0.00083442,-0.0004351,-0.00035322,0.0011104,0.00046929,0.00064737,0.00076085,-0.0012221,0.00060304,0.00028601,0.001796,-0.00033528,-0.00026994,0.0010281,-0.00095529,0.00087325,0.0011658,-0.00094077,0.00074113,0.0010335,-0.0035968,0.023262,-0.0076865,-0.033282,-0.053872,0.0010347,0.0057904,-0.00013572,0.0070909,0.027613,-0.024146,-0.043915,0.016668,0.012094,0.014506,-0.0061532,0.0022273,0.05456,0.039965,0.031786,-0.012772,-0.011152,0.0048599,-0.040067,0.027621,0.062085,-0.014987,-0.0098186,-0.0078688,-0.0026382,-0.040321,-0.057619,-0.03929,-0.02561,0.0067219,0.010045,0.010394,0.0070811,-0.022938,-0.034392,0.010581,0.013942,-0.00067152,-0.0025459,-0.022381,-0.021207,-0.0016253,-0.01285,-0.0090442,-0.012508,0.0021556,-0.0040262,-0.0097295,0.0011255,0.0062218,0.0012437,0.0018865,0.0069893,0.0071251,0.0028257,-0.016169,0.0019784,0.0074268,0.0087147,0.02373,-0.013467,-0.008585,-0.020588,-0.011411,-0.0084932,-0.036638,-0.0035612,0.004492,0.023128,0.034802,0.010417,-0.00791,-0.031855,-0.010823,0.0024784,-0.020332,0.037857,0.013041,0.0017905,-0.01139,0.013257,-0.016219,0.019905,-0.0031633,0.0066163,-0.014857,0.021808,0.022043,-0.02048,-0.012395,-0.038735,-0.016888,-2.2459e-06,0.016934,0.010274,-0.015869,-0.013191,-0.01131,0.0048684,-0.028407,-0.0011097,-0.010474,-0.014377,0.005209,0.0040588,-0.013014,-0.022834,-0.0077652,0.0016638,-0.0010005,-0.00026212,0.012591,0.0043375,0.0073851,0.0011286,0.01569,0.0014707,0.013181,-0.0066468,-0.0050664,-0.018502,-0.0042217,0.0062304,-0.02329,0.00032808,-0.0014565,-0.012324,-0.017347,-0.0082645,0.004422,-0.015391,0.02293,-0.0086801,-0.0046765,0.0083245,-0.012259,0.0069906,0.0047242,0.00093666,-0.036032,-0.024958,-0.01288,0.01126,0.0083022,-0.0045025,-0.021325,0.0017241,-0.0030607,0.020334,0.010409,-0.0026589,-0.032662,-0.020573,-0.0099349,-0.017055,0.0096766,-0.0056846,-0.0056634,0.015732,0.0021164,-0.015406,-0.022676,0.011077,-0.012744,0.0029761,0.018356,0.0064083,-0.0057245,-0.033523,0.014304,0.015788,-0.022039,-0.031128,-0.010087,-0.013962,-0.024509,-0.012237,0.0091925,-0.013782,0.019375,-0.0038104,-0.0019097,0.0035977,0.018687,0.024962,0.022064,0.018495,-0.008758,-0.014858,0.0085973,0.025479,-0.00832,-0.0046831,-0.014937,-0.0018422,0.011009,0.0042525,-0.0095513,0.0015908,-0.025273,-0.009545,-0.0046046,-0.011812,-0.018842,0.00182,0.00032606,0.011869,0.011735,-0.018586,0.032669,0.009358,0.009948,0.00052124,-0.016367,0.015568,-0.0095417,0.026114,-0.010041,0.0012691,-0.0088854,-0.0038426,0.029839,0.053775,-0.014048,0.014697,0.038545,-0.0043838,0.024543,-0.017383,0.022489,0.03723,0.013543,-0.0068915,0.015691,-0.019737,0.07204,0.0426,0.014242,0.0042825,-0.0065259,0.002142,-0.00065525,-0.0099084,-0.0028523,-0.0038947,-0.00012781,0.0029682,-0.0023353,-0.0039658,-0.0030111,0.0069465,0.0023998,0.0011802,-0.0034455,-0.0013275,0.0025402,0.0056237,0.012344,0.0059661,0.0046216,-0.00025384,-0.0060618,0.0030396,0.0032452,0.0059627,0.0046722,0.0026223,-0.0021941,-0.0051761,0.0021359,0.0015213,0.0053964,0.0068649,0.0075833,0.0014813,-0.0085598,-0.0027698,-0.00098629,0.0066356,0.012738,0.0093882,0.00241,0.0014409,0.0046259,-0.0031565,-0.0021082,-0.0014141,0.0033716,-0.0035956,0.0032506,0.006158,0.020568,-0.0018175,-0.013589,0.0073976,0.017094,0.004651,0.033495,-0.036534,-0.046329,-0.001854,0.030344,0.0018945,-0.0060874,-0.034872,-0.0094167,0.083716,0.062142,-0.00024735,0.0077315,-0.020542,-0.00096358,0.075819,0.057101,-0.018194,-0.029002,-0.024045,-0.00015053,0.018275,-0.012671,-0.058714,-0.019281,0.030831,0.068389,-0.0055281,0.032592,-0.018993,-0.035806,0.0036508,0.055135,0.026239,0.01147,-0.013742,-0.0015999,0.040928,0.066482,0.0074909,-0.035292,0.0068251,0.00047006,0.0026345,0.0022559,0.019528,0.014037,0.00047989,0.008639,0.0072838,0.010708,-0.0052901,0.0025817,0.011555,0.00516,0.013848,-0.0026299,0.0065307,0.027011,0.017506,0.010967,0.0039575,0.01286,-0.0051076,0.018218,0.060651,0.029876,0.013408,0.015099,-0.012372,-0.0093084,0.00395,0.020977,0.0082331,0.0082838,0.017853,-0.0039399,0.010275,0.019811,0.0065792,0.0076733,0.01998,0.01566,-0.0010274,0.0011617,0.019422,0.022299,0.021669,0.0058511,-0.0010624,0.023055,0.0035189,-0.0012797,-0.012864,-0.0074197,0.0065024,-0.003133,0.00085858,-0.020819,-0.02143,-0.020644,-0.026863,-0.0076844,-0.015428,0.0027435,-0.0052688,-0.012353,-0.021269,-0.040075,-0.020619,-0.017042,-0.00073768,0.0040977,-0.0039035,-0.0080708,-0.019471,-0.010639,-0.011931,0.0064205,0.0050039,-0.012741,-0.012853,-0.02539,-0.010661,-0.0079245,0.0032263,-0.0036229,-0.016671,0.0027374,-0.011221,-0.013088,-0.016609,-0.0096591,-0.018637,-0.026564,-0.0088809,-0.017403,-0.022682,-0.019354,0.0022726,-0.0057585,-0.012775,-0.00058149,-0.002742,-0.0076662,-0.0046028,0.0093641,-0.0014004,0.021087,-0.0015188,-0.0017026,0.0020439,-0.010195,-0.020799,-0.057143,-0.023356,-0.015381,0.0012163,-0.00084708,-0.0013694,0.022153,0.017129,-0.00089871,0.0099974,-0.0052941,-0.0051422,0.034191,0.033808,0.04743,-0.02014,-0.00045464,-0.038063,-0.029161,0.018821,0.0072271,0.044887,0.029146,0.030963,0.018736,-0.026538,-0.014784,-0.011359,0.0023374,-0.019115,0.0055509,0.0069799,0.017308,-0.007286,-0.011197,-0.0022828,-0.0043835,-0.014487,-0.0034362,-0.012261,-0.0080089,-0.021203,-0.022659,-0.0061018,-0.021689,-0.018167,-0.021558,-0.017727,0.00228,-0.008226,-0.0039594,-0.015748,-0.010163,-0.018502,-0.014085,-0.021914,-0.030486,-0.017059,-0.011125,-0.010841,-0.028387,-0.018249,-0.0065571,-0.0087823,-0.012806,-0.014724,-0.011177,-0.0094714,-0.0069773,-0.019758,-0.01166,-0.015314,-0.031931,-0.027827,-0.0082008,-0.0096771,-0.0042373,-0.0038014,-0.0039868,-0.019301,-0.018357,-0.010098,-0.011464,0.00050412,-0.0013151,-0.00073156,-0.0002299,0.0001949,0.001436,-0.00058284,-0.0010444,0.00057262,-0.00023428,-0.00097787,0.0002273,0.00025911,-0.0007905,-0.0014703,-0.0019829,0.0031714,2.8461e-05,0.0010496,0.00088674,-0.0017916,-0.00017152,0.00045773,0.0021148,0.00044003,0.00010035,0.00065728,0.00017817,-0.00010227,-0.0015991,-0.00017653,-0.0014729,0.00099523,0.00047865,0.00073387,-0.00016028,-0.00061219,0.002312,0.0008741,-0.0006957,0.00085996,-0.0001776,0.00051017,0.00030899,-0.00093622,5.5485e-05,0.0015763,-0.00091894,0.00097102,-0.026668,-0.0073442,0.011249,0.00045584,-0.022128,0.00084128,0.010254,0.0025302,0.011427,-0.018617,0.017436,0.0058899,0.012382,0.0071518,0.0055343,-0.0010113,-0.0065718,-0.015736,-0.011202,0.016992,-0.009751,0.017471,0.00081943,-0.010426,-0.017706,-0.0091475,0.015844,-0.042813,-0.0048498,-0.013168,-0.014807,0.018901,0.00063175,-0.0086622,-0.0095232,0.0031785,-0.0073469,-0.015333,0.0011329,-0.021156,0.0025148,0.0065237,0.007228,-0.0030004,-0.0049598,-0.0058125,0.020085,0.023167,-0.013758,-0.0087749,-0.013926,-0.016226,0.00099608,-0.001407,-0.0014847,-0.013783,-0.01418,-0.021282,-0.023269,-0.016082,-0.014022,-0.015761,-0.018336,-0.01438,-0.0075638,0.0067015,0.019867,-0.01584,-0.026208,-0.026297,-0.020014,-0.042293,0.0082517,0.050027,-0.0081408,-0.0062202,-0.0098449,-0.012952,-0.026028,0.0039545,0.028092,-0.014733,-0.012812,-0.015571,-0.027694,-0.0075387,-0.016335,-0.012003,-0.0087054,-0.010994,-0.023275,-0.00017806,0.011328,0.0054443,-0.008435,-0.015259,-0.013575,-0.005087,0.0034909,0.0087944,0.0071993,0.0067646,0.011186,-0.0018828,-0.0087492,0.0012667,-0.0011779,0.0081697,8.6461e-05,0.0012619,-8.4271e-05,-0.0035874,0.0086818,-0.0073049,0.015592,0.0072843,0.0044731,0.0037861,0.0050289,0.0067787,-0.0065028,0.036786,0.042457,0.032332,0.0021395,-0.0066445,-0.002215,-1.762e-05,0.012039,0.007607,0.013176,0.0060546,0.0043939,-0.010347,0.017766,0.012841,-0.0011014,0.0016409,0.0061652,-0.0011789,-0.0064826,0.022604,0.022258,0.0078099,0.009465,0.0099966,0.0056519,-0.0071237,-0.0054836,0.0018789,0.019346,0.042186,0.039094,-0.010247,0.011921,0.0052236,-0.013695,-0.020895,0.021773,0.016503,0.012744,-0.00034611,0.015409,0.0049002,-0.00033562,0.0030651,-0.0032366,-0.0073383,-0.015671,0.013963,-0.014487,-0.017211,-0.010989,-0.016109,-0.0011201,0.016084,0.011207,-0.0050492,0.0043528,0.0058535,-0.00077017,0.01758,0.0089019,-0.0095198,-0.013301,0.0023199,0.02404,-0.00047053,0.007513,-0.015123,-0.011558,-0.0084308,-0.043398,-0.034756,0.0097358,0.0056117
0.014298,0.010326,0.0060767,0.00094223,-0.0041919,-0.010136,-0.0078964,-0.0069667,-0.00077278,-0.0025519,-0.0037901,-0.0029961,0.0010324,-0.0087369,-0.0074725,-0.0039801,-0.0015463,0.0019615,0.0054985,0.0023133,-0.0043137,-0.0076889,0.0016952,0.011678,0.0056978,0.001178,-0.0072441,-0.0083607,-0.0022638,0.0051093,0.0071423,-0.002696,0.0004051,-0.0014552,-0.006427,0.0027451,-0.00024389,0.0038264,0.0012261,0.0032576,0.0055798,0.011643,0.004993,0.00041934,0.0020409,-0.00047,0.00088113,-0.0010396,-0.00091926,-0.020179,-0.013927,-0.0035391,0.0109,0.0075949,-0.006536,0.0015985,-0.012125,-0.0077639,0.0097167,0.01816,0.015079,-0.0069327,0.001184,-0.0065728,0.0075059,0.0034853,-0.0043343,0.021639,0.0054269,-0.0047903,-0.0019893,-0.0026819,0.010713,0.012759,0.0037006,0.0014609,-0.0071505,-0.0072291,0.00018999,0.0094355,0.012055,0.010675,0.00848,-0.0046991,-0.0041105,-0.0013737,0.013035,0.011341,0.014439,-0.0072383,-0.0043925,-0.0080471,-0.00089556,0.0081364,0.014065,0.0018231,-0.0064844,-0.010591,0.0030822,0.00094944,0.0075725,0.0043555,-0.0030222,-0.00092631,-0.0040594,0.0067835,0.00095051,0.0090577,0.0060987,-0.0033302,-0.0034624,-0.0059823,0.0060438,0.0089688,0.013276,0.0053804,-0.0043097,-0.0030346,0.00012805,0.01178,0.012059,0.0094542,0.0036996,-0.0050487,0.0016759,-0.00038635,0.0076325,0.0057962,0.0057068,0.00055211,-0.0031011,-0.00054045,-0.0043664,0.0043369,0.0097981,0.010133,0.00017521,-0.0056858,-0.0027771,-0.0024976,0.0062531,0.0093958,0.0057246,0.00025522,-0.0041073,-0.0055136,-0.0014255,0.0063205,0.0067287,0.0033142,-0.0018228,-9.4369e-05,-0.00068564,-0.008135,0.0034547,0.0057519,-0.0056335,-0.0046796,-0.0027249,0.0023677,-0.0034692,0.0040056,-7.4481e-05,-0.010806,-0.0056891,-0.00021498,0.0053131,-0.0032442,0.0016414,-0.0014025,-0.011783,-0.0069471,-0.0009153,0.00039673,-0.0056626,0.0066097,0.00035931,-0.0047493,-0.0041138,-0.0031905,-0.0042613,-0.0048271,0.004531,-0.00044709,-0.0071822,-0.0043127,-0.0016015,0.00093352,-0.0054251,0.0012015,0.0036305,0.0048325,0.0073227,0.010144,0.0052287,-0.0023877,0.0087567,0.005179,0.0011056,0.004826,0.0025912,0.007314,0.01181,0.0028234,0.0014127,0.0011172,0.0039952,0.0020516,0.0020047,0.0062497,0.0012283,-0.00069971,0.0019444,-0.0013355,0.0021448,-0.00052302,0.007536,0.00073768,0.003883,-0.0041767,-0.0032143,0.0031626,0.0045504,0.006233,-0.0026256,0.0017993,-0.0068051,-0.0061965,-0.00072546,0.0034518,0.0050709,-0.0069807,-0.0039604,-0.004917,-0.0016143,0.00072086,0.0023107,0.0035356,-0.0081002,-0.0046664,-0.0065392,-0.0072363,-0.002116,-0.0011593,-0.0011421,-0.0032726,-0.0018319,0.010261,0.0094579,-0.0033269,0.00011148,0.0017736,-0.015407,0.0023293,0.014206,0.0074461,0.0088463,0.0030482,-0.0062997,-0.014005,0.0011071,0.011166,0.002329,0.0089886,0.011345,0.0032326,-0.00027894,0.0048784,-0.00024466,0.012113,0.013924,0.019777,0.0080812,0.0033157,0.0075735,0.0011914,-0.0023304,0.0081724,0.014777,0.0040052,0.010054,0.0054385,0.0094772,-0.0015966,-0.0081176,-0.0026485,-0.010221,0.0017783,0.0041631,-0.00064308,-0.004144,-0.002801,0.0061656,-0.002605,0.0023266,0.00055476,-0.00045595,0.004485,0.0034641,0.002021,0.0053732,-0.0035126,0.0016921,0.0037125,0.0051705,0.0078454,-0.0008478,0.003303,0.0046944,0.0050817,0.01001,0.0076888,0.0088918,0.0016748,0.0018822,0.0086975,0.0046867,0.012536,0.003733,0.012155,0.0083126,0.0089858,0.00069885,0.0029299,0.0089572,0.0031633,0.0099394,0.004874,0.0057031,0.0017013,0.0038809,0.005123,0.0047463,0.0081362,0.0055859,0.0024565,-0.0015469,0.0088275,0.0092113,0.010996,0.0085155,-0.0011964,0.00083845,-0.012012,-0.0016825,0.011487,-0.0010638,0.0033208,-0.0034417,-0.0018879,-0.0087949,0.00088998,0.0088722,0.0027801,-0.00083361,-0.0053253,0.0008406,-0.0015167,0.0027672,0.0014999,0.00058276,-0.00017384,-0.0072337,-0.0017171,0.0044892,0.0073332,-0.0009624,0.00082287,-0.0047123,-0.0013867,0.00055953,0.0050495,0.0087071,0.0023764,-0.00034722,-0.0012932,0.0027865,-0.0028384,0.0074589,0.0061593,0.0017109,0.00025566,-0.0054105,0.00050003,-0.0051471,0.0039818,-0.0008382,0.0015745,-0.0016447,-0.0045159,-0.0039588,-0.017076,0.0040834,0.0073033,0.0064995,-0.0022229,-0.0080894,0.0016039,0.014474,0.0007494,-4.3035e-05,0.0017945,0.0020397,0.0024897,0.00045481,0.012165,-0.0027624,-0.0040238,-0.0024404,-0.0032086,0.00078791,0.002414,0.017709,-0.0028938,-0.0054032,0.0026616,-0.0071755,-0.010794,0.0051715,0.0086634,-0.0021359,-0.0054584,0.0063891,-0.0059492,-0.014482,0.00064117,0.012727,-0.0058222,-0.0075295,-0.0016736,-0.0088389,-0.012323,-0.002815,0.014775,-0.0016113,-0.0076427,0.0032908,-0.0052908,-0.014639,-0.00092288,0.017536,-0.0022568,-0.0046542,-0.0013348,0.0060336,0.009057,0.013865,0.024966,-0.0041236,-0.0040721,-0.0011072,0.0058338,0.0090261,0.013984,0.018243,-0.0056407,-0.0066761,-0.0016101,0.0028521,0.0058306,0.014692,0.015032,-0.000181,0.00089391,-0.0052125,-0.0032873,0.0041337,0.016972,0.021377,-0.0037783,-0.0008931,-0.0029097,-0.00028714,0.0068302,0.017093,0.016848,-0.0053051,-0.0035437,0.004335,0.0031145,0.010297,0.017166,0.014571,-0.0069609,-0.0061355,-0.0018644,0.0020532,0.0093157,0.014933,0.01679,0.0024231,-0.0024448,0.0036726,0.0047388,-0.0032179,-0.008182,-0.0024115,0.0016169,0.0017162,-0.0039572,-0.0030117,0.0098034,-0.0012819,0.0038016,-0.004404,-0.00011633,-0.00099088,-0.0046301,0.0007145,0.0084315,0.0074444,0.00046317,0.0022801,-0.00013423,0.00019055,0.0016268,0.0047975,0.012916,0.007272,0.0082114,0.0023869,0.0041556,0.007058,0.0090915,0.016463,0.0036719,0.0032142,0.00088685,0.0031443,0.0043712,0.0013117,0.0083745,0.0061415,0.0034728,0.00198,0.00026684,0.0039916,-0.0032431,0.0029798,-0.0023466,0.0010117,0.0026123,0.014619,0.013019,0.015246,0.0094041,-0.0061287,-0.0034842,-0.0021456,0.00076416,0.008065,0.015515,0.014022,-0.0041232,0.0035339,0.0066091,0.0051662,0.0052366,0.0060558,0.011046,0.003582,0.0091199,0.013368,0.010773,0.011322,0.0082366,0.0081707,-0.0024129,0.0047577,0.011479,0.0027632,0.0054548,0.009053,0.011199,-0.0014051,0.0062425,0.009533,0.0041997,0.001946,0.0047668,0.0068291,-0.0017881,0.0062504,0.01052,0.0082461,0.0070332,-0.0010479,-0.0030843,0.010575,0.009935,0.0061064,0.0055023,0.0073828,0.0035908,-0.0050408,0.012332,0.011895,0.0062526,0.00047723,0.0059747,0.0036164,-0.0011965,0.013359,0.0065933,0.0045867,0.00081531,-0.004495,0.0014607,-0.0025297,0.015868,0.0024382,0.0019201,-0.00226,-0.0019813,-0.0022009,-0.0051978,0.012997,0.0020977,-0.004795,-0.0061458,-0.0013596,0.0039361,0.0009817,0.012397,0.0038845,-0.0047926,-0.0030036,-0.00039645,0.00099393,-0.0015468,0.0089797,-0.001194,-0.006946,-0.0068941,-3.8748e-05,0.0044252,-0.00077865,-0.0050976,-0.0091184,-0.018728,-0.018639,-0.0018268,0.00014709,0.012448,0.0041196,0.007161,-0.0022835,-0.0053311,-0.0026531,0.0032379,0.0082598,0.0092449,0.010505,-0.004956,-0.007779,-0.0080625,-0.0067328,-0.0019696,0.0036726,0.0072059,-0.0044786,-0.013524,-0.0093484,-0.0098347,0.0016018,0.0061039,-0.0068731,-0.014942,0.0041829,-0.0025766,-0.0046408,0.0045977,0.01085,0.0021711,-0.0082147,0.0033993,-0.0035256,-0.011357,0.00078779,0.0080557,0.00069579,-0.0034415,-0.0034965,-0.0077908,-0.015614,-0.014011,-0.0011905,-0.0018177,0.00018995,0.0094846,0.0065426,0.012615,0.010238,-0.0022321,-0.00020675,0.003105,0.00040996,0.0026096,0.0067936,0.0082619,0.00083349,0.00054357,0.0015046,-0.0023173,-0.0032776,0.0058539,0.0090697,0.0025331,0.004324,-0.0021407,-0.0013605,-0.0027442,-0.0051375,0.0026486,0.0052326,0.0018714,0.0023265,-0.006402,-0.0061834,0.00073478,0.0015132,0.0095454,0.0058426,0.0015139,0.0039586,-0.002491,0.00064771,-0.0038466,0.009722,0.0081301,0.0032933,0.0037773,-0.003699,-0.001734,0.0011462,0.011356,0.0040817,0.0033153,-0.0022828,-0.0016132,-0.0012911,-0.0096666,0.01064,0.00056225,-0.0022867,-0.00052334,-0.0052985,-0.0049207,-0.0083698,0.012909,0.0047216,0.0055921,0.00095904,-0.00047784,-0.00080025,-0.0043728,0.010824,0.008165,0.0048396,0.002723,0.0018112,0.0011612,-0.0065284,0.012235,0.0018319,-0.0010508,0.0035162,0.0013251,0.0058645,-0.0040641,-8.7317e-05,-0.00071523,-0.0018468,1.6611e-05,-0.0031726,0.0080481,0.0028902,-0.0040257,-0.011125,-0.0069742,0.0010592,-0.0016043,0.0087078,0.0021716,-0.017046,-0.012647,-0.020402,-0.02325,-0.014458,-0.012066,-0.0137,-0.0081771,0.00051582,-0.0099477,-0.023115,-0.0017549,-0.0096791,0.0016582,0.0063108,0.0021025,-0.008138,-0.021389,0.001452,0.01182,0.013044,-0.0057165,-0.0017891,-0.0070176,-0.0022291,-0.0069945,-0.0026647,0.010896,0.0064151,0.0086797,0.0049764,-0.0047316,0.011923,0.0029851,0.014407,0.0048679,0.016631,0.012349,0.0062963,0.0091312,0.0091982,0.0055352,0.0096418,0.012374,0.020678,0.029709,0.01567,0.0089497,0.023275,0.0092308,0.0088231,0.0030691,0.0096504,0.0031019,0.0036162,0.015296,0.0082888,0.006242,0.0076288,0.0012028,0.00087256,0.0050804,0.0075279,0.0056793,-0.00023875,0.0080009,0.0061774,0.0050275,0.0011128,0.0038443,0.011572,-0.0024683,0.012317,0.012344,0.0044993,0.0027178,-0.0041125,0.015495,0.005597,0.010632,0.0071024,0.0041257,0.00096532,-0.0069996,0.01089,0.010547,0.0079143,-0.0019199,0.00082959,-0.0018777,-0.00035135,0.0043887,0.003883,0.0049551,0.0027747,-0.0074517,-0.0062597,-0.010622,0.0058034,0.00021862,0.0020908,-0.0031428,0.0047042,0.0090384,0.0061249,0.0053378,0.00081013,0.0015151,-0.00089555,0.0028293,0.0055764,0.0071933,0.0070511,-0.0020524,-0.0030361,0.0018193,0.00092213,0.0091346,0.0068248,0.0050839,-0.000199,-0.0027781,0.0045563,0.0001886,0.0045263,0.0046273,0.0023328,-0.0054896,-0.012832,-0.001771,-0.0049041,0.0043451,-0.0018832,-0.0012768,-0.010386,-0.010612,-0.0026442,-0.0079116,0.009269,0.004563,-0.0012604,-0.0074026,-0.0099373,7.325e-05,-0.0044754,0.0071162,0.004033,0.00972,0.0024496,-0.0015236,0.0034613,0.0058458,0.0038656,0.0080895,0.0089291,-0.00083882,-0.0049712,0.0033651,0.0045791,0.0042872,0.0048341,0.011933,0.0063088,-0.0015956,0.0026268,0.0064217,-0.00051495,0.0017563,0.011596,0.0092898,0.005676,-0.0010351,0.0074002,0.010034,0.012906,0.004989,0.002318,0.0062072,0.0015859,0.0051659,0.010376,0.016535,0.0013436,-0.0010756,0.0066957,0.0099034,0.0064961,0.0013712,0.0058804,0.004434,-0.0055073,-0.0040516,0.0013853,0.0011711,0.0042236,0.0089355,0.0049845,0.0047688,0.0019813,-0.00016084,0.0001319,-0.0055979,-0.0043254,0.0080394,0.0035443,0.003547,-0.0012538,-0.005214,-0.0021775,-0.0027041,0.0050592,7.4122e-05,0.00066784,-0.00018616,-0.0029392,-0.0022621,-0.0028841,0.0013428,-0.00075131,0.0034369,0.00022955,-0.0047087,-0.003637,-0.0058067,0.0075586,0.0034475,9.3844e-05,-0.0018738,-0.010511,-0.0068643,-0.0026609,0.006932,0.0019817,0.0036701,-0.00088606,-0.010097,-0.0035725,0.00045179,0.0032766,-0.0011085,-0.0044675,-0.00073853,-0.0021388,0.0015868,0.00068635,0.005376,0.0011709,0.0052164,0.0071173,0.0057719,0.0034062,0.0025652,0.0016187,-0.0059716,-0.0017059,0.0040329,-0.0013903,-0.0025972,0.0014191,0.0026336,0.00012008,0.0024275,0.002378,-0.0012095,0.00138,5.5232e-05,0.0037672,0.0043714,0.0079012,0.0080342,0.0043023,0.0046568,0.0010189,0.0027212,-0.00019216,0.0025406,0.0054062,0.0023131,0.00087935,0.00047866,0.003702,0.0032473,0.0054254,0.0064776,0.00016441,0.00016011,0.0058225,0.0016918,0.00084428,0.004035,0.0012503,-0.0042728,0.00061395,0.0060869,-0.012712,-0.0088635,-0.0030761,-0.0029595,-0.0025914,-0.0045487,0.0014558,-0.01499,-0.010779,-0.0042722,0.0051623,0.0032177,-0.003312,0.0072922,-0.022051,-0.0016443,-0.0019743,0.0080427,0.010023,0.010647,0.0097798,-0.0060444,0.0051568,0.0049619,0.0061348,0.014125,0.012855,0.011968,-0.00045031,0.0066406,0.0096019,-8.1027e-05,0.0051014,0.011231,0.015103,-0.0039941,0.0051697,0.01007,0.0065717,0.010046,0.0097047,0.0042425,-0.013843,-0.0021927,0.004307,0.0087635,0.012648,0.0066855,0.0046795,3.4565e-05,0.00069335,9.1349e-05,-0.00084642,-0.002476,0.00081185,0.00021336,0.00089591,-0.0012092,0.001519,0.00055746,0.00088654,-0.0013924,-0.0008342,0.0014519,0.00089697,-0.00031177,-0.00057283,0.0013161,-0.00054417,-0.00033891,0.00017066,-0.0010199,-0.00037745,5.4067e-05,0.00016606,-0.0011044,-0.0012331,-0.0011552,0.0011227,-0.0013369,0.00056734,-0.00074022,0.0011218,-0.00090511,-0.00088722,0.00033403,-0.0020192,-0.00098888,-0.0016995,0.0019561,-0.00070195,0.0011373,0.00011997,-0.0018768,0.0017269,-0.0010076,-0.00097729,0.00094169,0.0070527,0.0035784,-0.003441,-0.011086,-0.00031586,-0.0062931,-0.015557,0.001129,0.0036614,0.0026293,0.008088,0.014307,0.0069275,0.0078402,9.5873e-05,0.017582,0.0061523,0.02274,0.020296,0.011947,0.0044909,0.0053317,0.0041651,0.0010259,0.012401,-0.0014278,0.0028224,0.009538,0.0059679,-0.0061592,-0.0012211,0.0021702,-0.0057781,-0.0023563,0.0063762,-0.00060129,0.0031529,0.0049821,0.0099445,0.0087748,-0.009428,0.014757,-0.018308,-0.0043901,1.2283e-05,-0.0044863,0.0029639,0.01947,0.0096522,-0.028783,-0.02447,-0.026818,-0.026184,-0.022668,-0.028653,-0.022555,-0.0057885,-0.010945,-0.0059657,0.00024863,-0.0084306,-0.010616,-0.0010706,0.0038916,-0.0021755,0.0019711,-0.00069815,0.0034253,-0.00044193,-0.0037759,0.0038898,-0.0015041,0.0036855,-0.0013648,-0.00056315,0.0011357,0.0010254,0.0095048,-0.0079386,-0.0019333,0.0031853,-0.003832,-0.008726,-0.0024986,0.011335,-0.00015628,-0.0089071,-0.0068603,-0.0020614,-0.011527,-0.010822,0.041417,0.035523,0.022325,0.012685,0.021568,0.02191,0.015301,-0.018789,-0.014717,-0.0070136,0.0058726,0.0018364,-0.0026879,-0.0078181,-0.0083344,0.0015212,0.0063021,0.0071283,0.013091,0.0052148,-0.0067807,-0.0069053,0.0034536,0.0093166,0.010688,0.016359,0.0122,0.0024627,0.0014446,0.0067143,0.0093981,0.015705,0.0098375,0.0021135,0.0048397,-0.0049646,0.0045037,0.0087755,0.017156,0.015688,-0.0028122,0.00020663,-0.0025366,0.0090694,0.0013899,0.0053409,0.017983,-0.00020668,0.00031909,-0.013467,0.0042703,0.00020099,-0.0055811,-0.00078566,-0.0084026,-0.0096799,0.0048787,0.0077721,0.0021344,0.0022739,-0.0052843,-0.014882,-0.0097439,0.0059759,0.01116,0.0062467,0.0090023,0.0085047,-0.0015301,-0.0082073,0.0026568,0.0085872,0.008662,0.0064213,0.0030537,0.005809,-0.0026931,0.0033309,0.0067674,0.0096202,0.0033556,-0.0039882,0.0025911,0.0039282,0.0024646,0.0055716,0.0089675,0.006114,0.0039236,-0.0044583,-0.0020506,-0.0032872,-0.0056777,0.0081809,0.00942,0.00079948,-0.0023738,-0.010244,-0.0084207,-0.012321,-0.00087271,0.0083661,0.0060334,-0.0031496,-0.005429,0.0046014,0.0034729,0.0059692,0.0041825,-0.0011047,-0.0058708,0.0031391,0.0024924,0.0067164,0.010081,0.0052014,0.0015833,-0.0038751,0.0018684,0.0063637,0.0071668,0.0053872,-0.0024854,-0.0034178,-0.0043944,-0.0031569,0.0093872,0.012775,0.0027046,-0.0043674,-0.0037151,-0.0016069,0.0027982,0.0031031,0.0095995,0.0013251,-0.0055535,0.0025113,0.000845,0.0029441,0.0044862,0.0057432,0.0089229,0.0018187,0.0028463,-0.00079635,0.00037885,0.00074494,0.005318,0.0033479,0.0018437,0.00023846,0.0017817,0.0061275,-0.0022703,-0.00061766,0.0014809,0.0055135,0.014688,0.02062,0.01644,-0.0068326,-0.0036605,0.001255,0.0011851,0.0086445,0.010371,0.013281,-0.0058232,-0.0014785,0.0011348,0.0035828,0.0065496,0.014232,0.019827,-0.0063472,-0.00084887,0.0018958,-0.0007712,0.0079075,0.014609,0.016183,-0.010041,-0.0031986,-0.0025796,-0.00058435,0.009504,0.0072931,0.0034383,-0.010192,-0.0014104,-0.0079087,-0.0035368,0.0092773,0.00386,0.00087327,-0.0088794,0.0027016,0.0024721,0.0028701,0.0023213,0.0022797,0.0010793,-0.0073191,-0.0094642,-0.0096401,-0.0028391,0.0040247,0.0022543,0.0048967,0.0036069,-0.0053858,-0.0024632,0.0021158,0.00012839,0.00055448,0.0036447,-0.0028596,-0.0082046,-0.0023359,-0.0012639,-0.0054522,-0.00042792,0.0082539,0.00072006,-0.0051365,-0.0038838,-0.0009505,-0.0018108,-0.010236,-0.0040635,-0.0045345,-0.0065771,-0.0091502,-5.7039e-05,0.0058785,0.0064948,-0.0037351,-0.0001691,-0.0031522,-0.0055771,-0.0091348,0.00019154,-0.00076548,-2.5177e-05,0.0011574,0.0034119,0.0056932,-0.0030109,-0.0039545,-0.009859,-0.0090691,-0.0046599,0.002672,0.0052981,-0.0029696,-0.016942,-0.019112,-0.022263,-0.010006,0.003374,0.0054382,0.0013923,-0.012493,-0.0074378,-0.012307,-0.0068395,0.0045707,0.014233,0.0091149,-0.0041176,-0.0071731,-0.013163,-0.010806,0.011408,0.021134,0.014655,0.00060207,-0.0032206,-0.0065214,-0.0053595,0.0066934,0.015597,0.019565,0.0011922,-0.00036444,-0.00077521,-0.0012728,0.0071581,0.0046584,0.0081159,0.0078444,0.0074769,-0.0014052,0.0058208,0.0083556,0.0026578,0.0056223,0.0055103,0.0051349,-0.0052712,0.0068136,0.002184,-0.0015276,0.002549,0.0017633,-0.0022633,-0.011521,0.0024458,0.013355,0.012833,0.0032889,0.0067399,0.0091466,-0.0043188,-0.0023182,0.0079117,0.0091817,0.0038134,0.0014189,0.0064425,-0.0020134,-0.0038582,0.0061059,0.0058317,-0.0013447,-0.0070001,-0.006511,-0.014043,-0.0089796,-0.0036453,-0.0046374,-0.0046557,0.00027286,0.0041122,-0.0091585,-0.0087701,-0.0017029,0.0023808,0.0030826,0.0044222,0.010172,0.005747,5.4053e-05,0.0013094,0.007765,0.0031443,0.004477,0.0051554,-0.0010977,0.010121,0.0038295,0.00067713,0.0036955,0.0019476,0.00044662,-0.002598,0.011889,0.0035488,-0.0010801,0.0015479,-0.0015063,-0.00081817,-0.00075403,0.014443,0.0077705,0.0017232,0.00036535,-0.000749,-0.001331,-2.0606e-05,0.013728,0.0069134,0.0026229,-0.0026846,0.0020997,0.0038354,0.0059271,0.00953,0.0039077,-0.0017211,-0.0039607,0.0037406,0.0069774,0.0035913,0.008275,0.0030251,0.0025039,0.0034115,-0.00031818,-8.4516e-05,-0.0017791,0.0088661,0.0034925,-0.0012964,-0.0020568,-0.0062616,-0.0046151,0.0013982,0.0021714,0.0037643,0.01205,0.014989,0.015606,0.0073473,0.015834,0.0028711,0.0032101,0.0079508,0.0095903,0.012531,0.0065894,0.0050035,-0.0018063,-0.0029031,-0.0044237,0.0013028,0.0031998,0.0014332,0.0043977,-0.0090289,-0.0066412,-0.0087982,-0.0085854,-0.0057768,-0.007747,0.0001067,-0.0050931,-0.0058887,-0.0064648,-0.0082771,-0.0059612,-0.0045432,-0.00032955,-0.012339,-0.0033192,-0.0020724,-0.0067535,-0.0056635,-0.0015721,0.0013985,-0.013185,-0.0049911,-0.0061585,-0.0013042,0.00083086,0.0017889,0.0045135,0.00042263,-0.0093939,-0.0050455,-0.0031937,0.00060242,-0.0054612,-0.0043777,-0.0038223,-0.0068176,-0.0075652,-0.010983,-0.0054334,-0.0035485,0.0011182,0.0020416,-0.0043727,-0.010746,0.0040785,0.013244,0.0072966,0.002933,0.0034824,-0.0028064,0.0057974,-0.00054208,-0.0027886,-0.0024814,-0.0079877,0.013357,0.01569,0.0045005,-0.011641,0.005451,0.00071205,-0.000905,0.0019934,0.0026099,0.0060889,0.004589,0.008043,0.008611,0.020935,0.0027258,-0.0065311,-0.0041641,-0.0024985,-0.0070531,0.0069236,0.017202,-0.0065416,0.0017443,0.0075379,0.010948,0.0084693,-0.0010016,-0.0038471,-0.00076924,0.0056313,0.0063773,0.007013,0.0029805,-0.0019002,-0.0037635,-0.0059552,0.0042632,0.0090876,0.0089487,-0.0055863,-0.00062332,-0.0046843,0.0028191,0.010361,0.0017805,-0.0005679,-0.00057214,0.0091646,-0.0053881,0.0099782,0.0032307,-0.0022662,-0.0017956,0.0068722,0.0075401,-0.0022367,0.0025348,-0.0011413,0.0010168,-0.0012041,0.0018589,0.0049237,0.00092365,0.00068415,-0.0025904,-0.011345,-0.011285,-0.012816,-0.0051167,0.0055462,0.0067049,0.030458,0.026849,0.028783,0.0078659,0.019624,0.0040306,0.0062081,0.01086,0.013494,0.012532,-0.0092675,-0.01012,-0.011667,0.01052,0.0094659,0.014274,-0.012383,-0.020078,-0.0054,-0.0054963,0.0057731,0.012778,0.0136,0.0014038,-0.0086261,-0.013132,-0.018454,0.0004561,-0.00025176,-0.004515,-0.012027,-0.012674,-0.008694,-0.012226,-0.0074753,-0.006202,-0.014282,-0.038378,-0.02936,0.0025617,-0.0083937,-0.015615,-0.018368,-0.0342,-0.037875,-0.017165,-0.013115,-0.022541,0.027629,0.0015776,0.011108,0.015379,0.010596,-0.0080421,0.014289,0.022726,-0.0041606,-0.00029985,-0.019082,0.016596,-0.0056569,0.010864,0.014546,0.0051671,-0.026385,-0.054269,-0.0037402,0.015762,0.00089161,0.013959,-0.03108,-0.027634,0.05267,-0.045287,-0.013822,-0.0020774,0.013045,0.002294,-0.028648,-0.048414,-0.0018385,0.017866,0.012091,0.016998,-0.00095986,-0.0020189,-0.014878,0.023305,0.0040496,0.021242,0.011261,0.0067855,-0.0026253,0.011781,0.014926,0.011402,0.021346,-0.0079225,-0.0061456,-0.004817,-0.0019138,-0.0022839,-0.0050178,-0.00041693,-0.005676,-0.00086112,-0.0031464,-0.00085494,-0.0084534,-0.0042696,-0.0019007,-0.0071554,-0.0032705,-0.0043772,-0.0041514,-0.0060309,-5.5341e-05,-1.1662e-05,-0.0066117,0.0058236,0.00080132,-0.0057008,-0.0069823,-0.0072009,-0.0030781,-0.0017005,0.0045306,-0.0012863,-0.0049454,-0.011221,-0.0085573,-0.0038041,0.0028691,0.0018172,0.0060129,0.0027394,-0.0029331,-0.00056262,0.00070949,0.01688,0.010841,0.010828,0.0078284,0.0054191,0.010654,0.0093441,0.0022502,0.0062644,0.0060149,0.0045907,0.0052521,0.0013875,-0.0015866,0.00073662,0.0044515,0.0056469,0.0030494,0.0021049,-0.00063735,-0.0015576,-0.0054297,0.00038074,0.0042323,0.00071134,-0.0032868,-0.002319,-0.0034273,-0.0055341,-5.0584e-05,0.0024362,0.00067922,0.0022659,0.0003601,-0.0012188,-0.003232,0.0025598,0.0036202,-0.00010062,-0.0014968,-0.0014187,0.00096993,0.0010075,3.594e-05,-0.0014224,-0.0032703,-0.0029043,-0.0047191,-0.0027607,-0.0070819,-0.0010195,-0.0063929,-0.0019885,-0.00077842,-0.0033828,-0.0042943,-0.0083659,-0.0037922,-4.064e-05,0.0087379,-0.005977,-0.0032007,-0.012577,-0.0038434,-0.0018453,0.0037874,0.0044688,-0.0077816,0.0017286,-0.0085204,3.0335e-05,0.0039801,0.0050636,0.002953,-0.010461,-0.0031165,-0.0052191,0.008016,0.0067976,0.0050474,0.0053452,-0.0066442,0.00016126,-0.00020932,0.00055428,0.0092166,0.0040771,0.0036394,0.0048783,0.0027292,-0.0013163,0.00056282,0.0073988,0.0022168,0.010184,0.007003,-0.004043,-0.0068162,-0.001792,0.0032575,0.0034918,0.0053281,-0.0011828,-0.0060709,-0.0051012,-0.0063479,-0.0095889,0.00087721,0.0034415,0.0013888,-0.0064509,-0.0094831,-0.0011186,-0.0027085,0.0070092,0.003916,0.0019918,0.0016726,-0.0014203,-0.0024762,-0.0034616,-0.00051912,-0.00070535,0.0061742,0.0042637,-0.0081342,-0.003443,-0.0043114,-0.002622,-0.0087794,-0.0094378,-0.0043726,-0.0114,-0.0011496,-0.00064891,0.0014285,-0.0070723,-0.0037273,0.0054679,-0.0033092,0.0041179,0.010085,0.015125,0.0095935,0.0097848,0.0043285,-0.013926,0.0048706,0.0098229,0.0095686,0.011375,0.0092523,0.001939,-0.0047524,-0.0037085,0.0048815,-0.0071673,0.0023653,0.007673,0.014108,-0.024862,-0.0058489,0.010307,-0.0010634,-0.015346,-0.0077339,0.026696,0.007263,-0.0026963,0.0026773,-0.0087753,-0.020797,-0.034183,0.0056675,0.0063342,-0.0069114,0.0052083,0.0045907,0.013702,-0.032817,-0.0092416,-0.0010028,0.016363,-0.0031016,0.0033807,0.02362,-0.0068938,-0.0038462,0.0011309,0.019685,0.0090179,-0.0027405,0.016945,0.0066174,-0.0012199,-0.0039617,0.014088,0.0066584,0.0024521,0.011251,0.005735,-0.0020293,0.00014234,0.0086184,0.011107,0.0062831,-0.012274,-0.031737,-0.0070149,0.0056517,0.0036677,0.0090576,0.023141,0.0029466,-2.0272e-05,0.0033722,0.012701,0.004129,0.0065001,0.020357,-0.0062811,-0.0029208,0.0069637,0.013341,0.00013433,0.009363,-0.0038306,-0.0069298,-0.014444,0.0085402,0.016825,-0.0029747,0.011563,0.0056596,-0.011889,-0.0012342,0.0086365,0.018262,0.0052693,0.013123,0.012838,0.0024605,0.0030622,0.0056706,0.011882,0.011421,0.01987,0.017635,0.0099919,-0.015878,-0.012928,0.0018133,0.01263,0.01698,0.016232,0.014734,0.014498,0.0048074,0.0015861,0.011877,0.015126,0.0021066,0.0020754,0.0023692,-0.0014332,-0.00013294,0.012748,0.0049885,0.0073677,0.0097473,0.0064253,-0.0021476,-0.0013625,0.012073,-0.00031853,0.0096286,0.0085887,0.013975,0.0048344,0.0022489,0.014466,0.0040385,0.0091763,0.0096079,0.011789,0.0043758,0.001943,0.012467,0.0069917,0.0030013,0.0066615,0.0032222,-0.0048788,-0.0033308,0.01394,0.0073892,-0.0039629,0.0017373,-0.0034913,-0.0048135,-0.0032443,0.012874,0.010437,0.0085981,0.016226,0.013303,0.0099443,0.013628,0.012956,0.010675,0.0080333,0.0056228,0.0074632,0.0063552,0.010227,0.0068332,0.0098163,0.011468,0.0059831,0.0049821,0.0016906,0.0092187,0.0060216,0.014318,0.013266,0.0055249,0.011136,0.0069763,0.011307,0.00012669,0.0093946,0.013954,0.0091839,0.012851,0.0044838,0.011759,-0.0014908,0.0022407,0.01055,0.011351,0.0078583,0.00076975,0.010223,0.0039922,-0.0035427,-0.0010437,0.0010384,0.0016077,0.0045355,0.017119,0.00054643,9.4761e-05,0.00042921,-0.00057239,0.00094305,-1.5106e-05,0.0012572,0.0015046,0.0001176,0.00017796,-5.8129e-05,-0.0012124,0.00075952,0.00062472,0.0018966,0.00069789,0.0013736,-0.0015766,7.4794e-05,0.0011781,0.00039647,-0.00023319,-3.0554e-05,0.00085443,-0.0028186,8.6434e-05,-0.00029646,-0.00054337,-3.9386e-05,0.00038904,-0.00032845,-0.0016236,-0.00064856,0.00015023,0.00080371,-0.0015001,-0.00019481,-4.877e-05,-6.4342e-05,0.0019357,-0.00076213,-0.0019119,-0.00020923,-0.0016584,-0.00057563,0.00070256,0.00026907,-0.00047979,0.00087497,0.0090572,-0.0013147,-0.0039992,-0.0035288,-0.0054579,-0.0049429,-0.0097904,0.012428,0.0023631,-0.0049635,-0.0084917,-0.011581,-0.0016948,-0.0033446,0.014987,0.011806,0.018725,0.00082803,-0.027805,0.0030621,0.01317,0.018094,0.01703,0.0099896,0.011315,0.013296,-0.006504,0.0042535,0.005108,0.01091,0.00042235,0.004533,0.00214,0.0055504,-0.0060807,-0.005773,-0.0047414,-0.010034,-0.0072553,0.0053228,-0.0014643,-0.016256,-0.0023603,-0.0031493,-0.010001,0.0024539,0.0036822,-0.0062088,-0.011043,-0.024116,0.0013248,0.00053867,-0.00042714,-0.006308,0.0032518,0.022087,-0.021872,0.003108,-0.0026432,0.00021405,0.00096584,0.0076771,0.024843,-0.010956,0.0065568,-0.012858,0.0032339,0.0079587,0.0041003,0.028462,-0.019781,-0.011003,-0.0096231,0.0015925,0.002314,-0.0002083,0.026595,-0.045746,-0.026458,-0.0021715,0.010277,-0.0053925,0.014302,0.034802,-0.026132,-0.019446,-0.0081346,0.0066172,0.005522,0.0079167,0.030768,-0.017581,-0.0021103,0.0032493,0.018427,0.023643,0.033484,0.049998,-0.017264,-0.0040854,-0.0028939,-0.0010179,0.00049875,-0.002833,0.00076921,-0.0030915,4.9586e-05,0.0098198,0.0094004,0.0033115,0.0014685,0.0046063,-0.0027323,0.0052266,0.011554,0.0089156,0.0032664,0.012591,0.00029987,-0.0024944,0.010801,0.0063252,0.0086592,0.0043706,0.0053069,0.00034877,-0.00049296,0.0049892,0.0021309,0.0039674,0.010349,0.013285,0.0018852,0.005041,0.0076251,0.012507,0.01314,0.012468,0.013407,0.005499,0.012117,0.004955,-0.0016371,0.00541,0.0085801,0.0069055,0.00038677,0.00943,0.005473,0.004122,0.0039262,0.011668,0.0039207,0.0017962,0.0080727,0.0050079,-0.0012704,-0.00030448,0.0092429,-0.001088,-0.0073554,0.012687,0.0089191,0.0063177,0.0050987,0.0093101,0.0061391,-0.0060204,0.0079348,0.0061084,0.0066108,0.0074399,0.0043,-0.00091655,-0.0027817,0.00098892,0.0052505,0.0035948,0.0017548,0.0060738,-0.00076224,-0.0043282,-0.003807,0.0013035,0.0014077,0.0047983,-0.0070789,-0.0040769,-0.0043616,-0.0088434,-0.0034935,-0.0070759,-0.0040494,-0.0043933,0.0035423,-0.0011613,-0.015135,-0.00059447,-0.0043761,-0.006608,-0.0025736,-0.00056852,-0.014303,-0.0089948,0.00658,0.0030872,0.0019851,0.0079964,0.011879,-0.0042056,0.0089564,0.0075737,0.0083572,0.014558,0.0037264,0.020291,0.0037187,0.0046495,0.006218,-0.011765,0.0015457,-0.046475,-0.0049187,0.0082357,-0.014991,-0.00077491,-0.0055079,-0.00075485,-0.0071217,0.0092474,-0.00088529,-0.014603,-0.002329,-0.023433,-0.015236,-0.02069,-0.012405,-0.02277,-0.0083301,-0.0010925,-0.0092588,-0.0046474,-0.0076282,-0.0038628,-0.0063719,-0.014435,-0.0091878,-0.0058878,-0.0019382,0.0031238,0.0022887,0.00091387,-0.0085482,-0.0030496,-0.00203,0.0027567,0.00529,0.005196,0.00074377,-0.0031991,-0.0011729,0.0057303,0.0093995,0.0081684,0.002301,0.0011567,-0.0034477,0.0025376,0.0044937,0.007368,0.0079649,0.0054026,0.0016443,-0.0062009,-7.3925e-05,0.0043727,0.0025852,0.0041451,0.0062125,0.001446,-0.011682,-0.0042827,0.0015188,0.0040679,0.0054131,0.0054343,0.0016118,-0.015728,-0.0060326,0.0013247,0.0037764,0.0036064,0.0071885,0.002503,-0.018107,-0.010943,-0.0053766,0.00058316,0.001646,-0.0048678,-0.0016743,-0.0096158,0.00088229,0.0030471,-0.00097671,-0.0016742,-0.01217,-0.013727,0.008065,-0.00042506,-0.0024405,0.0016204,-0.0079613,-0.0089102,-0.014938,0.01078,-0.0051465,0.0041312,-0.0002135,0.0059009,0.013057,0.0024335,-0.0026572,-0.0015392,-0.014315,-0.00099015,0.0084962,-0.0010235,-0.013608,-0.0069663,-0.0089028,0.0039055,0.0066688,-0.001718,-0.0062884,-0.0022803,-0.01069,0.00062328,-0.001937,-0.00087222,0.0005919,-0.0018115,0.01482,0.013219,0.01166,0.010228,0.013372,0.0068431,0.00085778,0.00089898,0.0081296,0.0038093,0.0022675,0.0074584,0.0048685,0.00070951,0.0024342,0.01103,0.0059752,0.0079831,0.0047788,0.0028342,-0.0010348,0.0023907,0.0049482,0.0065762,0.010815,0.0035108,0.008076,0.0058801,0.014068,-0.0010422,0.0025381,0.0075355,0.0084337,0.0069275,0.0053473,0.013098,-0.0063722,-0.004572,0.0035403,0.0058469,0.0090373,0.011817,0.011468,-0.0093575,-0.006081,0.0069291,0.01175,0.009237,0.011686,0.01233,0.00064073,0.0084995,0.0038504,0.0055392,0.0040981,0.00083782,0.00096774,0.00069853,0.0049666,0.0029942,-0.0028348,-0.0045323,-0.0050198,-0.0039059,-0.00018957,0.0059158,0.0031472,0.00056881,-0.006168,-0.0015371,0.0038935,0.0048375,0.0046067,0.0022109,-0.0038492,0.00015274,0.0028045,0.0047795,0.0031476,0.00015969,-0.0015741,-0.0073921,0.00044833,0.0040337,0.0032951,-0.013093,-0.0064525,-0.0079755,-0.012217,-0.0029262,0.0032317,0.00033904,-0.0099109,-0.010131,-0.008669,-0.0049445,0.00043859,0.0059538,0.0089199,0.018115,-0.0018704,-0.0024953,-0.0025313,-0.0081885,-0.014304,-0.027218,0.017992,0.0029725,-0.0080284,-0.013213,-0.0047308,-0.0023291,-0.01674,0.025328,0.01546,-0.0089579,-0.0082293,-0.0004033,-0.0018162,-0.012403,0.032267,0.01337,0.006395,-0.010197,0.0013311,-0.0017573,-0.010158,0.037705,0.0050375,0.00585,-0.0017798,-0.0097398,-0.015559,-0.015952,0.020927,0.010075,0.0074451,-0.0056405,-0.0088186,-0.017834,-0.0083785,0.042145,0.030312,0.0108,0.006933,0.00496,-0.00012337,-0.026902,0.015158,0.0027017,-4.0311e-05,-0.0023026,-0.0058378,-0.0071031,-0.0034784,0.0050586,0.0053639,-0.0010228,-0.00079523,-0.0037367,-0.0057411,-0.0061286,0.010006,0.011472,0.002897,-0.0016429,-0.0056385,-0.0047306,-0.0064345,0.011169,0.0082169,0.00047942,-0.0025531,-0.010178,-0.0055626,-0.0051791,0.010948,0.005724,-0.00010656,-0.0018353,-0.010659,-0.0021018,0.0010157,0.011015,0.006841,-0.0019693,-0.0038442,-0.0086172,-0.002908,-0.0037342,0.019713,0.010208,0.001692,0.00069219,-0.0029519,-0.0048854,-0.0057434,-0.00032277,0.0014945,0.00060793,-0.00025237,0.0011729,0.0018448,0.00063164,0.00077263,-0.00067235,0.00043913,0.00078339,-9.5397e-06,-0.0002883,-0.00030566,0.00073251,-0.001252,0.0010647,0.0025515,-0.0011246,-0.00068318,-0.00054953,-8.916e-05,-0.00025438,0.00037866,0.0013212,-0.00096371,0.00099059,0.00033931,0.00043199,-0.00041656,-0.00092157,0.00050648,0.00078589,0.00075296,0.00030372,0.0008443,-0.0010712,0.00039916,0.0001475,0.0015374,-0.00086759,0.00041909,0.00079151,0.00041718,-0.00036538,0.00056349,0.00037602,0.00018897,0.001638,0.030627,0.0045023,0.0015905,0.01747,0.016345,0.0084718,-0.0041753,0.019705,0.0049759,-0.0018576,0.0052427,0.0033424,0.0013655,-0.00097233,0.021185,-0.0036376,0.0032501,0.0050741,-0.001251,0.0076948,0.0003392,0.017885,-0.0053108,0.0094383,-0.0055234,-0.0053057,0.007736,-0.015458,0.024023,-0.0017016,0.004866,0.0074137,0.0022474,0.0071075,-0.011409,0.016621,0.001614,0.00054209,0.0035015,0.0039837,0.0046687,-0.0079776,0.017489,0.0073098,-0.010457,-0.0058584,-8.2719e-05,0.00015793,-0.016898,0.0010115,-0.0034407,-0.0023886,0.0052031,-0.001855,-0.0027947,0.0095729,-0.001263,0.0031998,0.0031589,0.0056257,0.0047209,-0.0037487,0.0013666,0.0084957,0.0069962,0.0043279,0.0016618,-0.0012287,-0.005886,0.0076058,0.0075379,0.010266,0.0066035,-0.0060432,-0.00027607,0.0028545,0.012083,-0.0020279,0.0034896,0.0075917,-0.00341,0.0019716,0.0069924,0.0095544,-0.0044473,2.1694e-05,0.0084177,0.0078034,0.0070881,0.0031521,-0.0011036,0.00078494,-0.0011333,0.0061778,0.00087292,0.0020246,0.0027471,0.0097601,0.0092877,0.0050401,0.0071895,0.015858,0.0096687,0.010316,0.0071988,0.0044585,0.0025238,0.0059342,0.018749,0.013113,0.016546,0.013606,0.0062001,0.0056632,0.01346,0.015383,0.01083,0.011934,0.0040266,0.0053473,0.010882,0.012975,0.011737,0.0097232,0.010471,0.0040138,0.0018674,0.0058484,0.0089221,0.010065,0.006496,0.0092528,0.011022,0.0029738,0.0039865,0.003439,0.010836,0.0088583,0.0053579,0.008027,0.00018848,0.001487,0.006169,0.0082747,0.0098815,0.0091256,0.0047838,0.012299,0.027013,0.03229,0.027775,0.012656,0.014277,0.037687,-0.0010497,0.0092191,0.011145,0.002858,-0.0029658,0.0028532,0.0075114,0.0018375,0.0036296,0.0042468,0.0064657,0.0074596,0.0027839,0.0023866,-0.0032288,-0.0047057,-0.00085281,-0.00022325,0.0024127,0.0055534,-0.00054207,0.0075324,-0.0011737,0.0071602,0.013826,0.0094197,0.0067337,0.0062723,-0.0083501,-0.0093912,-0.014792,-0.0065797,0.0010947,-0.0037537,-0.0080585,-0.032868,-0.021162,-0.035703,-0.035516,-0.028986,-0.027897,-0.027348
