0.012841,-0.071374,0.057885,-0.031128,0.037111,-0.012426,-0.0047363,-0.06305,0.035161,0.068008,-0.079461,0.082306,-0.034706,-0.009555,-0.056963,-0.030414,0.044095,0.069299,0.043885,-0.21504,0.0094342,-0.09745,0.017133,0.009309,0.020934,0.078997,-0.0067671,0.069704,-0.095421,0.24012,0.10931,0.13095,0.089418,0.10618,0.044793,-0.12696,0.16079,0.088357,0.20761,0.0038619,-0.043525,-0.041118,-0.05508,-0.04699,-0.029661,-0.00041264,-0.11363,-0.17161,-0.24332,-0.13291,-0.13401,-0.078823,-0.063576,-0.079034,-0.13211,-0.092541,-0.088443,-0.035087,-0.011846,-0.014895,0.084589,0.033887,0.073459,-0.077257,0.10122,0.092552,0.14623,0.11348,0.072458,0.050958,-0.053397,0.074814,0.0047664,0.049095,-0.0033196,0.0194,-0.016552,-0.0784,0.019657,-0.026873,-0.016701
-0.031376,0.0046631,0.0052969,-0.025299,-0.014502,-0.037315,-0.0044254,-0.013824,-0.035361,0.011526,-0.0023113,-0.012943,-0.040157,-0.041553,-0.0049034,0.00058886,0.0095953,-0.022962,-0.025803,0.018233,0.0011787,-0.024669,0.0033587,-0.022751,-0.03216,-0.023319,-0.029954,-0.040097,0.023496,-0.018216,0.11212,0.34402,0.080449,-0.051689,0.0037165,0.015475,0.00050052,-0.002126,-0.016083,0.15193,0.44915,0.17379,0.01953,-0.0028989,-0.03743,-0.033592,-0.017926,-0.03707,-0.013821,0.12881,0.0042678,-0.010532,0.0098114,-0.043649,0.0098901,0.0074993,-0.0032468,-0.040192,-0.019965,-0.071025,-0.013893,0.031119,-0.00474,0.0092951,0.00081708,-0.0006468,-0.011659,-0.015443,-0.018032,-0.0089663,0.032037,-0.0065535,-0.019738,-0.010294,-0.033443,-0.0081174,0.0088386,-0.016273,-0.011165,-0.014463,-0.0032033
0.072133,0.068069,0.017243,-0.027534,-0.06744,0.0032787,0.011296,0.01461,0.010664,0.028322,-0.0053354,-0.026286,-0.015623,-0.011221,-0.0039117,0.018007,-0.0067724,0.00053388,0.0162,-0.00045329,-0.0071846,-5.765e-05,-0.021361,0.027047,0.00036472,-0.036531,-0.009838,0.024469,0.028095,0.004315,0.046689,-0.01044,0.027918,-0.043925,-0.048943,-0.019315,0.009862,0.04473,-0.019757,0.077079,0.054632,0.083437,-0.02337,-0.049453,0.019989,0.0077731,0.039068,-0.023454,0.040926,0.011716,0.018789,-0.0061984,-0.033793,0.058159,0.003146,-0.012999,-0.0076835,0.012374,0.013646,-0.022377,-0.015902,-0.034133,-0.001474,0.019265,0.0084599,0.02034,-0.027848,-0.00058587,0.0028081,-0.0020857,-0.008478,-9.1377e-05,0.062943,0.017228,-0.0020196,-0.023858,-0.021787,0.014396,0.029296,-0.00054459,-0.0061654
0.0053435,-0.0247,-0.01926,0.013659,0.012684,-0.028007,0.037795,0.025306,-0.011688,-0.029712,-0.03496,-0.022429,0.00019565,-0.012455,-0.072086,0.011521,0.049074,0.042355,-0.01462,-0.0098162,-0.0043841,-0.0057539,-0.048788,-0.061444,0.0085371,0.046558,0.03627,-0.029433,-0.042379,0.026737,0.098419,-0.015297,-0.019819,0.059523,0.08216,0.0086351,-0.083004,-0.10923,-0.054676,0.080556,-0.0099661,0.010939,0.09002,0.13661,0.05199,0.016212,-0.061109,-0.12577,-0.034394,-0.017625,0.024504,-0.025176,0.051927,0.038048,-0.011502,-0.064781,-0.050372,0.017427,-0.007861,0.027711,-0.010179,0.016248,-0.0002642,-0.025037,-0.031684,0.013927,0.070698,-0.0055905,-0.010715,-0.0065457,0.018079,0.02379,0.014808,-0.0076063,-0.00011694,0.036181,-0.023983,-0.013865,-0.0288,0.011299,-0.011415
-0.0036175,-0.020143,-0.0056904,-0.034181,0.010188,0.030466,0.013564,0.013872,-0.03311,-0.033208,-0.014779,-0.019581,-0.03039,-0.032474,-0.022295,-0.0092035,-0.0022369,-0.0082051,0.0045272,-0.010407,-0.047046,-0.04643,-0.0023431,0.019265,-0.0026036,-0.0023575,-0.0073775,-0.0048441,-0.014653,-0.055479,-0.064188,0.085168,0.018063,-0.060688,-0.018958,-0.0046858,-0.027422,0.022178,0.021476,0.0089793,0.21662,0.13636,-0.021755,-0.0010142,-0.01505,0.039826,0.031848,-0.0073185,-0.088958,0.10028,0.11825,0.034118,0.037246,0.017968,-0.00034889,-0.019106,-0.033414,-0.073803,0.036731,0.047844,0.016316,0.015901,0.018808,-0.03777,-0.047323,0.0034629,0.0096537,0.047455,0.020329,0.029675,0.016743,-0.023609,-0.0047258,-0.01148,0.029334,-0.019062,-0.0044269,0.019014,0.024851,-0.0070975,-0.019686
0.02411,-0.013195,-0.020786,0.00014908,-0.02553,0.0033705,0.050023,-0.021723,-0.043809,0.071924,0.027103,-0.058796,0.0013855,0.0090267,0.021166,0.031415,0.025682,0.017826,0.014578,0.077046,-0.03592,-0.072175,0.030742,0.0014301,-0.027246,-0.03753,0.01271,-0.068351,0.12274,0.15629,-0.0040335,-0.046188,-0.066147,-0.04271,-0.0178,0.025091,-0.12369,-0.024743,0.13294,0.23049,0.1171,-0.052573,-0.097645,0.0038669,-0.0076925,-0.069526,-0.1911,-0.17934,0.14696,0.20633,0.071041,0.006971,0.066396,0.0052941,0.038555,-0.061982,-0.22998,-0.10055,0.0098588,0.020343,0.054983,0.075571,0.071024,0.076636,0.14595,0.093751,-0.063507,-0.14755,-0.1463,0.050563,0.02214,0.013376,-0.048611,0.049209,0.10013,0.0072799,-0.056008,-0.011977,0.033381,-0.024834,-0.047236
0.023096,0.033781,0.025431,0.0052864,0.022999,-0.012449,-0.062431,0.0048035,0.054173,0.011616,-0.024882,-0.0012831,-0.011522,0.0094983,-0.00379,-0.011431,-0.029537,0.0065055,-0.013853,-0.022212,0.029909,-0.0053065,-0.0072344,-0.0077448,0.017919,0.012666,0.00017498,-0.022715,-0.012529,-0.006125,0.00026292,0.056734,0.0017716,-0.012051,-0.0089193,-0.014115,0.038706,-0.0065431,0.023748,0.024795,0.1094,0.030817,0.019135,0.00051904,-0.00043343,0.026076,-0.0032901,0.014248,-0.044364,0.048729,0.0054474,0.024878,0.016764,0.04584,-0.010493,-0.014003,0.008803,-0.045236,-0.0011084,0.010376,-0.0011247,-0.0026473,0.028899,0.054503,-0.017497,0.013036,0.02241,0.018565,0.013378,0.010853,0.022605,-0.00802,0.031568,-0.012237,-0.025543,0.00046497,0.015031,0.022105,0.0093281,-0.029835,-0.062677
-0.0095865,-0.031483,-0.090694,0.10472,0.095764,-0.012166,-0.018007,-0.025457,-0.015996,-0.0070204,-0.025476,0.01489,0.16245,0.066559,-0.033683,-0.0033202,-0.01343,0.00054627,0.026746,-0.085117,0.073379,0.12362,-0.093292,-0.08937,0.02629,0.016923,0.036812,-0.012353,-0.059786,0.13208,0.071781,-0.16052,-0.06397,-0.0038478,-0.0095711,-0.0056995,-0.025455,0.045483,0.10503,-0.10034,-0.16344,0.064726,-0.0052856,-0.04104,0.014966,-0.022082,0.10092,0.0707,-0.13209,-0.099528,0.095433,0.060941,-0.03007,0.012629,0.0021294,0.062288,-0.045349,-0.081991,0.048385,0.035155,0.0060102,-0.012576,-0.0020126,0.032036,0.051001,-0.040894,-0.02481,0.052282,0.016237,-0.020745,-0.0036523,0.024081,0.043355,-0.014795,-0.1158,-0.03247,0.0074865,0.010992,0.013051,0.020315,0.0047586
0.0007117,-0.041657,-0.013686,0.026968,-0.006753,0.053286,0.0049799,-0.047482,-0.024516,0.0081153,-0.056979,-0.0069213,0.08731,-0.0074977,-0.026128,0.016713,0.02757,0.019333,-0.11876,-0.014828,0.052199,0.16402,-3.7435e-05,-0.036129,0.015166,-0.00081168,-0.015726,-0.17782,-0.10089,0.033411,0.266,0.079436,-0.056904,-0.0095258,-0.014976,-0.010209,-0.15949,-0.13418,-0.016615,0.23006,0.069564,-0.045688,0.0035922,-0.026255,-0.02718,-0.12342,-0.10387,0.0081317,0.15808,0.03685,0.029207,0.050759,0.037475,0.024839,0.022411,-0.051012,-0.027287,0.039292,-0.055867,0.024463,-0.012093,-0.011354,-0.012458,0.033605,-0.0293,0.0038768,0.031968,-0.040123,0.012319,0.008064,0.0016696,0.0047409,-0.038461,-0.050843,0.022847,0.023464,-0.0046124,0.02554,-0.0090591,-0.013432,0.017832
-0.021904,0.010593,0.014562,-0.028579,-0.030042,-0.046436,-0.031934,0.046772,0.039108,-0.02875,-3.4531e-05,0.0056341,0.018132,0.0068431,0.019005,0.020382,0.033989,-0.0056721,0.006919,0.023652,-0.0084815,-0.0083067,0.0072771,-0.0044665,0.013996,0.07229,0.01831,-0.024555,0.034978,-0.0043519,-0.0098459,0.056661,0.031989,0.018271,0.039462,0.020311,-0.038515,0.010076,-0.012782,-0.010609,0.09986,0.070544,0.0072076,0.0061456,0.028317,0.037309,0.0086177,-0.026706,-0.037016,0.02682,-0.016371,-0.016857,0.057084,0.038846,0.0025498,-0.0082586,-0.039332,-0.025431,0.015072,-0.009901,-0.054128,0.020305,0.014634,-0.018332,-0.020464,-0.011702,0.00248,0.002865,0.0045998,-0.012198,0.014832,0.0066235,0.0047903,-0.027254,-0.00066675,0.036591,0.019693,-0.0072467,-0.014433,0.014118,-0.023872
-0.0025271,0.0087403,-0.03432,-0.010426,0.046565,0.03853,0.0092472,-0.014376,-0.018798,0.0045484,0.0081438,-0.030539,0.0054303,-0.0041604,-0.0054689,0.018931,0.016692,0.013628,0.0076569,0.037605,-0.041711,0.017843,0.033581,-0.012568,0.0086404,0.010223,-0.020956,-0.035098,0.064218,-0.025639,0.058443,0.061251,0.017155,-0.017113,0.0026921,0.0064549,-0.010509,0.031828,-0.062421,0.085416,0.10942,0.038174,-0.0028489,0.023655,0.0072427,0.049067,0.023765,-0.08585,0.10001,0.14502,0.10088,0.043056,0.014861,0.039837,0.002951,-0.10767,-0.13496,0.07519,0.071824,0.047419,-0.012019,-0.023574,-0.012188,-0.041029,-0.22187,-0.21849,-0.028849,-0.02497,-0.011444,-0.0036678,0.0075384,-0.0096168,0.097388,-0.090363,-0.21789,-0.0095952,0.025592,-0.013747,0.011397,0.032174,0.0052798
0.018098,0.015905,-0.0083053,-0.0088916,0.018816,0.016433,-0.027198,0.050442,0.025343,0.0089922,-0.011029,0.013269,-0.002908,-0.001763,-0.0082591,-0.047655,-0.010288,-0.00087789,-0.031578,-0.02193,0.013211,-0.02463,0.013477,0.0060663,-0.022853,0.0023034,0.003349,0.0038812,-0.005995,0.0096077,0.030158,0.12301,0.035914,-0.00086408,0.0086452,-0.0221,0.042117,-0.023523,-0.0044008,0.04093,0.1822,0.086011,-0.0012313,-0.0012765,0.011871,0.0055521,-0.01701,-0.013992,-0.024389,0.070462,0.05254,0.016946,0.016742,0.025211,-0.016694,-0.013348,-0.00044685,-0.010433,-0.0066517,0.0040397,-0.030383,0.0076361,-0.052282,0.00062527,-0.0023562,-0.0087158,0.011065,0.022124,0.0017968,-0.029043,0.055494,-0.016475,-0.0075988,0.016118,0.0015703,-0.058794,0.0020746,0.027642,0.0040045,0.019122,0.034147
-0.013091,-0.0083248,0.028377,0.0094434,0.0026613,0.0081757,-0.0050403,0.014591,0.017233,0.0018722,-0.020417,0.039813,0.034288,0.020201,0.015709,0.024736,0.014732,-0.019568,-0.038159,0.0084395,0.032237,0.052136,0.039602,-0.032106,-0.017769,-0.018822,-0.01718,-0.049615,0.033403,0.02058,0.071224,0.082921,-0.0036121,0.016434,-0.031654,0.015504,0.012037,0.037024,0.0017133,0.061783,0.09125,-0.019068,-0.017048,-0.030463,0.003578,0.0062525,0.040101,-0.0099982,0.031296,0.043486,-0.079015,-0.086103,-0.028651,0.025347,0.0040426,0.046133,0.0024137,0.02868,0.030119,-0.042375,-0.063694,-0.032518,0.020467,0.0081939,0.0072296,0.0027954,0.0045647,-0.020242,-0.05789,-0.043172,-0.0053774,0.0090378,-0.0073188,0.01407,0.044468,-0.0036038,-0.028252,-0.032825,-0.0002994,0.017824,0.019643
-0.012543,-0.0038472,0.0081909,-0.003046,0.0015531,0.041659,-0.029489,-0.0085964,0.031894,0.0096109,0.0053446,0.02427,-0.0082106,0.021578,0.011502,-0.13879,-0.07435,0.058412,-0.0015552,-0.014399,-0.014444,-0.04144,-0.0010568,-0.072922,-0.24606,-0.19572,-0.072558,-0.0030562,0.027281,-0.0063578,0.04275,0.20649,0.12782,-0.15347,-0.12623,-0.027606,-0.0054897,0.013146,0.016665,0.10603,0.23012,0.17595,-0.027432,-0.018817,0.0089288,-0.0035777,-0.012186,-0.019701,0.037841,0.14996,0.049852,-0.068277,0.015278,-0.015554,-0.0032294,0.011359,-0.042926,-0.012336,0.077395,0.020508,-0.019541,0.033826,0.007721,-0.01832,0.0031401,-0.039262,0.0023951,0.042842,-0.019958,-0.034648,0.013748,-0.0011983,-0.0097083,-0.00059661,-0.0010327,0.033366,0.014078,-0.022927,-0.010156,0.0028461,-0.01303
0.010827,-0.018729,-0.017043,0.062333,0.063882,-0.00017788,-0.029313,-0.022915,-0.029877,-0.0082888,-0.012044,0.018114,0.057977,0.039809,-0.020395,-0.027146,-0.013645,-0.012247,-0.062702,-0.010302,-0.023054,-0.015931,0.063706,0.033969,0.003573,0.014353,-0.0016457,-0.024857,0.024811,-0.013866,-0.019803,0.1472,0.089214,0.017827,0.016424,0.0062276,-0.026238,-0.012462,-0.00068705,-0.022099,0.10957,0.075105,0.0080161,0.00045301,0.0019888,-0.011846,-0.040558,0.017371,-0.046804,0.0055882,0.038352,0.026443,0.037372,0.018334,0.01649,-0.046288,-0.017612,-0.047925,-0.043962,-0.022591,0.0094034,0.056105,0.014756,0.034677,-0.022463,-0.012195,-0.019492,-0.060724,-0.047614,0.0041253,0.028962,0.019981,0.02412,0.025768,0.025588,-0.041942,-0.069875,-0.040873,0.0022477,0.012922,0.007335
-0.016732,0.042949,0.042639,0.0052953,0.024298,0.057964,0.0019516,-0.01873,0.026246,0.00544,0.02106,0.0072253,-0.0035799,0.0091632,-0.017369,-0.022547,-0.017889,0.014414,-0.032426,-0.0037655,-0.023965,-0.0027351,-0.0047698,0.029981,0.054491,-0.0048131,0.022108,-0.046775,-0.042374,-0.013235,0.037384,-0.037134,0.016134,0.15726,0.080421,0.075684,-0.025834,-0.052043,-0.055212,-0.0085273,-0.12402,-0.1486,0.012248,0.036663,0.030194,-0.012079,-0.039351,-0.010535,0.030423,-0.030329,-0.087943,-0.088866,-0.046597,0.0032715,0.033805,0.023691,0.072311,0.090054,0.09478,-0.021728,-0.097363,-0.067693,-0.012461,0.06432,0.043373,0.074214,0.060723,0.071474,-0.042368,-0.053919,-0.034675,-0.018434,0.0083024,-0.013193,0.013023,0.0097402,-0.043324,-0.064293,0.058117,0.051007,0.027033
-0.041222,0.021445,-0.026618,-0.033123,0.044843,-0.026084,-0.012037,-0.010301,-0.004414,-0.0033858,0.0069324,-0.032679,0.11283,0.23791,0.15465,0.015365,0.027066,-0.0081825,0.027924,-0.0034599,0.04131,0.16096,0.28524,0.20712,-0.01001,0.030264,0.029213,-0.0018156,-0.0074009,0.035527,0.080792,0.15084,0.10783,-0.0038017,-0.02673,-0.016003,0.01995,-0.015635,0.00086072,-0.020908,-0.07843,0.013665,-0.00018357,-0.019048,-0.006928,0.013593,0.021733,0.00083628,-0.14555,-0.26534,-0.10804,-0.01515,0.019559,0.0055054,0.00014341,-0.025304,-0.017815,-0.20715,-0.36685,-0.22257,-0.028784,-0.02543,-0.027526,-0.0068382,0.01608,0.040624,-0.019775,-0.14418,-0.057247,0.054646,0.063058,-0.0069617,0.014203,-0.025703,-0.059167,0.059071,0.066777,0.015216,-0.0091224,-0.048637,0.029645
-0.030923,-6.3627e-05,0.041989,0.030023,-0.041693,-0.0046839,0.01405,0.022896,0.027072,0.01033,-0.0073342,0.022893,-0.028785,-0.069114,-0.028086,0.006448,0.035642,0.029697,0.045014,0.012107,-0.02901,-0.12463,-0.11564,-0.00080833,0.041459,0.001346,0.006937,0.026111,-0.016006,-0.042046,-0.13915,-0.20351,-0.031564,0.10058,0.036927,0.041911,0.011791,-0.01611,-0.017998,-0.11405,-0.26873,-0.11757,0.14759,0.12905,0.090915,-0.0069879,-0.014338,0.039922,0.042687,-0.11629,-0.064131,0.087055,0.068619,0.025259,0.0043145,-0.013741,0.039386,0.083405,0.039125,0.018653,0.038962,0.068236,0.054677,0.0074853,-0.042622,0.019813,0.068638,0.042215,-0.001151,0.0067528,0.056966,0.037089,0.0050243,-0.015824,-0.015756,0.023497,-0.001632,-0.026765,-0.0215,-0.005042,-0.0032555
0.023565,0.056645,0.03119,-0.014031,-0.027065,0.053801,-3.5735e-05,0.034081,0.053689,-0.055648,0.019159,0.028587,-0.004016,-0.00070564,-0.010197,-0.044146,0.013193,0.016595,-0.047659,0.0029613,0.047301,0.051029,-0.048537,-0.034539,0.0061772,-0.0043123,-0.01909,-0.080684,-0.026069,0.0076257,0.12223,-0.011627,0.021264,0.056037,0.037414,0.051694,-0.052142,-0.026639,-0.063521,0.019416,-0.040186,0.0042545,-0.026666,-0.0326,-0.02639,0.015807,-0.037847,-0.026436,0.015134,-0.080724,-0.055875,-0.0068459,0.0048905,-0.0053868,0.014154,-0.038017,0.029627,0.044861,-0.02716,0.0099415,0.039614,0.0097122,-0.0028075,0.0019449,-0.017778,0.028311,0.049023,0.0090927,0.013981,0.023058,0.0074003,-0.020303,0.028893,0.030194,0.075837,0.075821,-0.035614,-0.020774,0.043262,-0.010138,-0.015887
0.028024,-0.0054938,-0.041137,0.0021641,0.0093395,-0.0047775,-0.0016317,-0.0020467,-0.019358,6.4983e-05,-0.02908,-0.0017645,0.0077354,-0.010082,0.011615,-0.0073415,0.016654,0.016499,-0.015219,-0.020865,0.030535,0.005372,0.0071849,0.01859,-0.026967,0.012637,-0.011994,0.014032,-0.01163,0.0059293,0.04455,0.10037,0.013757,-0.030158,0.0076707,-0.034564,0.012384,-0.0081502,-0.0062825,0.097429,0.2344,0.099569,0.0087989,0.022558,0.02106,-0.03706,-0.015143,-0.034434,-0.018768,0.074116,0.031853,-0.0090454,0.01148,-0.0049116,-0.027119,0.014336,0.035268,0.014967,-0.02692,-0.022988,0.0019068,0.025112,-0.016091,-0.014416,0.0068057,0.0027373,0.034983,0.0048899,0.031198,-0.0034746,-0.015003,-0.032281,-0.0041404,0.022251,-0.0077182,-0.040176,0.0016701,0.012561,-0.024478,0.015215,-0.0052287
0.0017513,0.025605,0.012099,0.038203,0.03828,0.049862,0.03007,0.0017602,-0.007339,0.031651,0.040349,0.0061662,0.0032711,-0.0021027,0.016175,-0.0042681,-0.0027295,0.0083571,0.025624,0.019474,-0.047135,-0.025157,-0.034231,-0.010548,-0.013068,-0.035758,0.0029499,0.0087761,0.01161,-0.029963,0.011336,-0.055657,-0.048579,0.024355,-0.033014,0.026832,-0.011056,0.0040675,-0.01865,-0.0048966,-0.040933,-0.048169,0.014021,-0.039026,0.0046855,0.011304,0.010846,0.018097,0.01203,0.018171,0.0077827,0.042987,-0.0095891,-0.04071,-0.0066184,0.0087884,0.039134,0.037821,0.016791,-0.0037748,0.0019556,-0.02055,-0.0042243,-0.024569,0.00486,0.0167,0.046495,0.011528,-0.013291,-0.024268,-0.011321,-0.0050428,-0.0039481,0.018769,0.02186,0.036472,0.0019945,0.0036006,-0.0014945,0.01527,-0.032021
0.010169,-0.0051391,-0.0058802,0.019913,-0.018035,0.010364,0.018077,0.0067234,-0.0023121,-0.007769,-0.01382,-0.018927,-0.023507,-0.014865,0.0043661,-0.018544,-0.007499,-0.036988,0.025732,-0.0076315,-0.0034158,0.033223,0.024538,0.022759,-0.005554,0.0063941,0.00263,-0.0029535,0.010006,0.00067705,0.043198,0.016924,-0.00015671,-0.0097812,-2.9456e-05,-0.00549,0.0033744,0.031623,-0.031902,0.026079,0.069753,0.065333,0.023538,-0.012147,0.024019,0.0029579,0.012505,-0.025349,0.043185,0.03957,0.025312,0.0090655,-0.012319,0.006984,-0.0069657,-0.021928,-0.039749,0.0074115,-0.015926,-0.025492,-0.04252,-0.024452,-0.0076344,0.00078545,-7.1564e-05,0.018766,0.020013,0.0011883,0.033424,0.0087409,0.027037,0.026155,-0.013751,-0.012198,0.018076,0.00080552,-0.017885,-0.0028559,-0.031822,0.02295,0.018541
0.038865,-0.015967,0.0055405,0.018441,0.03753,0.032169,-0.047859,0.022741,0.011804,0.040788,-0.0032391,0.056917,0.054052,0.10956,0.1034,0.018934,0.047487,-0.029397,0.041527,0.033927,0.085961,0.037369,-0.013669,-0.056979,0.014768,0.098749,-0.0065756,0.0039915,0.031733,0.063827,-0.069489,-0.22181,-0.21551,-0.071409,0.036022,0.0018813,-0.026878,-0.026389,-0.0076333,-0.058502,-0.13137,-0.15677,-0.1458,-0.14427,-0.061445,0.039625,0.011798,-0.0045012,0.052544,0.082527,0.0065153,-0.013456,-0.038286,-0.018802,-0.013377,-0.0036631,-0.0066077,0.060292,0.10587,0.027842,0.013962,0.044128,-0.037033,-0.013165,-0.0035068,0.0031688,0.0032497,0.030527,0.007111,-0.0058793,0.075829,-0.031776,0.046507,0.020247,0.0082681,0.019239,0.042753,-0.010832,-0.0024953,0.048902,0.0073225
-0.00065656,0.00094505,-0.00092784,-0.00057678,-0.0012947,0.0025089,0.00016529,-0.00021019,0.001468,-0.00061076,0.0004601,0.00082644,-0.00015082,-0.00044507,-0.00089677,-0.0018159,-0.00055943,0.00070357,0.00069619,-0.0015746,-0.0023653,0.00044352,-0.00059108,0.00053222,0.0004927,0.00061491,-0.00041289,-0.001317,0.0010226,0.00045735,0.00019836,-0.0001122,-0.00055205,-0.00065239,-0.00098958,-0.0016083,-0.00049437,-0.00083266,-0.00034783,-0.00020782,-0.00060437,0.0010837,0.00031219,0.00019559,9.7281e-05,-0.0018022,-0.0021072,0.00058783,-0.0011241,-0.00071694,0.00089434,-0.00059963,-0.00040074,0.00026363,-0.00023559,-0.00028845,-0.0013219,0.00078885,0.00013125,-0.0017786,-0.0016858,0.00076161,0.0014516,0.00051315,-0.0014605,2.284e-05,-0.00022975,-0.0013181,0.0013808,-0.0021125,-0.0010711,-0.0015467,-0.00041,0.0019131,-0.0011048,0.0007593,0.00031054,-0.0008076,0.00065516,0.00098219,0.00026128
-0.011932,0.036622,-0.031327,0.084245,0.062984,0.0078706,0.0334,0.051266,-0.059989,-0.037168,-0.012861,-0.13473,0.026247,-0.059296,-0.084862,-0.086318,-0.088893,-0.0067788,0.052273,-0.062684,0.044535,0.31373,0.092592,0.072823,0.13548,0.032741,0.088773,0.03161,-0.16706,0.17701,0.11742,-0.36305,-0.22365,-0.15321,-0.119,-0.036302,0.018478,-0.082237,0.30637,-0.039161,-0.27924,0.19775,0.1169,0.10079,0.050388,0.026249,-0.036086,0.16543,-0.17393,-0.21298,0.18967,-0.14364,0.01071,-0.034073,0.093739,-0.018662,0.060101,-0.1817,-0.04155,0.17506,-0.074797,0.034665,0.035065,0.015714,-0.064556,0.098708,-0.066312,0.03745,0.020512,-0.042183,0.026064,-0.033292,-0.029701,0.049552,-0.0091653,-0.11263,0.032198,0.00051,0.03452,-0.0018983,0.014991
-0.030486,0.019129,0.007398,-0.053089,-0.13122,-0.060025,-0.029464,0.025791,-0.0060575,0.0016686,-0.033495,-0.076316,-0.06732,-0.15795,-0.12807,-0.086661,-0.010128,-0.016846,-0.0029015,-0.035069,-0.021711,-0.037123,-0.14284,-0.062517,-0.064217,-0.062457,-0.023382,0.036525,0.01728,0.030609,-0.0080788,-0.016021,0.086007,-0.0064602,-0.067332,0.0064091,0.0071396,0.013219,-0.029524,-0.11003,-0.024737,0.029063,-0.049117,-0.020063,-0.022178,-0.0030692,0.022991,-0.0064553,-0.053977,0.011167,-0.02657,-0.066495,0.066837,0.0036936,0.028336,0.028359,0.0049478,0.034492,0.1403,0.038312,-0.067436,0.049656,-0.020139,0.017981,0.011187,0.0030583,0.11692,0.28825,0.16333,0.015357,0.048829,0.0015954,-0.020189,-0.012411,0.027372,0.086367,0.27545,0.15368,0.013696,0.042959,0.0053195
-0.0094887,0.02085,0.04739,0.023305,-0.02633,-0.027928,0.017664,0.043713,0.010458,0.060249,0.021367,-0.031765,-0.050764,-0.10844,-0.12315,-0.073562,0.013063,0.075887,-0.0034592,0.054622,-0.037711,-0.029724,0.066882,0.041444,-0.10344,-0.019865,0.019247,0.01145,0.087487,-0.056164,-0.031844,0.18157,0.19051,-0.048727,-0.045641,0.025397,0.018576,0.081731,-0.065392,-0.073035,0.14194,0.11725,-0.03483,-0.022895,0.019289,-0.0085399,0.057839,-0.11674,-0.14632,0.045735,0.023539,-0.062557,-0.088322,-0.021706,0.034093,0.10922,-0.051683,-0.08397,0.058354,0.057276,0.027366,-0.0061254,0.020309,-0.0089617,0.031285,-0.017498,-0.055379,0.0070727,0.049058,0.072881,0.041899,-0.012627,-0.0041634,0.029559,0.034115,-0.027999,-0.059102,-0.024655,0.032334,0.026339,-0.064227
0.016047,0.04346,-0.075053,-0.052683,0.0084408,-0.010567,0.0052769,0.0090389,0.0050088,0.024047,0.010483,-0.054517,-0.019814,-0.025061,-0.013092,0.011887,0.012204,0.0078617,0.010398,0.034168,0.028757,0.0057479,-0.051103,0.048105,0.071174,0.065158,0.06613,0.010009,0.05364,0.04497,0.015449,-0.15603,0.012095,0.053962,-0.015885,0.0023224,0.010098,0.042259,0.071481,0.021409,-0.27958,-0.095465,0.035754,-0.023996,0.0079731,0.0091623,0.042566,0.13328,0.14662,-0.16627,-0.061829,0.026233,0.0079811,0.032576,-0.0061246,-0.022362,0.013987,0.11176,-0.12336,-0.078892,-0.022342,0.011338,0.017005,0.0049964,-0.033225,-0.038201,0.11734,0.020329,-0.042552,-0.06424,-0.012362,-0.015178,-0.023556,-0.0033059,-0.014764,0.10875,0.048796,0.031323,-0.0047144,-0.024834,-0.02475
-0.073218,-0.0037837,0.0053602,0.00080262,-0.017749,-0.012533,0.00064589,-0.013274,0.012668,-0.010246,0.0028433,0.013161,0.029459,-0.0058061,0.020172,0.013472,-0.0043916,0.020786,0.03366,0.0086142,-0.013192,-0.0038481,0.00030221,-0.008158,-0.007224,0.014173,-0.010328,-0.0019342,0.035037,0.0090753,-0.011874,0.035271,0.021241,-0.010875,0.020774,0.0045857,0.022094,0.031156,0.035897,0.010041,0.091236,0.076749,0.0083001,0.018345,0.0035162,0.023309,0.00052593,-0.0088063,-0.031173,0.020374,0.0028068,-0.0082781,0.02609,-0.034772,0.015554,0.0267,-0.028624,-0.016365,-0.0059183,-0.018053,-0.026038,-0.011274,0.00031714,0.051077,0.0061866,-0.048607,-0.0048299,0.002725,0.010239,-0.0056939,-0.019749,-0.0067084,0.035691,-0.013006,-0.031407,0.014304,0.019005,0.0013607,-0.013142,-0.0060053,-0.038386
-0.011083,-0.019112,-0.029502,0.0046865,-0.016662,-0.045674,0.0021609,0.0066968,-0.069422,-0.011374,-0.0067689,-0.02209,-0.0028391,-0.013017,-0.026979,-0.028776,0.014314,-0.035687,0.0035035,0.058226,0.054593,-0.0039077,-0.0073597,0.0025892,-0.030462,0.054667,0.077346,0.018551,0.022701,0.025163,-0.0014142,0.0081228,0.025063,-0.006946,0.037689,0.02043,0.051489,0.00065132,0.0051619,0.00023911,-0.015774,-0.039592,-0.032214,0.0063774,0.013926,0.0334,-0.024435,-0.056454,-0.047166,-0.011485,-0.015633,-0.016092,0.0027973,0.019572,0.016152,-0.017331,-0.043321,-0.061637,-0.03442,0.019521,-0.0028596,0.018827,0.014463,0.038674,-0.0043618,0.01762,0.0082174,-0.0081196,0.042903,0.041277,0.098011,0.077254,-0.00087282,-0.02079,0.0090469,-0.0034603,0.053282,0.087681,-0.0053041,0.042491,0.053964
0.0098293,-0.0064246,-0.0031776,-0.072091,-0.11392,-0.14523,-0.003551,-0.0044282,0.022063,-0.0063778,0.053815,0.049252,0.00835,-0.047383,-0.12248,-0.085998,-0.056786,-0.04959,-0.0081948,0.074447,0.085583,0.08018,0.012811,-0.065426,-0.037067,-0.054835,-0.066731,0.038873,0.052594,0.10978,0.18952,0.16482,0.05,0.019289,0.015885,0.029834,-0.041837,-0.031378,0.057651,0.18942,0.2329,0.079284,0.0048861,0.010772,0.038336,-0.10775,-0.11468,-0.051708,0.064692,0.15039,0.040197,-0.009164,0.0058063,-0.016764,-0.065996,-0.14433,-0.1151,-0.046625,0.038296,-0.0069123,-8.7452e-05,0.022978,-0.043591,0.029976,-0.10025,-0.13551,-0.065516,0.024008,0.02482,0.015071,0.048768,-0.0090305,0.068673,-0.025368,-0.11652,-0.062835,0.052067,0.036866,-0.039145,0.030738,-0.024839
0.00095693,-0.032773,-0.020296,-0.030088,-0.062426,0.023302,-0.012735,0.02365,-0.0057298,0.0023427,-0.006323,0.0090455,0.021327,-0.00541,0.031735,-0.014142,0.030945,-0.0048108,0.01782,0.011313,-0.024405,-0.023037,-0.01791,0.010705,0.0013581,0.040658,-0.011165,-0.012074,-0.010081,-0.06749,-0.029079,0.030464,0.076306,-0.049049,-0.087601,-0.051359,0.031729,-0.010108,0.076922,0.22357,0.3109,0.34881,0.10941,-0.015159,0.010181,-0.04959,-0.081601,0.031521,0.10155,0.14739,0.18879,0.030122,-0.023985,-0.036475,-0.036385,-0.076398,-0.045886,-0.13617,-0.13171,-0.081197,-0.068829,-0.010214,0.0012917,0.0063798,-0.048422,-0.015006,-0.045177,-0.037475,-0.042154,-0.00026622,0.0061578,0.013376,-0.038873,-0.025252,0.0024833,-0.055752,-0.068533,-0.08471,-0.051059,0.0030884,-0.023606
-0.087345,-0.10551,-0.1658,-0.11022,-0.083547,-0.1299,-0.043616,-0.012815,-0.050161,0.037671,-0.03489,-0.093948,-0.05426,-0.012316,-0.063222,-0.065948,-0.043738,-0.055742,0.053787,0.053851,0.052191,0.089761,0.091661,0.034421,0.019814,0.025509,-0.0022662,-0.015403,0.08314,0.072307,0.084002,0.069585,0.085606,0.13324,0.13156,0.10509,0.0013643,0.053347,0.017976,0.0087844,-0.026776,0.0045232,0.046807,0.06679,0.06666,0.021451,0.037839,-0.026065,-0.0043575,0.0033901,-0.056521,-0.070496,-0.024169,0.021226,-0.0049678,0.042558,-0.021199,0.0013376,0.025903,-0.010524,-0.062621,-0.013874,0.018568,-0.029215,-0.022079,-0.0090562,0.025746,0.015868,-0.0058038,-0.038172,0.023552,0.015829,0.0017687,-0.0085032,-0.0065067,0.0045444,0.016919,-0.005109,-0.039743,0.043922,-0.014737
-0.011694,0.02679,0.041759,-0.0038396,-0.020642,0.0086859,-0.0097654,0.020589,-0.0070472,0.0093598,0.0074751,-0.0046647,-0.033241,-0.0013163,0.0064966,-0.011318,0.012788,-0.022616,-0.026956,0.00081545,0.023005,0.013678,-0.010127,-0.0062087,-0.043703,-0.0021606,-0.0074429,-0.0027454,0.033035,0.020891,0.034373,0.023553,0.015682,-0.02192,0.012658,0.0037829,0.007478,0.025845,-0.013996,0.03241,0.10231,0.028667,-0.053594,0.023261,0.024847,-0.035997,-0.0050018,0.022241,0.028924,0.034073,-0.0095955,-0.031131,0.032622,0.0081701,0.0060904,0.017227,0.028722,0.00037,-0.038915,-0.022574,0.0030384,0.023652,0.0013234,-0.00064908,-0.0036017,-0.01466,0.01678,0.0040861,-0.025528,-0.022659,-0.0095407,-0.0095119,-0.031068,0.034521,-0.00012648,-0.0046359,0.012856,-0.011961,-0.0012795,0.0090033,0.010843
0.0054173,0.0078559,0.022892,-0.047869,-0.057631,-0.029331,-0.030631,-0.076121,-0.049308,0.0010107,-0.0045329,-0.023886,-0.088009,-0.034096,0.0080309,-0.035762,-0.095867,-0.067998,-0.021998,-0.021136,0.0021474,-0.041944,-0.051476,-0.044206,-0.10499,-0.043382,-0.028893,-0.0034544,-0.010778,0.049705,0.085377,0.055021,0.053134,-0.044567,0.0048431,0.024732,-0.020511,0.0067319,0.057631,0.035501,0.043768,0.10492,0.0060166,-0.058414,-0.021956,-0.014645,-0.013426,0.030371,-0.036956,-0.0030636,0.011862,0.053642,-0.0036057,-0.03987,-0.0052455,0.0063098,0.093894,0.010242,0.016635,0.00064747,0.071019,0.021532,0.0034914,0.013353,-0.032223,0.049184,0.038237,0.040156,0.032759,0.070124,-0.014996,-0.026519,0.010993,-0.021281,0.030806,0.041145,0.017015,0.0082548,0.073193,0.012709,0.016616
-0.031514,-0.020174,-0.011579,0.015038,0.031568,-0.019291,-0.019114,0.012183,-0.0040739,-0.00050383,0.016895,0.00052474,-0.015387,0.047851,-0.020201,-0.048217,0.046145,-0.012201,0.0029011,-0.016971,-0.044828,-0.027743,0.098191,-0.013223,-0.022347,0.018762,-0.0036896,0.005666,0.012636,0.018677,0.031842,0.24024,0.028694,-0.062305,0.074404,-0.022482,0.017487,0.024532,0.067522,0.1079,0.36902,0.11719,-0.072822,0.064223,-0.011823,0.027359,-0.030181,0.0077739,-0.025135,0.079337,-0.064275,-0.26445,-0.023954,-0.052012,-0.0035568,-0.045256,-0.015549,-0.065566,-0.064234,-0.1482,-0.30054,-0.023372,-0.080134,-0.010552,0.042448,0.017502,-0.0053123,0.019708,0.0056703,-0.057828,0.10575,0.01455,-0.044647,0.0079496,-0.016318,-0.0058477,0.039752,0.021513,-0.068967,0.0058144,0.069934
0.0064139,-0.098366,-0.053199,0.066075,0.11042,0.11149,0.017456,-0.038272,-0.044818,-0.036845,-0.060565,0.042744,0.13807,0.041042,-0.072667,-0.10619,-0.056944,0.013493,-0.052973,-0.043193,0.1008,0.14396,0.0072174,-0.097228,-0.087417,-0.021639,0.044914,-0.068838,-0.019685,0.11071,0.066699,-0.092182,-0.12221,-0.0099083,0.018625,0.044596,-0.064846,0.071185,0.13478,-0.028246,-0.12163,-0.093854,0.04202,0.070595,0.036804,0.019841,0.13168,0.076191,-0.10768,-0.091386,-0.0097322,0.062735,0.063798,-0.0044099,0.06123,0.074955,-0.0047725,-0.12742,-0.0244,0.021791,0.03078,0.0010489,-0.042655,0.048315,0.028906,-0.058847,-0.10168,0.0028369,0.046847,0.021738,0.012969,0.014061,-0.0043109,-0.011013,-0.077283,-0.07775,0.03956,0.070808,0.021592,-0.025912,-0.0062083
-0.036586,0.0067515,-0.0017677,-0.06173,-0.029819,0.0031329,0.016243,0.022408,0.0016272,0.0088525,0.036804,-0.01722,0.10972,0.22011,0.063699,-0.019692,0.01179,-0.00093384,0.0094199,-0.024856,0.017441,0.27144,0.38771,0.13688,0.047024,0.006066,0.0025477,-0.012882,0.018241,0.032293,0.12177,0.16238,0.037344,0.018119,-0.019629,-0.031195,0.0019177,0.029206,0.0080547,-0.04391,-0.048228,-0.040119,-0.006302,-0.013474,0.0064619,0.047654,0.023307,0.0017594,-0.082076,-0.20736,-0.12442,-0.041901,-0.0028168,-0.0015291,-0.022088,-0.0064586,-0.071218,-0.1671,-0.34658,-0.21681,-0.021014,0.002592,-0.03795,-0.019512,0.02081,0.0060777,-0.038345,-0.18284,-0.007911,0.059163,-0.0067472,-0.011299,0.022271,-0.038397,0.0073793,0.030594,0.0065349,0.015637,-0.014788,-0.022547,0.046125
0.00047813,-0.0018907,0.0075958,-0.0081,0.0085995,-0.008029,-0.010313,0.013103,-0.0019727,0.001537,0.0069851,-0.012025,-0.022988,0.017485,-0.022568,-0.0004201,0.013837,-0.0087725,-0.0073313,0.017038,-0.0018694,-0.020948,0.020863,-0.011412,-0.0065657,0.0052004,0.014087,-0.022646,0.0078717,-0.043054,0.047153,0.12385,0.0277,-0.021107,-0.011167,-0.0050106,-0.0090171,0.015156,-0.022372,0.14814,0.34256,0.15025,-0.023383,0.011795,-0.0074684,-0.014612,0.0052837,-0.047942,0.035218,0.1226,0.034799,-0.023503,0.0084942,-0.019153,0.0065931,0.012713,0.00050291,-0.020246,0.016728,-0.018156,-0.022497,0.01804,0.004774,0.011414,0.0039726,0.0036256,-0.023531,0.018615,-0.017447,-0.012272,0.021789,-0.0099386,-0.015325,0.0069686,-0.015856,-0.023456,0.029176,-0.025454,0.031778,-0.012656,-0.014033
-0.012751,0.051941,-0.01376,0.0047366,0.044672,0.022495,-0.022606,-0.0044777,-0.020423,0.035589,0.053934,0.02207,-0.01784,0.0042104,-0.026025,-0.038286,-0.0086696,0.036598,0.07461,0.045439,0.018144,-0.035372,-0.063968,-0.034837,-0.0016508,-0.010223,-0.023571,0.024,0.023287,0.028446,0.090135,0.027342,0.067137,0.09529,0.047095,-0.0024811,-0.031265,0.016498,-0.050873,0.0827,0.095991,0.1215,0.06422,0.014016,0.027733,0.0072978,0.050706,-0.11214,-0.068276,-0.032595,0.028665,-0.032078,-0.017763,-0.017118,-0.045873,-0.0039258,-0.050252,-0.045214,-0.060794,-0.048887,-0.053464,0.012659,-0.029756,-0.040955,-0.0053096,0.022481,0.018205,0.0059999,0.0065625,-0.020514,0.0028432,-0.030644,-0.06289,-0.038615,-0.0034168,-0.0077714,0.021871,-0.018306,-0.023064,-0.0014829,-0.043813
0.018511,0.012415,0.016025,0.013056,0.0056637,0.04295,0.019051,-0.011867,-0.0024767,-0.0069818,-0.037675,-0.012782,0.019402,-0.016287,-0.017372,-0.022552,-0.029496,0.0057944,0.0056569,-0.057882,-0.053381,-0.047821,-0.041235,-0.058007,-0.047478,-0.035172,-0.0073751,0.095653,0.053742,0.055108,0.021348,0.036837,0.023615,0.0046658,0.015846,-0.00070149,0.031809,-0.0016739,0.02302,0.039362,0.039278,0.049041,0.028789,0.029415,0.033601,-0.021742,-0.046958,-0.03042,-0.018386,-0.031413,-0.022885,-0.0029199,0.0055915,0.025201,-0.007912,-0.00017489,0.0047131,0.01606,-0.0016372,-0.0061395,0.0039662,-0.0079606,-0.0048523,7.8502e-05,0.017096,0.012583,0.016174,-0.015703,-0.0097281,0.027163,-0.00029263,-0.0181,0.036803,0.00090188,-0.031455,-0.00093041,-0.025935,-0.028236,0.012628,-0.022091,0.0099541
-0.035661,-0.036823,-0.065231,-0.01848,0.045203,0.065541,-0.0030758,-0.048689,0.0043487,0.026123,0.0044237,-0.042742,0.00399,0.050499,0.052373,0.019218,-0.019175,0.013001,0.030412,0.02625,0.046543,-0.01611,0.019974,0.044606,-0.038581,-0.030928,0.0030268,0.059714,0.052647,0.13095,-0.010029,0.0205,0.13377,0.021051,0.026632,0.0087626,0.063059,-0.010371,0.020045,-0.14301,-0.094312,0.033732,-0.071056,0.013512,0.0075447,0.015776,-0.036893,-0.0040178,-0.16352,-0.094259,0.051532,-0.029281,-0.016136,-0.012754,-0.027859,-0.070099,-0.094987,-0.19646,-0.07458,0.10588,0.059837,0.0088479,0.0080178,-0.0012326,-0.036362,-0.025434,-0.03793,0.033308,0.09049,0.08694,0.031671,0.0085687,0.0019545,0.0069292,0.013096,0.025352,0.010792,0.035643,0.045198,0.011718,-0.019975
-0.014864,-0.001225,-0.029604,-0.071845,0.0039842,0.027989,-0.0063433,0.038449,-0.016507,0.039244,-0.0026878,0.021021,-0.027631,0.052563,0.085463,0.065203,0.047445,0.01644,0.027859,0.033428,0.05972,-0.03281,0.041533,0.098672,0.10028,0.10033,0.065951,-0.0035986,0.0091909,0.02119,-0.04933,0.075892,0.07289,0.013524,0.042156,0.036108,-0.031782,-0.056706,-0.082444,-0.03441,0.10691,-0.074045,-0.11821,-0.076507,0.0085635,0.011915,0.012307,0.041786,0.10584,0.11921,-0.083919,-0.042369,-0.020345,0.03935,-0.01845,0.004331,-0.01763,-0.020858,-0.0064854,-0.086808,-0.08553,-0.03507,-0.019853,-0.033245,-0.012899,-0.010571,-0.028936,-0.0038515,-0.049495,-0.0703,-0.0030868,0.0042358,-0.014829,-0.0064929,0.025632,-0.02297,0.01502,-0.030765,0.0052218,0.01136,-0.0027311
-0.016966,-0.0071783,0.06203,-0.06289,-0.097716,0.059111,0.06869,-0.052956,0.029992,0.090729,0.0012649,-0.046814,0.057375,-0.057452,0.029244,0.024996,-0.020083,0.013695,-0.053682,-0.022559,0.048739,-0.011684,-0.10869,0.087961,0.028045,-0.11078,-0.0047972,0.010098,0.011823,0.079604,0.020007,-0.20644,-0.028958,0.3714,0.094225,0.071758,0.0029451,-0.080953,0.014187,0.17677,-0.23977,-0.63019,-0.16673,-0.1058,-0.015416,0.065388,0.042512,-0.040692,0.30229,0.41093,0.011127,0.046746,0.043031,-0.078579,-0.027739,-0.018007,-0.17374,-0.091056,0.024843,0.0031574,-0.038143,-0.020958,0.0054952,-0.0012588,0.081462,0.0054212,0.10038,0.042099,0.0037422,-0.015612,0.07241,-0.014472,-0.03934,0.035147,-0.093798,-0.052305,0.061299,0.058058,-0.0452,0.0065575,-0.0047727
-0.010611,0.006102,0.0043959,-0.08364,-0.030571,0.056887,0.038891,0.0024457,-0.0033889,-0.0011717,-0.030148,-0.020298,0.0044828,0.036292,0.019784,0.0072445,-0.026083,0.01184,0.073823,-0.03078,-0.014907,-0.17568,0.061434,0.12284,0.0066901,-0.0073869,-0.0086072,0.036759,0.056367,0.071053,-0.38029,0.052834,0.1638,0.042759,-0.041784,-0.026864,0.052868,0.065816,0.15266,-0.49395,-0.0079426,0.21243,0.13195,-0.064695,-0.049055,0.0045572,0.015171,0.13867,-0.29463,-0.038381,0.11574,0.15034,-0.030278,-0.018599,-0.0084182,-0.039101,0.11278,-0.11739,-0.032041,-0.0048781,0.10243,-0.018106,0.0021578,0.024792,-0.022339,-0.0052203,-0.04691,0.030856,-0.050605,0.026705,-0.0044942,0.013418,-0.00032236,0.051867,-0.023359,-0.0705,0.0031283,0.0095219,0.060918,-0.027558,0.016428
-0.016404,0.014126,-0.0072805,-0.0035246,-0.0076507,-0.025421,0.01021,-0.01382,-0.015872,0.011709,0.0064554,0.012736,0.0054206,0.028884,0.011221,0.011219,-0.019227,-0.016402,-0.012278,-0.0098226,0.041516,-0.005773,0.0063633,0.034347,0.015317,0.0049807,-0.00029695,-0.01744,0.027942,0.034553,0.0096518,0.063667,0.032189,-0.034011,-0.013365,-0.0058304,0.01489,0.01242,-0.0072594,0.062806,0.17731,0.064028,0.00037571,-0.021645,0.008739,0.017939,0.0059819,0.016789,0.027313,0.070288,-0.0013581,0.0030854,-0.0285,0.037524,-0.021751,-0.016482,0.025646,0.0040713,0.0056389,-0.0022748,0.0050227,-0.014638,0.029154,-0.0086198,-0.018768,0.0088871,0.0090777,-0.004984,-0.033053,-0.018961,0.022696,-0.0041071,0.018705,0.034293,-0.022133,-0.017331,0.0050738,-0.020707,-0.015761,0.0073983,0.025311
-0.043437,-0.008993,-0.00096203,-6.5241e-05,-0.0040306,0.017706,0.010854,0.0024856,-0.045321,-0.0045945,0.0083013,0.01191,0.015867,-0.0040862,0.02461,0.016862,0.0012858,0.021251,-0.0067506,0.007477,0.021539,0.0063452,0.021496,0.024671,0.0087851,0.010589,0.014368,-0.011742,0.023801,0.022721,-0.002264,0.084413,0.035998,-0.023503,0.024408,-0.0087524,-0.0084567,0.016077,0.017246,0.03208,0.13702,0.076648,-0.00082648,0.031302,-0.013471,0.003012,-0.0017216,-0.025333,0.016104,0.070212,0.049751,-0.00048311,0.005842,-0.025703,0.020073,0.014586,-0.0049989,0.0067999,-0.032971,0.001471,0.011069,-0.0030401,0.0045059,-0.0080017,-0.0060041,-0.0074962,0.0081846,-0.010825,-0.0087787,-0.0204,-0.012166,0.021366,-0.010916,0.018747,0.023528,-0.016604,0.016517,0.014237,0.00037323,0.024567,-0.011328
-0.0014644,0.00019724,-0.0010272,0.001167,0.00043886,-4.5176e-05,-0.0013281,0.00076981,-0.0015019,-0.00082269,-0.001875,-0.00090997,-0.00050129,-0.00024164,0.0010036,0.00010506,-0.000127,0.0011059,0.00085315,-0.0020015,-0.0020025,0.002771,4.91e-05,0.00071035,-0.0014816,-0.0028098,-0.00065797,0.00021131,0.0014937,8.5668e-05,-0.00012938,-0.00013689,-0.0013109,0.00065537,3.6895e-05,0.00012124,0.00023355,6.4899e-05,-0.00048594,-0.00084018,9.5211e-05,-0.00078095,-0.0016393,-0.00043858,0.00037956,-0.0013559,-0.00085355,-0.00060233,-0.00051178,0.0015527,-0.00020145,9.6901e-05,0.00034144,-3.1367e-06,0.00012428,-0.00058442,-0.00045554,0.00047349,0.00053063,0.00073697,-0.00095919,0.00117,-0.00087333,0.00046773,-0.0001074,-0.00040815,8.7924e-05,-0.00096249,9.9977e-05,-0.0011305,0.0003011,8.3918e-05,-0.00012285,-8.7957e-06,7.5318e-05,-0.00094871,-6.2022e-05,0.0020985,0.00015634,-0.001137,-0.0024797
-0.0037242,-0.026693,0.032024,0.01203,0.0049324,0.0041358,0.021212,-0.004189,-0.0026231,-0.01961,0.0035256,-0.0007018,0.019542,0.02206,-0.036837,-0.0099569,0.0010295,0.0059015,0.0046666,-0.024216,-0.022476,0.024312,0.060721,-0.02834,-0.010389,-0.011309,0.006622,0.027336,0.022408,0.0098969,-0.12427,-0.011546,0.045187,-0.0047539,0.030914,0.0089923,0.0054149,-0.0068942,-0.16078,-0.36465,-0.31369,-0.055926,0.014014,0.0033109,-0.018249,0.019885,-0.024314,-0.04017,-0.19133,-0.20426,-0.043587,-0.010561,-0.011773,0.0046903,0.0018853,-0.034094,0.21234,0.26456,0.20256,0.055659,0.013363,-0.015094,-0.011366,0.014864,-0.057582,0.10244,0.1999,0.21961,0.031245,0.015197,-0.007157,0.024229,0.026646,0.016521,-0.0082362,0.010828,0.058263,0.020434,0.026901,0.0048946,-0.0026263
0.0032211,-0.015559,0.012146,-0.035305,-0.024264,0.035662,0.0629,-0.0031617,-0.034066,0.016794,-0.029965,0.048735,0.005641,-0.0082341,0.0012272,-0.01883,-0.025046,0.035328,-0.0086177,0.02119,0.20567,0.099813,0.06094,-0.014074,-0.1144,-0.17392,0.010176,-0.0097884,0.10928,0.37621,0.20645,0.040666,-0.12325,-0.22581,-0.32035,-0.0837,-0.02191,0.033998,0.20538,0.083423,0.01695,-0.051854,-0.11862,-0.22769,-0.010333,0.010879,-0.0073683,0.065509,-0.015157,0.0092842,0.021601,-0.0094634,-0.064769,0.023348,0.034835,-0.012675,-0.0061359,-0.011143,-0.019749,-0.020517,0.030679,-0.029816,0.0079429,0.0097342,0.001496,-0.016613,0.0039391,0.0043601,-0.012637,0.025378,-0.028317,-0.00034168,-0.019329,-0.0021349,0.019168,-0.021787,0.0032088,-0.0067005,0.041207,-0.027106,0.029665
0.047912,-0.0036607,0.023832,0.061232,-0.039767,0.0057024,0.036733,-0.0011627,0.0055227,-0.0050959,0.035336,0.086774,0.069417,-0.0075653,0.049412,0.05563,0.022993,0.025461,-0.038587,-0.032855,0.041189,0.092662,-0.015135,-0.041424,-0.027361,-0.02592,0.0023824,0.013738,-0.0075303,0.010703,0.12248,0.04317,0.042076,0.082071,0.050976,0.0078684,0.011556,0.053732,0.0016573,0.039827,0.065393,0.13458,0.053483,0.017026,-0.0039113,-0.0337,0.010431,-0.052551,-0.042183,-0.031396,0.048727,0.0063684,0.055291,-0.025268,0.020028,0.01306,-0.057788,-0.054353,-0.073948,-0.061578,-0.1168,0.004672,-0.031791,0.0041872,-0.0066554,0.006549,-0.023487,-0.11455,-0.12728,-0.14533,-0.018979,-0.014639,0.018025,-0.0025608,0.012226,-0.013827,-0.019223,-0.082041,-0.12941,-0.023158,-0.036121
-0.010611,0.0087397,-0.037419,-0.025729,-0.024915,-0.06302,-0.018925,0.014608,-0.032259,-0.019988,0.014783,0.031773,-0.014886,-0.061855,-0.054626,-0.020823,0.062971,0.016209,-0.060387,0.00053656,-0.03071,-0.047259,-0.063869,-0.10188,-0.046166,0.051238,-0.017466,-0.019737,0.013739,-0.066938,0.037628,0.14869,-0.028157,-0.050037,0.049967,0.0071124,-0.047375,-0.0073068,-0.10113,0.15919,0.43474,0.17314,-0.036283,0.0085283,0.0082611,-0.021159,0.025684,-0.054766,0.063898,0.26263,0.057534,-0.067013,0.011845,0.03536,-0.028466,0.024577,-0.021142,-0.04576,0.0083901,-0.091481,-0.12218,-0.0088059,-0.036442,0.010629,0.081129,0.052784,0.0055675,0.0015322,-0.034012,-0.037893,0.0059088,0.014675,-0.012339,0.0079163,-0.015776,-0.019869,0.0036621,-0.052139,-0.045065,0.02048,-0.021942
-0.011211,0.00021515,-0.00068948,-0.030552,-0.072965,-0.0045837,0.028454,0.015104,-0.016831,-0.009457,0.0038115,-0.037979,-0.059133,0.015315,-0.024523,-0.027402,-0.0005679,0.0036759,-0.052718,-0.10815,-0.27424,-0.34084,-0.19691,-0.071919,-0.071573,-0.0094163,0.0046081,0.034796,0.1011,0.077345,0.037497,-0.15332,-0.11406,-0.029428,1.356e-05,-0.031248,-0.0034643,0.041137,0.31404,0.6757,0.29442,-0.018996,0.018271,-0.020482,0.0014472,0.010001,-0.070663,-0.050521,0.19028,0.08041,0.014725,0.0083228,-0.0077524,0.025475,0.026375,0.042589,-0.023167,-0.022695,-0.022635,0.0094158,0.024752,0.017086,0.010931,-0.0026027,-0.0021265,-0.018321,-0.044476,-0.0093494,-0.012733,0.017381,-0.0054515,-0.025681,-0.019623,-0.0056486,0.0067149,-0.022142,-0.010513,0.0043141,-0.018456,0.01562,0.014013
-0.038143,-0.010137,-0.035514,-0.011619,0.030161,0.054868,0.026621,0.021768,0.036582,-0.032679,-0.026679,-0.036767,-0.018338,0.03139,0.062296,0.037809,0.038932,0.044474,-0.0087977,-0.017532,0.0058776,0.0042096,0.018914,0.011883,-0.016263,0.0029869,0.033578,-0.03385,-0.023908,0.0094852,-0.016146,-0.004712,0.0082106,-0.026253,-0.0077249,0.024349,-0.0043729,-0.0096936,-0.041954,-0.10532,-0.063994,0.0070429,-0.015974,-0.0093819,0.014816,0.040979,0.036644,-0.051257,-0.15256,-0.095669,-0.001247,-0.013051,-0.0062931,0.018092,0.036411,0.035732,-0.040438,-0.11334,-0.068092,-0.0031889,-0.027371,-0.025918,0.033644,0.048447,0.041225,-0.0023853,0.0029574,0.057023,0.048104,-0.0022778,-0.0089335,0.054667,-0.00040894,-0.0073403,-0.0025041,0.043892,0.073496,0.040886,0.0069439,-0.01015,0.042378
0.0022939,0.045095,-0.062188,-0.020587,0.062675,0.04769,-0.084255,-0.022058,-0.007589,0.055694,-0.11566,-0.039999,0.15972,0.12165,-0.16328,-0.06994,0.00014745,0.0078877,-0.010141,0.030859,0.15675,-0.0042291,-0.17705,-0.095895,0.089643,-0.042977,0.032843,0.017903,0.13975,0.06684,-0.35104,-0.32529,0.014322,0.19208,0.07074,0.067528,-0.050951,-0.13338,-0.27892,0.039206,0.33977,0.23005,-0.10929,-0.011162,0.0064767,-0.0038728,-0.0761,-0.014242,0.17021,0.20362,-0.0075386,-0.088624,-0.022743,-0.061764,-0.061599,0.056898,0.13824,0.023834,-0.10382,-0.12836,0.038819,0.012021,-0.00065045,-0.033688,0.035579,0.062005,-0.024688,-0.05095,0.013405,0.069557,0.024469,-0.011293,0.070449,0.00092001,-0.032671,-0.0096872,0.0038253,0.0039125,-0.036039,-0.04215,0.0090077
0.013493,0.015229,0.024971,0.0017887,-0.022375,0.017081,0.0091777,0.01305,-0.039897,0.089871,-0.014242,-0.048598,-0.054568,-0.04245,0.00097744,-0.0054834,0.03129,0.020934,0.014733,-0.042797,-0.038477,-0.039752,-0.0047708,0.035089,0.0080277,-0.004885,0.032323,-0.036783,-0.0088343,-0.01167,0.031014,0.074525,0.0079576,0.0019692,0.011833,0.012363,-0.044532,0.0059274,0.027468,0.095832,0.13749,0.046575,0.028843,0.032687,-0.0091108,-0.024433,0.0066066,0.0090284,0.031506,0.066205,0.014694,0.0039644,0.017206,-0.023355,0.0006488,0.013004,0.015515,-0.0038847,-0.015775,0.0017807,-0.0027205,-0.021101,-0.013928,0.030809,0.018745,0.033013,0.049591,-0.0031342,-0.031413,-0.014097,0.003916,-0.00078423,-0.01181,0.0088073,-0.015276,-0.031156,-0.0010004,0.0024798,-0.0019204,0.0029886,0.00012245
-0.069025,-0.014163,-0.009552,-0.0050562,0.028018,0.0047539,0.01481,0.0082201,-0.013147,-0.049927,-0.0050068,0.020774,0.024842,0.0029264,-0.027829,0.017379,0.0085858,-0.027853,-0.051547,-0.037666,0.014202,0.0022425,0.005348,-0.023379,0.030756,0.036139,-0.0062873,-0.015691,0.008097,0.06693,0.01415,0.062678,0.027359,0.030307,0.0079784,0.0057897,0.07876,0.074178,0.1325,-0.010257,0.015609,-0.0099572,-0.010198,-0.040245,-0.026174,0.055832,0.11365,0.12093,-0.073584,-0.055645,-0.062461,-0.038187,-0.013719,-0.035059,-0.044248,0.051558,0.055947,-0.03156,-0.011273,-0.033986,-0.075669,-0.017783,-0.0082365,0.0043843,0.013963,0.018699,0.0083758,0.0089134,0.0088368,-0.0001391,-0.0035397,-0.045772,0.014882,-0.012119,-0.048805,-0.033528,-0.016149,-0.042027,-0.027282,0.012373,-0.019137
-0.05313,0.022547,-0.00099455,0.03951,0.0070683,-0.0097234,-0.0068337,0.028954,0.023814,0.014141,0.033804,-0.10002,0.022051,0.027544,-0.020698,0.0087359,0.060514,-0.057931,-0.0034904,-0.049807,-0.26913,-0.1041,0.026813,0.079005,0.19251,0.21401,-0.05715,0.053827,-0.098495,-0.31742,-0.25567,-0.065314,0.077796,0.19669,0.32698,0.067417,0.042736,-0.003281,-0.17732,-0.086605,-0.037971,-0.0073568,0.051907,0.17241,0.035814,-0.015022,0.043531,-0.024226,0.057902,0.0078577,-0.037808,-0.038619,0.019154,-0.015289,-0.0031667,-0.022156,-0.023588,0.01812,-0.0062593,-0.014719,-0.023693,0.014592,0.028022,0.01799,0.0053832,-0.0066272,-0.01556,-0.0027347,0.0080078,0.0023041,-0.022768,0.009573,0.0072207,0.00055816,-0.0051434,-0.0060355,0.020122,-0.0098303,-0.031151,0.031144,-0.011516
-0.045141,-0.0061893,-0.0006412,0.0030578,-0.015709,-0.0035725,-0.02373,0.00020445,0.045819,0.034784,0.020948,0.022046,0.0061301,0.0072939,0.017322,-0.0067107,-0.010462,0.00066169,0.015211,0.040782,0.001656,-0.040525,-0.043785,0.012464,0.0097259,-0.012314,-0.023878,-0.011178,0.058541,0.022398,0.035142,-0.022932,0.0025286,0.02215,0.018507,-0.0098357,-0.012565,0.011581,-0.004151,0.039008,-0.008438,-0.0032859,0.010483,0.0082868,-0.050637,0.025267,0.043206,0.031195,-0.0029505,-0.017498,0.019034,-0.0033865,-0.0011411,-0.02947,-0.011505,0.0017822,-0.014144,-0.010091,-0.010587,0.025917,-0.03892,-0.046381,-0.012944,0.0055692,0.0189,0.016362,0.052605,0.0030159,-0.0033418,0.018447,0.00058095,0.0049316,-0.097134,-0.020141,-0.0015641,0.018516,0.0077208,0.0068158,0.046317,-0.009674,-0.0031312
-0.00062845,-5.5266e-05,0.0014733,-0.00014847,0.00027449,-0.0002334,-0.0018124,-0.00017917,0.00054378,0.0010317,-0.0026191,-0.0011556,-0.0005893,0.00082303,-1.9142e-05,-0.0019976,-0.00073302,-0.00022715,-0.00057397,0.00079548,0.00021794,-0.00035829,-0.0014449,0.001364,-0.00089314,-4.4669e-05,-0.00025393,0.0016671,0.00037142,0.00033148,-0.0020713,-0.0009971,0.0011224,-0.00064716,-0.0019308,0.0020347,2.293e-05,-0.00030538,-0.00027501,-0.00046177,0.00074417,-0.00042109,0.0019183,-0.00087241,-0.0001636,-0.0016419,-8.742e-06,0.00098329,-0.00041534,0.00014248,-0.00014755,-0.00091393,-0.0024397,0.00013937,-0.00022039,0.00016008,0.00027749,0.0010643,-0.00029592,-0.0018288,0.002297,-0.0011277,0.0010449,-0.002199,-0.00063268,-0.0016993,0.0002078,-0.00057152,5.4153e-05,-0.0012086,0.00048227,0.0012807,-8.5747e-05,0.00096767,0.0012952,-0.001692,-5.9933e-05,0.0015053,-0.002251,-0.00048365,0.00013666
0.028407,0.0052927,-0.013115,-0.040106,-0.0099044,-0.019777,-0.032397,0.0082148,-0.0028019,0.013751,0.014726,0.020912,-0.018942,-0.024942,-0.014671,0.023562,0.035266,0.0035295,0.037171,-0.071889,-0.044355,-0.019279,-0.0083524,-0.019539,-0.0083015,0.010754,0.0042795,0.017591,-0.18157,-0.099241,0.013062,0.012112,-0.011766,0.016652,0.065477,-0.021189,-0.087871,-0.28387,-0.13877,-0.014424,-0.010382,-0.004839,0.044712,0.10381,-0.0080965,-0.062745,-0.1359,0.0081126,0.059357,0.011657,0.036387,0.19367,0.25091,0.072611,-0.049288,-0.071801,-0.011315,0.0088114,0.0076492,0.081244,0.14287,0.13296,-0.0091107,0.04259,-0.022058,0.026465,-0.0053649,-0.0058363,0.058922,0.023161,0.0088944,-0.058581,-0.0098197,-0.050121,0.011185,0.0069752,0.018194,0.039212,7.1238e-05,-0.019539,-0.011957
-0.018823,0.019594,-0.0022974,-0.014793,-0.031863,-0.020248,0.014562,0.0028544,-0.060819,0.029979,0.030035,0.029335,0.014273,-0.0087381,0.025775,0.040851,-0.0049173,0.013921,-0.0029759,-0.02586,-0.020839,-0.024305,0.0098342,-0.020449,-0.005477,-0.020032,-0.054723,0.020567,0.016693,-0.018906,-0.027928,0.12941,0.029806,-0.013765,0.010577,-0.018125,-0.0019684,-0.0046039,-0.0014922,0.018428,0.17885,0.039439,-0.037249,0.030817,0.01413,-0.0057165,0.0047598,-0.0090148,-0.023429,0.077639,0.053983,0.027016,0.030004,-0.039894,0.036458,0.010628,-0.016865,-0.044729,-0.044701,-0.021602,-0.013129,0.026337,0.043062,0.013685,-0.024308,-0.005115,0.0035114,0.020468,0.032691,0.00094928,0.0095327,0.013254,-0.0235,-0.033459,0.0071983,0.0046323,0.047319,0.010651,0.0020689,-0.00058719,-0.064299
0.0427,-0.017474,-0.025418,-0.021549,-0.014647,-0.0023912,0.0025007,0.022101,0.090712,0.045704,-0.0071156,-0.012568,-0.013148,0.0087932,0.0079006,0.010892,-0.0059983,0.084545,0.019653,-0.014513,0.0089562,0.010897,0.0013877,0.011763,0.006128,-0.015225,0.044699,0.033426,0.024189,0.025841,0.016406,-0.00016263,0.017815,-0.026923,-0.0089112,0.010193,0.033592,0.012557,0.011464,0.07722,0.099081,0.074221,-0.024014,0.014763,0.0035708,0.045337,0.01257,-0.02917,-0.023365,-0.001167,0.020069,-0.018451,0.02032,0.01144,0.0027274,-0.025436,-0.030505,-0.017704,-0.024075,-0.00097814,-0.0027703,-0.030147,-0.0092474,0.026275,-0.014906,0.010356,0.044254,-0.0051896,-0.015346,0.024471,-0.0059485,0.033536,0.014442,0.0024676,0.010495,0.033591,-0.011355,-0.016437,-0.0040736,-0.015096,0.045606
-0.012422,-0.042967,-0.021834,-0.10168,-0.072176,-0.012675,-0.044813,0.043505,0.0095093,0.01514,-0.032266,-0.031413,-0.12597,-0.19315,-0.10856,-0.071467,0.0044219,-0.041166,0.0087775,-0.054079,-0.02244,-0.087057,-0.10057,-0.088188,-0.090434,0.029001,-0.048237,-0.0034326,0.0066379,0.062629,-0.0005173,0.039749,0.027414,-0.10506,-0.0033855,0.0030543,-0.016443,0.042779,0.07357,-0.078378,-0.022141,0.051195,-0.070292,-0.052784,0.0034868,0.02085,0.061821,0.036686,-0.15148,-0.10653,-0.020726,-0.028942,-0.0023586,-0.0026986,0.03585,0.076976,0.08502,-0.0063324,0.011861,0.041195,0.018014,0.018278,-0.0047175,-0.022159,0.0090293,0.11332,0.14621,0.22207,0.14045,0.034393,-0.010069,-0.01348,-0.026953,-0.010556,0.090746,0.15208,0.18967,0.09112,0.061907,0.037255,0.026403
