0.00028078,-0.0080178,-0.010872,-0.010609,0.0016813,-0.0071119,-0.014662,0.0028483,-0.015275,-0.0068614,-0.0074815,0.0037604,0.090491,0.0047899,-0.0072296,-0.0069523,-0.01522,0.0054179,-0.014669,-0.0062123,0.00095002,-0.010881,-0.012495,-0.0096481,0.00037637,0.0041084,-0.0043044,-0.0034686,-0.0045395,0.0048662,-0.0027803,-0.0092064,0.0086594,-0.0069439,-0.0047327,-0.0021792,0.0067123,0.088078,0.01099,-0.0055418,-0.0041603,-0.0075268,0.01153,-0.0096338,-0.0034124,0.0031546,-0.005754,-0.0057062,-0.0052626,0.0050707,0.0032095,-0.00454,-0.0044929,-0.00516,0.0034415,-0.0027127,-0.0099193,0.0071791,-0.0080812,-0.0045075,-0.0028183,0.0065561,0.089808,0.0089908,-0.0051812,-0.0043097,-0.0087274,0.0095525,-0.010396,-0.0033486,0.0017664,-0.0066805,-0.0067678,-0.0058767,0.0038445,0.0071891,-0.0017903,0.00026765,-0.00017604,0.0078692,0.00039067,-0.0065927,0.010743,-0.0026873,-0.0022301,0.0009639,0.0087957,0.088702,0.013625,-0.0034746,-0.0012776,-0.0041627,0.013901,-0.0068189,-0.00099109,0.0066303,-0.0019105,-0.0015612,-0.0015621,0.0085214,0.00071918,-0.0067993,-0.01121,-0.0091934,0.0010441,-0.0058213,-0.016907,-0.0032465,-0.017725,-0.0064117,-0.0077452,0.0012247,0.092992,-0.0018971,-0.0073097,-0.0066997,-0.018582,-0.0015242,-0.018359,-0.0052567,-0.0013836,-0.010814,-0.012795,-0.0086959,0.0012182,0.0065164,-0.0024681,-0.00082358,-0.0013763,0.0070292,-0.00038385,-0.0074677,0.0099482,-0.0041618,-0.003179,0.00021059,0.0080618,0.088422,0.012646,-0.0043731,-0.0018736,-0.0051312,0.013112,-0.0078058,-0.0019397,0.006233,-0.0025771,-0.0024855,-0.0024891,0.0075008,0.0021183,-0.0054556,-0.0063925,-0.0063006,0.0023893,-0.0034158,-0.011378,0.0055392,-0.010376,-0.004622,-0.0041149,0.0061391,0.093271,0.006954,-0.0052911,-0.0046076,-0.011194,0.0076751,-0.011479,-0.0032848,0.00087496,-0.007971,-0.0080309,-0.0062039,0.0031531,0.0065722,-0.0023812,-0.00057937,-0.0014005,0.0068473,-0.00036898,-0.0074601,0.010217,-0.0039666,-0.0032286,0.00030132,0.0081761,0.088529,0.01274,-0.0044288,-0.0018893,-0.0049817,0.013167,-0.0079515,-0.002149,0.0058518,-0.0028374,-0.0026999,-0.0028516,0.0071385,0.0068409,-0.0023222,-0.00069417,-0.0012567,0.0070435,-0.00014315,-0.0076301,0.0097877,-0.004236,-0.0032416,0.00053986,0.0080239,0.088286,0.012282,-0.0045903,-0.0013535,-0.0048835,0.012942,-0.0082041,-0.0022139,0.0067797,-0.002201,-0.0024149,-0.002588,0.0073214,0.0035503,-0.0044672,-0.0043215,-0.0051891,0.0041334,-0.0029932,-0.00957,0.0080073,-0.0077531,-0.0047404,-0.0027285,0.0067328,0.089041,0.010361,-0.0053,-0.0042723,-0.0082053,0.010891,-0.0099569,-0.0035633,0.0029693,-0.0059529,-0.006268,-0.0055621,0.0044133,0.0058057,-0.0031147,-0.0017728,-0.0023033,0.0065535,-0.0012148,-0.0083673,0.0091197,-0.0052392,-0.0034984,-0.00059747,0.0072719,0.087957,0.011734,-0.0046424,-0.0024044,-0.0059893,0.01221,-0.0087705,-0.0023708,0.0055042,-0.0034177,-0.0036461,-0.0035173,0.0068188,0.0068047,-0.0022597,-0.00051947,-0.00101,0.0073065,-0.00012324,-0.0073448,0.010051,-0.0038142,-0.002898,0.00045739,0.0081969,0.088464,0.012779,-0.0041375,-0.0015448,-0.0048291,0.013242,-0.0077123,-0.0016961,0.006568,-0.0022089,-0.0021676,-0.0022106,0.0078333,0.0086886,-0.00059168,0.0018554,0.0013042,0.0085144,0.0018911,-0.0056361,0.011478,-0.0012455,-0.0017481,0.0025611,0.0095686,0.088663,0.014205,-0.0031908,0.00023655,-0.0026599,0.014569,-0.0061502,-0.00073493,0.0081248,-0.00040364,-0.00014443,-0.00050841,0.0090963,0.0061051,-0.0028902,-0.0014609,-0.0020107,0.0066733,-0.00080893,-0.0079868,0.0094633,-0.0049159,-0.0035002,-0.00016715,0.0077193,0.088245,0.012082,-0.0046727,-0.0020785,-0.0056189,0.012648,-0.0084302,-0.0022792,0.0060338,-0.0029765,-0.0030926,-0.003027,0.0071004,-4.6333e-09,-3.9044e-09,-3.0485e-09,-5.5824e-09,-7.7831e-09,-2.8332e-09,-1.4809e-09,-1.1239e-11,-4.0139e-09,-7.4438e-09,-8.1032e-10,-1.6633e-09,0.0625,-6.452e-09,-7.311e-09,-1.9941e-09,-3.772e-09,-5.1567e-09,-7.2539e-09,-8.5562e-09,-3.0358e-09,-4.4367e-09,-4.1812e-09,-6.3231e-09,-9.5661e-09,-0.0091819,-0.015133,-0.024758,-0.018801,-0.0056075,-0.013737,-0.025673,-0.012421,-0.03409,-0.011309,-0.016038,-0.0070533,0.10273,-0.011777,-0.015596,-0.014298,-0.031468,-0.011532,-0.026246,-0.011893,-0.0037363,-0.015889,-0.0201,-0.013316,-0.0076949
